const float weight1[32][201]={{0.121087945997715, 0.821103572845459, -0.2545624077320099, 0.24093766510486603, -0.02707877941429615, 0.4658201038837433, 0.9629209637641907, 0.19488798081874847, -0.0070957280695438385, 0.5921149849891663, -0.4018239378929138, -0.3150884807109833, -0.7309905290603638, 0.8064912557601929, 0.32387930154800415, -0.35232800245285034, 1.3105782270431519, -0.5639742016792297, 0.17159299552440643, -0.02259088307619095, 1.260869026184082, 0.3446907699108124, -0.04146613925695419, -0.058168526738882065, 0.004437148105353117, -0.04245157167315483, -0.3640331029891968, 0.05799539014697075, 1.4115713834762573, 1.7480847835540771, 0.2757866382598877, -0.7063525319099426, -1.2160381078720093, -0.19319704174995422, -0.4026711583137512, 1.0888513326644897, 0.40884721279144287, -0.6127733588218689, -0.14226073026657104, 1.4861637353897095, 0.6836335062980652, 2.093147039413452, -0.2457265853881836, 0.6938184499740601, -0.1474241465330124, 1.3183740377426147, -1.464137077331543, 1.1862188577651978, 0.4484460651874542, 0.501532256603241, -0.021053776144981384, 0.07614823430776596, -0.5444011688232422, 0.13126637041568756, 1.3381246328353882, 0.2347644567489624, -0.03878866508603096, 0.7860732674598694, -0.5744405388832092, 0.35175004601478577, 0.5565770268440247, 0.008560356684029102, -0.42279285192489624, -0.15960396826267242, 0.7648242712020874, -0.02873470075428486, -0.14081349968910217, 0.47836264967918396, 0.009314521215856075, 0.4059264361858368, 0.8983862996101379, 1.4293609857559204, 1.0261961221694946, -0.11912918090820312, 0.23854245245456696, 0.14049288630485535, 0.11268338561058044, 0.17496837675571442, 0.023856041952967644, 0.08098926395177841, 0.17621999979019165, 0.22685904800891876, 0.0237922091037035, -1.4153001308441162, 0.22170673310756683, -0.33315765857696533, 0.6100819110870361, 0.6505627036094666, 0.054443128407001495, 0.43036094307899475, 0.3987087905406952, -0.09231378883123398, -0.48049286007881165, -0.2877069115638733, 0.7383178472518921, -0.9677404165267944, -0.8016325235366821, -0.11702797561883926, 0.9828680753707886, 0.3951185643672943, 0.6556385159492493, 0.20678085088729858, 1.7083300352096558, 1.400322675704956, 0.8653278946876526, 0.7548543214797974, 0.4611436128616333, 0.8672724962234497, 0.29279521107673645, 0.260188490152359, 0.19495078921318054, 1.3276435136795044, 2.148245334625244, 1.6802585124969482, 0.3011966645717621, 0.666129469871521, -0.5369049906730652, 0.5099993944168091, 1.6441066265106201, 1.0933582782745361, 1.115465760231018, 0.3182554841041565, -0.14162170886993408, 0.2629743814468384, 1.359197974205017, 0.42221561074256897, -0.7178430557250977, 0.4498579204082489, 0.6183792352676392, 0.01053783018141985, -0.07200288027524948, -0.5147180557250977, 0.13309359550476074, 0.541684091091156, 0.13408565521240234, 0.1496589183807373, 0.06444769352674484, 0.1817174106836319, 0.12075747549533844, -0.5415859818458557, -0.22223584353923798, -0.028056317940354347, 0.1979030966758728, -0.44460171461105347, 0.09219939261674881, -0.5025553107261658, 0.054521460086107254, 0.22396187484264374, -0.8077014088630676, 0.9028418064117432, 0.3040294945240021, 0.05635862797498703, 0.6152567863464355, -0.501139760017395, 0.3681827485561371, -1.5069177150726318, -0.37698686122894287, -0.4811432957649231, 0.021345777437090874, -1.5875236988067627, -1.2310264110565186, 0.20160074532032013, -0.43620872497558594, 0.6223169565200806, 0.08249925822019577, -0.3856135606765747, 0.5078762769699097, -0.7896348834037781, 0.010007898323237896, -0.5149293541908264, -1.1814039945602417, -0.08162188529968262, 1.4126176834106445, 0.592215895652771, -1.6765670776367188, 0.8035971522331238, 0.20411816239356995, -0.9244878888130188, 0.1868232786655426, 0.7169033288955688, -0.03449421003460884, 0.5315514802932739, 0.03678669035434723, 0.23886391520500183, -0.39484354853630066, 0.517717719078064, 1.3502007722854614, 0.8741117715835571, 0.0941670760512352, 0.4211600720882416, 0.1003698781132698, 1.469139814376831, 1.9232544898986816, -0.05038946494460106, -0.45759496092796326, 1.0427497625350952, 0.7079140543937683, 0.7873895168304443, 1.1745890378952026, -0.5296537280082703, 0.5531956553459167},
    {-0.33874887228012085, 0.2234925478696823, -0.6263520121574402, -0.21063412725925446, -0.4494682848453522, 0.6264563202857971, -0.10843821614980698, -0.4128798544406891, 0.9931001663208008, 0.9938668012619019, -0.6780790090560913, 0.31547555327415466, 0.3671618402004242, 0.23768733441829681, 1.1435595750808716, -0.4009253680706024, 0.4893857538700104, 0.7896336317062378, -0.12803985178470612, -0.5117413997650146, -0.2085525095462799, 0.4075007140636444, -0.212542325258255, 0.35035303235054016, 0.18766027688980103, 0.7325536012649536, 0.3911924362182617, -0.08272486180067062, -0.9372523427009583, 0.27146804332733154, 0.06772430986166, -0.10401712357997894, 0.11351466178894043, 0.37602344155311584, 1.2748916149139404, 0.5800376534461975, 0.43747538328170776, 0.05113261193037033, 0.12092281877994537, -0.4779150187969208, -0.8318227529525757, -0.20600341260433197, 0.7252541780471802, -0.9458531737327576, 0.32128629088401794, -0.6549913287162781, -1.2955836057662964, -0.144205242395401, 0.20025688409805298, 0.21177221834659576, 0.013248530216515064, 0.4776727557182312, 0.06971072405576706, -0.5754411816596985, -0.5359144806861877, 0.19153077900409698, -0.5545579791069031, 0.30943623185157776, -0.262468159198761, 0.12440452724695206, 0.19762331247329712, 0.15873831510543823, -0.653778612613678, 0.23660464584827423, -0.9510642290115356, 0.07309556752443314, 0.34806007146835327, 0.2863748371601105, -1.195542335510254, 1.4325593709945679, 0.8792250752449036, -0.027968652546405792, -0.10519590973854065, 0.270902544260025, 0.09027714282274246, 0.26953884959220886, -2.0916709899902344, 0.2068161517381668, 1.1334034204483032, 0.12037374824285507, -0.07260648161172867, 0.032411783933639526, 0.03514106944203377, 0.3702034056186676, 0.0800231546163559, -0.7942718863487244, -1.0954874753952026, 0.7150663137435913, -0.3707856237888336, 0.9899051189422607, -0.353410929441452, 0.059574712067842484, 1.0477863550186157, 0.6367601156234741, -1.4854682683944702, -0.145477294921875, -1.7101401090621948, 0.5246233940124512, 0.13640953600406647, 1.103783130645752, -0.09688924998044968, -1.0209317207336426, -1.1757858991622925, 0.2502835690975189, 0.8265540599822998, 0.1411760151386261, -0.32156217098236084, 0.8921305537223816, 0.6507095098495483, 0.8703969120979309, 0.5816100835800171, -0.37160205841064453, -0.49078986048698425, -0.48433876037597656, -0.6968300342559814, 0.6580209136009216, 1.1890619993209839, -0.8818656802177429, -0.006428238935768604, 0.36205512285232544, -0.2744440734386444, 0.37395671010017395, 1.1020203828811646, -1.5604599714279175, 0.1472911387681961, 0.7344800233840942, 0.8668636083602905, -0.25021907687187195, -0.9834843873977661, -2.2126896381378174, -0.3295564353466034, 0.5832164287567139, 0.14779432117938995, -0.31945568323135376, 0.9475186467170715, 0.2985633313655853, -0.9535952210426331, 0.530815839767456, 0.42069315910339355, 0.5879901051521301, -0.8969495892524719, 0.15380515158176422, -0.543993353843689, 0.8455148935317993, 0.5678843855857849, -0.45828378200531006, 0.5369162559509277, -0.24778282642364502, -0.406030535697937, -0.5260947942733765, 0.23384593427181244, -0.16659227013587952, 0.16178177297115326, 1.1037559509277344, -0.10693991929292679, 0.03984161093831062, 0.8477951288223267, -1.6676924228668213, -0.30364394187927246, -0.3298319876194, 1.1683862209320068, -0.3251100480556488, -0.4163304567337036, -0.031721264123916626, -0.11028890311717987, -0.1393214464187622, 0.2502507269382477, 0.21838456392288208, -0.665452241897583, -0.556901752948761, 0.606650173664093, 0.7341472506523132, 0.6029595732688904, 2.4631433486938477, -0.9677172303199768, 0.7810097336769104, 0.3244946002960205, -0.15443770587444305, 1.4017987251281738, -0.3654443919658661, -0.5805228352546692, 0.2593706548213959, -1.446470022201538, -0.2527557909488678, 0.5891708731651306, -0.28028345108032227, 0.05754748359322548, -0.7487496137619019, -0.10051021724939346, -0.8904847502708435, -1.4429802894592285, -0.5424371957778931, 0.2711796760559082, 1.4474642276763916, 0.46037861704826355, 0.2076210230588913, -0.002285900991410017, 0.0005458152154460549, 0.17501592636108398, -0.42789188027381897, -0.6854811310768127},
    {-0.8949041366577148, -0.042809005826711655, -0.7191401720046997, -0.3705260157585144, 0.041974544525146484, 0.38931572437286377, -1.3762457370758057, 0.22990688681602478, 0.8320231437683105, 1.1838051080703735, -0.22487778961658478, -1.4197138547897339, 0.1513817459344864, 0.12507982552051544, 0.47017017006874084, 0.1616286337375641, -0.5695558190345764, 0.8431799411773682, -0.5568685531616211, -0.20609037578105927, -0.7228126525878906, -0.3841230571269989, -0.41647788882255554, -0.28437116742134094, -0.5661526918411255, -0.9372895956039429, -0.036152299493551254, -0.01669490523636341, -0.4541145861148834, -0.21303534507751465, -0.4489895701408386, -1.4778995513916016, -0.20426680147647858, -0.7485665082931519, 0.14828453958034515, 0.49414685368537903, -0.7800042629241943, 0.20808199048042297, -0.26924648880958557, 0.6664135456085205, 0.6033666729927063, -0.1092100739479065, -0.4461638033390045, -0.46694058179855347, -0.1625729650259018, -2.3100860118865967, 0.27517977356910706, -0.8228052258491516, 0.7299529910087585, 0.32234475016593933, -0.20362845063209534, -0.3136398196220398, -0.04671810567378998, 0.12901730835437775, -0.8112486004829407, 0.08011024445295334, 0.05853865668177605, 0.720376193523407, 0.5045916438102722, 0.536151111125946, 0.2915341854095459, 0.018667025491595268, 0.5481546521186829, 0.6225687265396118, 0.7024657130241394, -0.9197424054145813, 0.19813592731952667, 0.28647246956825256, -0.5897642374038696, -0.36690643429756165, 0.18874570727348328, -0.6754669547080994, -0.16963373124599457, 0.006668668705970049, 0.09667576104402542, -0.05850064009428024, -0.18846020102500916, 0.41599082946777344, 0.6303173899650574, 0.18468576669692993, -0.24303919076919556, -0.13078877329826355, -0.14961278438568115, 0.11861340701580048, 0.3513493537902832, 0.4820162355899811, -0.8181050419807434, -0.324299693107605, -0.4776199162006378, -0.2923552989959717, -0.3496372699737549, -0.6963236927986145, -0.3813144862651825, -0.21442176401615143, -0.7616544365882874, 0.4521602988243103, 0.17791453003883362, 1.3301403522491455, 1.3234367370605469, -1.0275795459747314, 0.5891193747520447, 0.27830371260643005, 0.1054275631904602, -0.13246241211891174, 0.07042217999696732, 1.0504564046859741, 0.9386204481124878, 0.16179905831813812, 0.5451939105987549, -0.8390378952026367, 0.3330962061882019, -0.33307120203971863, 1.0176414251327515, -0.7658782005310059, -0.7875766754150391, -0.18557153642177582, -0.9055137634277344, 0.7629393935203552, 0.4434143006801605, -0.6363346576690674, -0.8770419955253601, -0.8131418824195862, -0.9529510140419006, 0.2531558573246002, -0.8870093822479248, 0.7041740417480469, -0.06277849525213242, -0.43715184926986694, 0.3645922541618347, -0.10623661428689957, 0.17027197778224945, 0.9580114483833313, -0.7200002074241638, -0.3397223651409149, 0.057137712836265564, -0.4674517810344696, 0.633854866027832, 1.1555945873260498, -0.17067191004753113, 0.14534367620944977, 0.2816760838031769, -0.37032726407051086, 1.0036227703094482, 0.4869614541530609, 1.3063700199127197, 0.8343484401702881, 0.24625493586063385, -0.7057673335075378, -0.02411726675927639, 0.0026369458064436913, 0.20927788317203522, 0.12655510008335114, 0.761991024017334, -0.7281261086463928, -0.40802669525146484, -0.33712542057037354, 0.32228755950927734, 1.2675251960754395, 1.0523964166641235, 0.9346497058868408, 1.7248084545135498, -0.03240251913666725, -0.14346672594547272, -0.5989672541618347, 0.41801953315734863, 1.1200376749038696, -0.09511494636535645, -0.006471691187471151, -0.8542920351028442, -0.02930358424782753, 0.5355995893478394, -1.2211077213287354, 0.9448233842849731, 0.6843442916870117, -0.4683884084224701, -1.7890925407409668, 0.022502945736050606, 0.37473174929618835, 0.7081008553504944, -0.12393331527709961, -0.9255431890487671, -0.304033100605011, 0.9525578022003174, 0.5332583785057068, 0.27039939165115356, -0.3146061897277832, -0.41962236166000366, -0.09117361903190613, 0.7522822618484497, 1.0118788480758667, 0.8126256465911865, -0.9725337624549866, -0.33316096663475037, 0.4148857295513153, -0.8831472992897034, -1.3748036623001099, -1.0723230838775635, -0.1609993278980255, 0.22497695684432983, -0.8753138780593872, -0.5169190764427185},
    {0.3597048223018646, 0.20807956159114838, -0.06678066402673721, -0.2534152865409851, 0.05459219217300415, -0.7191718816757202, -0.923119843006134, -0.00047993683256208897, -0.4321974515914917, 0.9978950619697571, -0.5094954967498779, 0.563764214515686, 0.27246397733688354, -0.05668241158127785, -0.5626389384269714, 0.849713146686554, -0.539016604423523, 1.0347930192947388, -0.49345916509628296, -0.053284503519535065, -0.4244648218154907, 0.900787889957428, 1.5399343967437744, -1.2082595825195312, -0.19964689016342163, -0.8700594305992126, -0.730995237827301, -0.4243226647377014, -0.8858616352081299, -0.7159960269927979, -0.4830786883831024, -0.6079756617546082, -0.18350762128829956, -0.397848904132843, 0.7430890798568726, 0.8432941436767578, -0.0818040668964386, -0.5230740308761597, 0.09646856039762497, 0.18309396505355835, 0.5561087131500244, 0.9386366605758667, 0.594782829284668, -0.672218918800354, -1.7490721940994263, 0.6638814806938171, 0.5389021635055542, 0.09411482512950897, -0.23341043293476105, -1.0960158109664917, 0.03219090402126312, 0.38741499185562134, 0.1935296654701233, 0.24589155614376068, 0.5912593603134155, 0.18722695112228394, 0.11123806983232498, -1.27885103225708, -0.10560106486082077, -0.13975763320922852, 0.02595648169517517, 0.13492125272750854, -0.47667020559310913, 0.21087513864040375, -0.7337904572486877, -0.1392027586698532, 0.23634205758571625, -0.6807636618614197, 0.2245829552412033, -0.008795102126896381, 0.7107469439506531, -0.8683404326438904, -0.7461709976196289, 0.22192659974098206, 0.1904543787240982, -1.3396673202514648, 0.28695473074913025, 0.3835790157318115, 0.3123936057090759, 0.15135298669338226, 0.2304067313671112, 0.028571059927344322, -0.05886270850896835, 0.02533208392560482, -0.08207358419895172, -0.27459973096847534, 0.4908132255077362, -0.4686824381351471, 0.08236806094646454, -0.34561586380004883, 0.22182713449001312, -0.0774773359298706, -0.5196214914321899, -0.18174424767494202, -0.012120246887207031, -0.7887287735939026, -1.2760021686553955, 0.5560157299041748, 0.023043468594551086, 1.2908141613006592, 0.26905572414398193, -0.4251005947589874, 0.13080070912837982, -0.5384604334831238, -0.4400409758090973, 1.0282032489776611, 0.3229908049106598, -0.7327173948287964, 0.8702320456504822, 0.2686150074005127, -0.3642791509628296, -0.49982747435569763, 1.9446347951889038, 0.22686833143234253, -0.6244399547576904, 0.009926976636052132, 0.6261524558067322, -0.14883023500442505, -0.3802679777145386, 0.07942414283752441, 0.8950962424278259, -1.0159578323364258, -0.7022275924682617, 0.17741869390010834, -1.151405930519104, 0.432757705450058, 0.1502578854560852, -0.36191847920417786, 0.6783856749534607, -1.250342845916748, 0.08324574679136276, 0.9259933233261108, -1.1191736459732056, -0.05209077522158623, 0.2369082123041153, -0.264333575963974, -0.19327200949192047, 0.5728764533996582, 0.05245232954621315, -0.7639941573143005, 0.520618200302124, 0.40225642919540405, 0.8788418173789978, 0.27781733870506287, -0.2071695476770401, -1.0001845359802246, -0.10102607309818268, -0.4271017611026764, 1.2534010410308838, 0.5009501576423645, -0.08998973667621613, -0.10924829542636871, 0.6179673075675964, -0.5016325116157532, -0.2913234531879425, -1.5545011758804321, 0.485947847366333, 0.9981024861335754, -0.33854150772094727, -0.025037311017513275, 0.6411125063896179, -0.3466877043247223, -0.9636387228965759, -0.1520683318376541, 0.12724368274211884, 1.2719643115997314, 0.7283357977867126, 0.6958380341529846, -1.2596075534820557, -0.00027025616145692766, -0.0004988292348571122, 0.0635286197066307, 1.3843590021133423, 0.6671220660209656, -1.0413641929626465, -1.1302814483642578, 0.572188138961792, -0.051845163106918335, 0.09287426620721817, -0.22016163170337677, -0.2883610427379608, -0.6052194833755493, 0.906934380531311, -0.06957308948040009, 0.45318713784217834, 0.21506306529045105, -0.43384745717048645, 0.43914780020713806, 0.0587475448846817, 0.562938928604126, -0.06325344741344452, -0.3185479938983917, -1.1292877197265625, 0.6029080152511597, -0.06835512071847916, -0.9691793322563171, -0.45635461807250977, -0.47428005933761597, 0.3578745722770691, -0.2299942672252655, 0.10041703283786774},
    {0.2966989278793335, 0.550417423248291, -0.182388037443161, 0.4802497923374176, 0.2670152485370636, 1.311621904373169, 0.7167273163795471, 0.4109538793563843, 0.11910058557987213, -0.9677302837371826, -0.26669013500213623, 0.29753702878952026, 0.5232843160629272, 0.04826796427369118, 0.751501739025116, -0.20457914471626282, -1.223117709159851, -0.5195667147636414, -0.29620495438575745, -0.27967897057533264, 0.3798442780971527, 0.8725147843360901, 0.1599847823381424, -0.057933080941438675, 0.43351447582244873, 0.03878994286060333, 0.08903699368238449, -0.7348471283912659, -1.482175588607788, -1.8070284128189087, 0.17433683574199677, 0.3324336111545563, 0.7606638669967651, -0.23611636459827423, -0.1688169538974762, 0.3666587769985199, 0.015230692923069, 0.23939691483974457, -0.03421550244092941, 2.0232443809509277, 1.6162344217300415, 2.454190731048584, 0.19835565984249115, -0.0014058121014386415, 0.2271602898836136, 0.5068062543869019, -0.6101710796356201, 0.35758334398269653, 0.57685786485672, 0.25615668296813965, -0.06204507499933243, -1.0984783172607422, 0.20852068066596985, -0.46969282627105713, 1.361283302307129, 0.3040104806423187, -0.5072854161262512, 0.7614401578903198, -0.4819507896900177, 0.42609551548957825, 0.5197965502738953, 0.09792346507310867, -1.7688148021697998, -0.5242589712142944, 0.34367597103118896, 0.9122917652130127, -0.16790902614593506, 0.45918920636177063, 0.28369295597076416, -0.332179456949234, 0.7290210127830505, -1.2826167345046997, -1.132844090461731, 0.09273767471313477, -0.4692474901676178, -0.5273434519767761, 0.4532295763492584, 0.3568575084209442, -1.168718695640564, 0.1618606597185135, -0.10266485065221786, 0.08046209067106247, -0.5482850074768066, -0.10257527232170105, 0.11500919610261917, 1.3149256706237793, 1.324076771736145, -0.7895227670669556, 0.590346097946167, -0.32478243112564087, 0.8257933855056763, 1.2835266590118408, 1.0449639558792114, 0.7233216762542725, 0.64243483543396, 0.4217415153980255, 0.2334490716457367, -1.7314683198928833, 0.14008569717407227, 0.5799819231033325, 0.3367908000946045, 0.06160074472427368, 2.6196720600128174, -1.5974868535995483, -1.3089896440505981, 0.26505884528160095, -0.34251177310943604, -0.035952772945165634, 0.002653435105457902, 0.18682275712490082, 0.09856324642896652, 2.1578829288482666, 0.30761829018592834, 1.1919509172439575, 0.78581303358078, 0.620559811592102, 0.978979229927063, 1.058207392692566, 0.8716030716896057, 0.2630087733268738, -0.06505963206291199, -0.8751076459884644, 1.2102961540222168, -0.6296992897987366, -0.20499007403850555, 0.070485919713974, 0.1665697693824768, -0.11922316253185272, 0.9551615118980408, -0.09126625210046768, 0.12335383147001266, -0.7658563256263733, 0.7870379686355591, -0.6510257720947266, -0.15958312153816223, -0.2679702043533325, 0.6939002275466919, -0.1354060173034668, 0.403774231672287, 2.3457400798797607, 0.7208930253982544, -0.27238956093788147, -0.14863437414169312, -0.0330066904425621, 1.0405389070510864, 1.0015645027160645, 0.5141881704330444, 0.7336152791976929, 1.3300362825393677, 0.24485886096954346, -0.6100976467132568, 0.23480373620986938, 0.08601535111665726, 1.028840184211731, -1.2682056427001953, -0.6954060792922974, 0.3230901062488556, 1.7558804750442505, 2.193881034851074, 0.23815596103668213, -0.3328650891780853, -0.44693997502326965, 0.08168648928403854, -0.01616307720541954, -0.4421755373477936, 1.241257667541504, 0.9690714478492737, 0.873417317867279, 0.05627352371811867, 0.21019572019577026, 0.7759811878204346, 0.33266323804855347, -0.25469911098480225, -0.6180755496025085, 0.07901479303836823, -1.2433934211730957, 1.7329870462417603, -0.10414952039718628, 0.687115490436554, 0.14814475178718567, 1.223801851272583, -0.7642487287521362, 0.9098783731460571, 1.0229377746582031, -0.5013794898986816, 0.458593487739563, -1.3563785552978516, 0.5813111662864685, 0.05459823086857796, 0.5695266723632812, 0.022853484377264977, 0.2555868327617645, -0.06183047220110893, -0.39171284437179565, -0.20915058255195618, 0.14408735930919647, 0.7703340649604797, 1.0402451753616333, -0.07488594949245453, -0.25876206159591675, -0.1323782354593277},
    {0.2754910886287689, -0.1853095293045044, -0.35435205698013306, -0.31711483001708984, -0.2780008912086487, -0.1646590232849121, 1.5591354370117188, 0.17943038046360016, 0.5705005526542664, 0.8898341059684753, 1.3207131624221802, 0.11639589816331863, 0.8083208799362183, 0.30386900901794434, -1.8351906538009644, -0.7918535470962524, -0.6167799234390259, 0.4568904638290405, -1.5203863382339478, 0.22072798013687134, -0.24026833474636078, 0.11339814960956573, -0.4233616590499878, 0.5459314584732056, -0.8306997418403625, 0.7000083923339844, 0.13806188106536865, 0.1418774425983429, -0.4677218496799469, -1.2807319164276123, 0.3469522297382355, -0.7713021039962769, -1.023396611213684, -0.017754636704921722, -1.3962061405181885, 0.23605988919734955, -0.5281457304954529, -0.04743938520550728, -0.3526528477668762, 0.37068578600883484, 1.1195693016052246, 0.5738970041275024, -0.5481405258178711, 0.2922227680683136, 0.7401663661003113, 0.659766674041748, -0.9611700177192688, 0.9799467921257019, -0.2091270089149475, -0.8241156935691833, -0.07393933832645416, 0.29617348313331604, 0.06551500409841537, -0.4467799663543701, 1.1793659925460815, 0.20076656341552734, -0.03638908267021179, 0.7812497019767761, 0.7258553504943848, -0.24803300201892853, 0.2830716371536255, -0.12525418400764465, 0.39526844024658203, 0.6927680969238281, -1.2132664918899536, -0.40177780389785767, 0.11350282281637192, 0.3435283899307251, 0.02710186131298542, 0.2107916623353958, 0.4351188838481903, -1.079864263534546, -0.6389688849449158, 0.2081381380558014, 0.1932179480791092, 0.17095248401165009, 0.015068874694406986, 0.5406175255775452, -0.024305829778313637, 0.1608065515756607, 0.17758981883525848, 0.12956497073173523, 0.08376447856426239, 1.1879979372024536, 0.40869009494781494, 0.4584074318408966, -0.6155330538749695, -1.2187844514846802, -0.18398407101631165, -0.17172859609127045, 0.25849875807762146, -0.21869122982025146, -0.8692625761032104, -0.43302440643310547, -0.5641528964042664, 1.2671780586242676, -1.5459553003311157, 1.000684142112732, -0.3580261170864105, 1.9422471523284912, 0.10592454671859741, 0.3312571048736572, -1.329864501953125, -0.2059796154499054, -0.8443273901939392, 1.4749609231948853, -0.28484979271888733, 0.19793248176574707, 0.46770456433296204, 0.7628999352455139, -0.09394926577806473, 0.28861308097839355, 0.5501490235328674, -1.297776222229004, -1.4304848909378052, 0.3579658567905426, 1.2301265001296997, -0.8462867140769958, -0.5266615152359009, 0.8317742347717285, 1.0534242391586304, -1.1571100950241089, -1.0693180561065674, 0.5179792642593384, -0.6312759518623352, 0.09518273919820786, -0.4324135184288025, 1.0243792533874512, 0.17262357473373413, 0.07431923598051071, -0.14732776582241058, -0.23019124567508698, 0.3892251253128052, -0.32891005277633667, 0.009135933592915535, -0.6326200366020203, -0.0355035774409771, 0.3550923764705658, -0.2869109809398651, -0.1855451613664627, 0.31953588128089905, -0.39745214581489563, 1.2564265727996826, -0.6463219523429871, -0.3705342710018158, -1.2989509105682373, 0.45762577652931213, -1.07523512840271, -0.6899097561836243, -0.1745416522026062, -0.39874693751335144, -0.4904501438140869, -0.4718191623687744, -0.9133417010307312, 1.4710341691970825, -0.15726739168167114, 1.2729926109313965, -1.2812482118606567, -0.1066080629825592, -0.006031361874192953, 0.1523490697145462, 0.17268919944763184, -0.2683626115322113, -0.27346402406692505, 0.24303780496120453, -0.5947940945625305, 0.21870693564414978, 1.0926457643508911, 0.35976940393447876, 0.06013153865933418, -1.7669352293014526, -0.6195811033248901, -0.0523209273815155, 0.7305112481117249, -1.2974317073822021, 0.2855999171733856, -0.17565326392650604, 0.8380966782569885, -1.0186197757720947, -1.3330553770065308, 0.570692241191864, -0.6245215535163879, 0.19537471234798431, 0.9856345653533936, 0.3017435669898987, -0.6231905221939087, -1.0574449300765991, 0.0395522303879261, 0.42049890756607056, 0.1575532704591751, 0.7101315855979919, -0.628853440284729, -0.3854399621486664, 0.90912264585495, 0.8370472192764282, 0.3063879609107971, 0.45990458130836487, -0.6216500401496887, 0.40249690413475037, -0.40033018589019775, 0.13680411875247955},
    {0.4746211767196655, -0.06171799823641777, 0.23170258104801178, -0.26800447702407837, 0.09304395318031311, 0.745009183883667, -1.7132540941238403, 0.6484754085540771, -0.22019362449645996, -0.014890802092850208, 0.64879310131073, 0.16897857189178467, -0.2546302080154419, -0.30334189534187317, -0.3692767918109894, 1.1324278116226196, 0.3779296278953552, 0.4531581997871399, 0.9594523310661316, 0.5763823986053467, 0.019484398886561394, -0.5557705163955688, 0.4643617570400238, -0.0118708536028862, 0.24547415971755981, -0.44200268387794495, -0.5294385552406311, -0.1894000619649887, 0.5740723609924316, -0.40376654267311096, 0.27009302377700806, -0.11004339158535004, -0.5501816868782043, 0.12301141768693924, 0.27455002069473267, -1.2996193170547485, 0.8480406403541565, 0.35782164335250854, 0.23047035932540894, -0.8213120698928833, -0.025134574621915817, -0.9158104658126831, 0.2759980261325836, 0.3210950493812561, 0.27612659335136414, 0.14769691228866577, 0.7542716264724731, 0.638973593711853, 0.32813456654548645, 0.3425672650337219, -0.2653127908706665, 0.9673559069633484, -1.2008569240570068, 0.6878383159637451, -0.924347460269928, -0.04562195762991905, 0.1865645796060562, 0.7858377695083618, 0.5849859118461609, -0.7341693639755249, 0.02371881902217865, -0.06890733540058136, 0.5825663208961487, -0.08352091163396835, -0.7587271332740784, -0.20281639695167542, 0.3704697787761688, -0.5422777533531189, 0.017412059009075165, -1.2103008031845093, -0.1404670923948288, 0.7237079739570618, 0.7373406887054443, -0.2776013910770416, -1.0850317478179932, -0.0702272430062294, -0.10472779721021652, -0.005625077988952398, -0.01766880601644516, 0.7251959443092346, -0.17034587264060974, 0.022129079326987267, 0.07407210022211075, 0.8353180885314941, 0.12185367941856384, -0.8316594958305359, 0.8755462169647217, 0.6391695737838745, -0.45321640372276306, -1.7846885919570923, 1.5174684524536133, 0.34794682264328003, 0.5087194442749023, 0.24635997414588928, -0.6489941477775574, 0.1421702653169632, 0.034633588045835495, 0.8964011073112488, -0.9797323942184448, 0.12405479699373245, 0.053465597331523895, -0.7445805072784424, -0.013878962025046349, 0.5549329519271851, 1.1900781393051147, 0.042617641389369965, -0.14177942276000977, -0.5406743288040161, 0.41092151403427124, -0.7047286033630371, -0.5137437582015991, 0.0602060928940773, 0.13370130956172943, -0.11510126292705536, 1.192679524421692, 0.0446135476231575, 0.6240968704223633, -1.2190473079681396, -0.9543033838272095, -0.10671959072351456, -1.3977158069610596, -1.1713316440582275, 0.20812822878360748, 0.520358145236969, -0.37125542759895325, -0.9915327429771423, 0.5392717123031616, -0.006702099461108446, 0.9978495240211487, -0.15977995097637177, -0.06591813266277313, 0.7799876928329468, 1.6574511528015137, -1.503389835357666, -0.18758538365364075, 0.2994471788406372, 1.6730037927627563, 0.025215566158294678, -0.3305959701538086, -0.5342564582824707, -0.954072892665863, 0.8490220904350281, 1.3719404935836792, 0.45864740014076233, -0.7048055529594421, -0.6711358428001404, -0.07756580412387848, 0.7103612422943115, -0.2915232181549072, -0.5423693060874939, -0.2385929971933365, 0.21394842863082886, -1.1913683414459229, 0.7898315191268921, 0.21389256417751312, 0.057388827204704285, 1.2278671264648438, -0.9075832962989807, -0.9076199531555176, 0.8750509023666382, 2.7208807468414307, 0.2148464024066925, 0.963157057762146, -0.15559068322181702, 0.066060870885849, 1.382901906967163, 0.05635658651590347, 1.2306394577026367, 0.589475154876709, 0.28737857937812805, -0.014927801676094532, 0.0030108923092484474, 0.42637163400650024, -0.6201648712158203, 1.4732962846755981, 0.15306556224822998, 0.07574141770601273, -0.4349142014980316, 0.33889442682266235, -0.713818371295929, 0.9746570587158203, 0.5557841658592224, 1.2766846418380737, 0.3723546266555786, 0.920151948928833, 0.7815254926681519, -0.3182480037212372, 0.6664413213729858, -0.17874442040920258, 0.5935781598091125, 2.4363465309143066, -0.16339077055454254, -0.8026261329650879, -0.4890051782131195, -0.12583552300930023, -0.08223661035299301, 0.4473066031932831, -0.21300484240055084, -0.34915706515312195, 0.08104068040847778, 0.11831090599298477},
    {-0.45169949531555176, 0.26456138491630554, 0.2559286952018738, 0.34160318970680237, 0.12175082415342331, -0.5214032530784607, -1.242915391921997, 0.14403696358203888, 0.20286358892917633, -0.6179570555686951, -0.006701380480080843, 0.0052201151847839355, 0.49486836791038513, -0.4843501150608063, -0.2671985328197479, 0.5342282652854919, 0.6727073192596436, 0.47287654876708984, -0.8179852366447449, -0.5341328978538513, -1.0720552206039429, -0.8775407671928406, -0.4673542082309723, -0.03563729673624039, 0.03176003694534302, 0.8759411573410034, 0.7063204050064087, 0.33948346972465515, 0.8765343427658081, 0.7299261093139648, -0.18617428839206696, -1.0435577630996704, -0.8713437914848328, -0.5377511382102966, 0.04488535597920418, 0.5045673847198486, -0.8966850638389587, 0.20896047353744507, 0.00800186675041914, -0.3971942067146301, -1.3138099908828735, -1.0616655349731445, 0.44960013031959534, 0.0035887823905795813, -0.5683193206787109, 0.590772271156311, 0.7700022459030151, -0.4678554832935333, -1.6633342504501343, -0.08337850123643875, 0.07653159648180008, 0.03422370180487633, 0.16158924996852875, 0.3867289125919342, -0.729755163192749, 0.16945283114910126, 0.7415841817855835, -1.3453043699264526, -0.5390172600746155, 0.45779410004615784, 0.25650128722190857, 0.004307986702769995, 0.47215425968170166, 0.43002572655677795, 0.6176066994667053, 1.061223030090332, -0.7106373906135559, 0.2836953103542328, 0.0526379756629467, 1.0148844718933105, -0.09114440530538559, 0.7714098691940308, 0.43618419766426086, 0.42567873001098633, 0.5174129009246826, 0.21992124617099762, 0.13184420764446259, 0.0636366680264473, -0.5006294846534729, 0.06605890393257141, 0.3894662857055664, 0.23402684926986694, -0.6676271557807922, -0.3265995681285858, -0.3262697160243988, 0.32956716418266296, -0.6687782406806946, -0.13441810011863708, -0.2618630528450012, 0.3714215159416199, -0.18898898363113403, -0.5557474493980408, -0.5005677342414856, -0.24086257815361023, 0.7296520471572876, 0.418486088514328, -0.5479844808578491, 0.9980208873748779, 0.05900706723332405, -0.042943693697452545, -0.580060601234436, 0.5293147563934326, 0.09892647713422775, 0.04393758624792099, -0.022884175181388855, -0.6253065466880798, -0.32531967759132385, 0.3349136412143707, 0.07003264874219894, -0.5832101106643677, 0.01956334337592125, 0.2963559031486511, 0.4336048662662506, 0.7777469754219055, -0.08105693012475967, 0.2341010719537735, -0.4823800325393677, -0.21375954151153564, -0.06260551512241364, 1.0039606094360352, 0.34381386637687683, -0.08935216814279556, -0.8450910449028015, 0.64842689037323, -0.025143712759017944, 0.30678319931030273, 0.357005774974823, -0.3632899224758148, 0.9179440140724182, 0.2999613881111145, 0.013120202347636223, 0.3824214041233063, 0.5483032464981079, 0.06069570034742355, 0.09584219753742218, -0.2072746902704239, -0.12164215743541718, 0.9171827435493469, -0.06772816926240921, -0.41575413942337036, -0.6616976857185364, -0.21443268656730652, -0.522528350353241, -0.0751846581697464, -0.4427051544189453, -0.9697746634483337, 0.5219437479972839, 0.13403277099132538, 0.05347774550318718, 0.19521349668502808, 0.22973555326461792, -0.047781605273485184, 0.6407637596130371, -0.5190892219543457, 0.15865179896354675, -0.11073865741491318, -0.758364737033844, -0.8975312113761902, -0.5317234396934509, -0.8045927286148071, -0.03480178490281105, -0.07401371747255325, -1.5224223136901855, 0.2184067666530609, 0.16455936431884766, -0.3978111445903778, -0.4513038992881775, -0.544712483882904, 0.006768872961401939, -0.012150787748396397, -0.6149070262908936, 0.8295567631721497, 0.35337528586387634, -0.2507167458534241, -0.31679147481918335, 0.9652062058448792, -0.9166776537895203, 1.0529087781906128, 0.011765560135245323, 0.4918650686740875, -1.080339789390564, -0.45922785997390747, 0.8668283224105835, -0.5276158452033997, 0.5954951047897339, 0.6408541202545166, 0.6046087145805359, -0.23081837594509125, 0.20698103308677673, 1.2173261642456055, 0.5378190875053406, -0.3274112939834595, 1.5498148202896118, 0.5457202792167664, 0.15013141930103302, 0.09680189192295074, -0.3792453110218048, 0.33793750405311584, -0.44897982478141785, 0.11609937995672226, -0.045014530420303345},
    {0.0018757311627268791, -0.9822916984558105, 0.20625963807106018, 0.4098317325115204, 0.17518167197704315, -0.20388774573802948, 0.6498838067054749, -0.400946706533432, 0.31931498646736145, 0.44458746910095215, 1.168827772140503, 0.36648088693618774, 0.16453374922275543, 0.36524757742881775, -0.6967213749885559, -0.34751975536346436, 1.153948426246643, 0.24769377708435059, 0.12391351908445358, 1.1690571308135986, 0.20158447325229645, 0.39122578501701355, 0.6778442859649658, -0.3802219033241272, 0.3036334216594696, 0.013249542564153671, 0.53546541929245, 0.10231505334377289, 0.42721226811408997, 1.6077624559402466, -0.05249122157692909, -0.00840645469725132, 0.3867399990558624, 0.047328948974609375, 0.40389901399612427, 0.5546673536300659, 1.0154260396957397, -0.3256750702857971, 0.09703391790390015, -0.3199456036090851, 0.601581335067749, 0.37544429302215576, -0.3683954179286957, 0.09370502829551697, 0.5230692028999329, 0.43798181414604187, 0.31490713357925415, 0.3572758138179779, -0.09042753279209137, 0.017208106815814972, -0.2351747304201126, -0.046350181102752686, 0.1717948466539383, 0.0028598522767424583, 0.537539005279541, -0.04077337682247162, -1.7020082473754883, 0.048254936933517456, -0.03676442801952362, 0.1543578952550888, 0.10473352670669556, 0.14397160708904266, -0.4069448411464691, 0.11784334480762482, 0.4480477273464203, 1.2645663022994995, 0.041246455162763596, 0.05397489666938782, 0.35623249411582947, -1.314963698387146, 0.4675105810165405, 1.3213698863983154, 0.9702226519584656, 0.20246091485023499, -0.13454948365688324, 0.5910736918449402, 0.3313068747520447, -0.821054220199585, 0.6942936778068542, 0.18060056865215302, 0.05045972391963005, 0.39751845598220825, 0.1243567243218422, 0.12577033042907715, -0.22112885117530823, 0.7090247273445129, -0.42123281955718994, 1.0970698595046997, 0.4883885383605957, 0.31204697489738464, -0.297563374042511, -0.1715308278799057, 0.14465424418449402, 0.38312840461730957, 0.5198642015457153, -1.105575680732727, -0.02555393986403942, 1.5029631853103638, 0.4251154363155365, -1.3255245685577393, -0.6404992938041687, 0.1151195541024208, 0.19673223793506622, 1.505125880241394, 1.3545262813568115, 0.712013840675354, 0.28243571519851685, 0.34694981575012207, 0.056794486939907074, 1.1051084995269775, -0.42274951934814453, 0.18728438019752502, 0.25295791029930115, -0.8347526788711548, 0.4843709468841553, -0.19241176545619965, -0.5973369479179382, 0.7161719799041748, -0.08724424988031387, 0.5801105499267578, 1.177280068397522, 1.1070960760116577, 0.2942981421947479, 0.9682050943374634, -0.41333261132240295, -1.320246696472168, -0.0717596560716629, -0.2067081779241562, -1.1326793432235718, -0.2526172697544098, 0.3186233937740326, 0.8114662170410156, 0.2561877369880676, 0.3024762272834778, -0.9038775563240051, -0.1333708018064499, -0.42472752928733826, 0.4718209207057953, -0.023782838135957718, -0.31150510907173157, 1.1486974954605103, 0.0770820900797844, -1.1677825450897217, -0.23427215218544006, 0.41405919194221497, 1.0009475946426392, 0.26632195711135864, 0.5058152079582214, -0.31548404693603516, 0.3912522494792938, 0.31211599707603455, -0.29954224824905396, -0.35884568095207214, 0.4661017954349518, -0.4016789197921753, 0.8648304343223572, -0.6016377806663513, 2.0886521339416504, 0.26775214076042175, 1.1076633930206299, 0.033188700675964355, 0.4951569139957428, 0.05950171500444412, 1.2754085063934326, 0.10155736654996872, -0.09159820526838303, -0.4537705183029175, -1.0228382349014282, 0.149922713637352, 0.2278444468975067, 0.059810519218444824, 0.8090751767158508, -0.40129268169403076, 0.5180619955062866, -1.157721996307373, 1.1834455728530884, 0.18067210912704468, -0.03262224420905113, 0.646236777305603, 0.18527479469776154, -0.5690731406211853, 0.8082846999168396, -1.4129178524017334, -1.0658260583877563, 0.6743469834327698, 0.35913026332855225, 1.3870402574539185, -0.7284679412841797, 0.9050708413124084, -0.3066125810146332, -0.5894568562507629, 0.02210342139005661, -0.42983579635620117, 1.3785290718078613, 0.8024583458900452, 0.8367393016815186, 0.4268406927585602, 0.1696786731481552, -0.39843475818634033, -0.16788706183433533, 0.12915943562984467},
    {-0.10355156660079956, 0.051343560218811035, -0.16796471178531647, -0.06852248311042786, 0.21636730432510376, -1.3100804090499878, 1.0686010122299194, 0.006305105518549681, 1.0738980770111084, -0.5545084476470947, -0.6143277287483215, -0.044927265495061874, 0.4600359797477722, -0.6424863338470459, -1.213820219039917, 0.7300882935523987, -0.6783199906349182, -0.22966329753398895, 0.3626347780227661, 0.3189449906349182, 1.4881771802902222, 0.40761882066726685, 0.3427322804927826, -0.043392837047576904, 0.2547328770160675, -0.13351155817508698, 0.5586575865745544, 0.010390518233180046, 0.11451014876365662, -1.0794602632522583, -0.08060397207736969, 0.08213581889867783, 0.7999679446220398, -0.26890432834625244, -0.4554714858531952, -0.3196624219417572, -0.16600413620471954, 0.3634854257106781, -0.2377404123544693, -0.12154586613178253, 0.020208287984132767, 0.2734645903110504, -0.11010784655809402, -0.20066653192043304, 0.41573262214660645, -0.16286714375019073, 1.1921495199203491, 0.1599542200565338, -0.006412442773580551, 0.4462266266345978, -0.1300610899925232, -0.9191297888755798, 0.30547815561294556, 0.5906521677970886, 1.3758305311203003, -0.006682933308184147, 0.5033430457115173, 0.3944872319698334, -0.27407306432724, 0.29288047552108765, 0.27896931767463684, 0.19162361323833466, 0.8683708310127258, 0.931993842124939, 0.7641085982322693, 0.786241352558136, 0.16002897918224335, -0.38026392459869385, -0.435296893119812, -1.3631080389022827, -0.7442408800125122, -0.771403431892395, -0.6505991816520691, 0.2889609932899475, -0.0008611363009549677, 0.5990175604820251, -0.7914708256721497, -1.4131841659545898, -1.285413146018982, 0.20421481132507324, 0.12596392631530762, 0.38263168931007385, -0.03858982026576996, -0.049340661615133286, 0.035827383399009705, 1.2628207206726074, -0.36289140582084656, -0.05095747858285904, -0.0854530856013298, -0.1923314481973648, 0.960621178150177, 1.238646388053894, 1.0101399421691895, 0.713992178440094, 0.4410250782966614, -1.5563323497772217, 1.5060102939605713, -1.4366917610168457, 0.036821410059928894, 1.5899673700332642, 0.6267068386077881, 0.18401740491390228, -0.16943314671516418, -0.9390231370925903, -0.4476747512817383, -0.18171262741088867, -1.2388343811035156, -0.24453631043434143, -0.5166269540786743, -0.18393252789974213, 0.5035581588745117, -0.4524037539958954, 0.3253583014011383, 1.4065135717391968, 0.27388808131217957, 0.3554668724536896, 1.1420193910598755, 1.0721193552017212, 1.260054111480713, 1.6912540197372437, 1.2156667709350586, -0.1426311582326889, 1.1761088371276855, 2.012085437774658, -0.04531395435333252, -0.4191868305206299, 0.0854845643043518, -0.19327472150325775, -0.8060206174850464, 0.31337082386016846, -0.05372406914830208, -0.7977628111839294, -0.5957337021827698, 0.13554520905017853, -0.18596138060092926, 0.4554205536842346, -0.07747280597686768, -1.1124396324157715, -0.10666660219430923, 0.8018682599067688, 0.759270429611206, 0.3390977382659912, 0.9477640390396118, 0.1933876872062683, -0.014017721638083458, 1.4502531290054321, -0.2044977992773056, -0.08661671727895737, 1.0273228883743286, 0.2277027815580368, -0.7866581082344055, -0.1358243077993393, -0.4544815123081207, 1.0952281951904297, -0.41551801562309265, 0.6703165769577026, 0.34877049922943115, 0.24126781523227692, 1.0837726593017578, 0.2089935541152954, -0.30993029475212097, -0.2137061208486557, 0.28890547156333923, 0.02746804989874363, -0.028769860044121742, -0.6372400522232056, -0.34236016869544983, 0.49624958634376526, 0.6458788514137268, 0.18540479242801666, -0.011284109205007553, 0.3750905394554138, -0.25792789459228516, -1.7098302841186523, -0.4615584909915924, 0.45239531993865967, 0.43171751499176025, 1.8724756240844727, -0.9084048867225647, -0.36108672618865967, 0.776070773601532, -0.35891830921173096, -0.913334846496582, 0.10975723713636398, 0.4469229280948639, -0.8691336512565613, -0.9127797484397888, 0.3199896216392517, 0.9557034969329834, -1.3538137674331665, -0.38896405696868896, 0.2785467505455017, 0.10154865682125092, -0.1165519580245018, -0.29795369505882263, 0.12214986979961395, -0.36652109026908875, -0.05945828557014465, -1.0823726654052734, 1.0973451137542725, 0.6157583594322205},
    {-0.046877916902303696, 0.17417602241039276, -0.22946196794509888, 0.4784608781337738, 0.15714584290981293, 0.05807643383741379, 0.33415207266807556, 0.5650054216384888, -0.2200397253036499, 0.08601818978786469, 0.5738270878791809, -1.2203121185302734, 0.3426561951637268, 0.4921436905860901, -0.07359514385461807, -0.31412211060523987, 0.25807392597198486, 1.064370036125183, 0.015987124294042587, 0.11694033443927765, -0.6528463363647461, 0.33037304878234863, 1.1841081380844116, -0.4660133123397827, 0.3059544563293457, -1.307547688484192, 0.8406310677528381, 0.014410864561796188, -0.7884175181388855, 0.919525682926178, -0.5093185305595398, -0.3277025520801544, 0.016539281234145164, -0.04166685417294502, 0.4311469793319702, 0.614392101764679, 0.24703684449195862, -0.5897765755653381, -0.8933625817298889, 1.0096126794815063, 0.7549824714660645, 0.06164685636758804, 0.29892367124557495, 0.00985618308186531, -0.3622383773326874, -0.7072621583938599, 0.280504047870636, -0.9926608800888062, 0.16667822003364563, 0.5913222432136536, -0.3382229208946228, -0.36762022972106934, 0.1722378432750702, 0.2592659294605255, -0.05483988672494888, 0.09804196655750275, 0.019530490040779114, -0.8097292184829712, -0.1720118373632431, -0.17354723811149597, -0.3392203152179718, 0.1998547911643982, -0.4843573570251465, 0.48174259066581726, -0.14790360629558563, -0.8997490406036377, 0.3806200325489044, -0.5074120163917542, 0.05162950977683067, -0.583713173866272, -0.2665751874446869, 0.9958848357200623, 0.3456997871398926, -1.2634845972061157, -0.07612889260053635, 0.35582515597343445, -0.10603929311037064, -0.24076035618782043, -0.8036582469940186, 0.045237477868795395, -0.4652858376502991, -0.03703722357749939, 0.07181011885404587, -0.073687843978405, 0.30689918994903564, -0.23222000896930695, -0.3459051549434662, -0.4225086271762848, 0.6480875015258789, -0.37953537702560425, 0.361928790807724, -0.270502507686615, -0.5527990460395813, -0.5135988593101501, 0.23102214932441711, -0.28381940722465515, -0.5893718600273132, 1.0991415977478027, -0.07557910680770874, -0.5117127895355225, -0.5475329160690308, 0.6055765748023987, -0.18534894287586212, 0.7192264199256897, 0.9365882277488708, -0.41198891401290894, -0.47445908188819885, 0.4667017459869385, 0.06506342440843582, 0.12256511300802231, 0.5825870633125305, -0.2234368622303009, 0.14896896481513977, -0.7823140621185303, -0.5851886868476868, -0.6678481101989746, -0.2317688763141632, 0.46039557456970215, -0.10406872630119324, 0.49324831366539, -0.7834169268608093, 0.0878438726067543, 1.046726942062378, -0.39670389890670776, 0.453069806098938, -0.011631770990788937, -0.705238938331604, -0.019108491018414497, 0.8612388968467712, -0.23103943467140198, 0.39875465631484985, -0.19091427326202393, 0.4574744999408722, 0.6386962532997131, 0.0984325110912323, 0.2741072177886963, -0.46090710163116455, -0.42032912373542786, -0.014570358209311962, 1.306265950202942, -0.11426860094070435, 0.5324484705924988, -0.2875535488128662, -0.656195342540741, 0.4558814465999603, -1.0773580074310303, 0.6316009163856506, -0.6251457929611206, 0.4878397583961487, -0.26852089166641235, 0.6998945474624634, 0.008037766441702843, 0.4641079902648926, -0.8058651685714722, 0.0015265201218426228, -1.3546208143234253, 0.052677132189273834, 0.6448487639427185, 0.3079166114330292, 0.902158260345459, 1.0524812936782837, 0.774294376373291, 0.2151593714952469, -0.4096604287624359, -0.6928078532218933, 1.1225026845932007, -0.2941737174987793, -0.726999044418335, -0.5553072094917297, 0.6308761835098267, -0.37499189376831055, 0.9758129715919495, 0.7699947357177734, -0.9816058278083801, -0.6517720222473145, -0.7063266038894653, 0.926444947719574, -0.4049966037273407, 0.937677264213562, -0.07857707887887955, -1.0617303848266602, 0.6659931540489197, 1.093637466430664, 0.4602496922016144, 0.7338756918907166, 0.07187748700380325, 0.7369099855422974, 0.560804009437561, 0.7226462364196777, -0.39524343609809875, 0.6952153444290161, 0.24967323243618011, -0.9127468466758728, -0.8654837608337402, 0.3844912350177765, -0.5526594519615173, -0.42548784613609314, 0.14260077476501465, 1.0584334135055542, -0.0025730389170348644, -0.08602713793516159},
    {-0.037748564034700394, 0.12725567817687988, 0.06816944479942322, 0.18984924256801605, 0.012910483404994011, -0.2536589503288269, 1.6813251972198486, -0.012181618250906467, -0.1050349622964859, 0.049294546246528625, -0.5922232866287231, 0.2453513890504837, -0.6609438061714172, -0.6871913075447083, -0.6566706895828247, 0.6693165898323059, -0.5089403986930847, 0.8529853820800781, 0.6016656160354614, 0.27347132563591003, -0.826321005821228, -0.24996830523014069, -1.049618124961853, -1.0576791763305664, -0.2660656273365021, -0.33406105637550354, -0.8243634700775146, -0.19924813508987427, 0.007076830603182316, -1.2314954996109009, 0.09234368056058884, -0.32301533222198486, -0.2630360722541809, 0.2961782217025757, -0.4927150011062622, -0.23833493888378143, -0.16813789308071136, 0.0633772686123848, 0.24858956038951874, -1.0674834251403809, -0.012197369709610939, -0.9284079074859619, 0.031640324741601944, 0.0741441622376442, -0.10475128144025803, -0.6908461451530457, 2.1978044509887695, 0.10006597638130188, 0.19410645961761475, -0.5428112745285034, 0.14728234708309174, 0.0931004136800766, 0.1649259626865387, 0.20980304479599, -0.6867960691452026, -0.03875274956226349, -1.5122126340866089, -0.9016792178153992, 0.019552282989025116, 0.7708778977394104, 0.1624864935874939, -0.6669009327888489, -0.22087420523166656, -0.10786685347557068, 1.8464404344558716, -0.031669069081544876, -0.6612869501113892, -0.7810041308403015, 0.32402950525283813, -1.183781623840332, 0.03409174084663391, -0.9486327767372131, -0.8808466792106628, -0.3322272002696991, 0.13005241751670837, 0.5042920708656311, -0.5907909274101257, -0.3816564083099365, 0.16317786276340485, 0.17103087902069092, 0.03664584085345268, -0.4345788061618805, 0.008339534513652325, 0.9671677350997925, 0.3319265842437744, -0.3620838224887848, -0.9604150056838989, 0.9478794932365417, 1.5655498504638672, 0.06785570830106735, -0.41651207208633423, 0.2038755863904953, 0.11024349927902222, -0.22295644879341125, 0.5384126305580139, 0.3067215085029602, 0.2271319180727005, -0.2101152390241623, -1.0056061744689941, -0.260861337184906, -0.8259188532829285, 1.3768153190612793, 0.7364470958709717, -0.7746129631996155, -0.9257095456123352, -0.05356602370738983, 0.12496097385883331, -0.7075203061103821, -0.3322649896144867, -0.8603405952453613, -0.3233993351459503, -0.16239310801029205, -0.7357223629951477, -0.2884340286254883, 0.5968806147575378, 0.6388863921165466, -0.8627066016197205, 0.6049157977104187, 0.022188058122992516, 0.5846946835517883, -0.653124213218689, 0.8750484585762024, 1.0067883729934692, 0.8231585621833801, 0.029309416189789772, 0.6135883331298828, 0.03843945264816284, -0.4334637522697449, -0.45669883489608765, 0.5272331833839417, 0.22016361355781555, 0.6582894325256348, 0.047426387667655945, -0.5727309584617615, 0.12721136212348938, 0.7224507331848145, 0.12967635691165924, 0.032914143055677414, 0.10342511534690857, -0.20459423959255219, 0.548700749874115, -0.6558934450149536, 0.28779178857803345, -0.4635782539844513, -0.6772633194923401, 0.5734215974807739, -0.3049388527870178, 0.006764023564755917, 0.07620619237422943, -0.7290046215057373, 0.09739819169044495, -0.16903725266456604, 0.6378244161605835, -0.08308223634958267, 0.03189924731850624, 0.10143497586250305, -0.1851925402879715, 0.7145378589630127, 0.6332070827484131, 0.7882859110832214, -0.5702595114707947, 0.28599271178245544, 0.508791446685791, 0.39382651448249817, 1.3298816680908203, 0.909421443939209, -0.0026897925417870283, 0.020677760243415833, 0.9427269101142883, 0.04178302362561226, -0.10540212690830231, 0.4606993496417999, 0.15590691566467285, 0.15057635307312012, 0.15902839601039886, 0.670464277267456, -0.40582433342933655, -1.1369439363479614, -0.3933066725730896, -1.0508944988250732, -0.20478731393814087, -0.2387133091688156, 0.14070624113082886, 1.403843641281128, -0.05061986297369003, 0.19284620881080627, -0.8116186857223511, -0.5659494400024414, -0.30661001801490784, 0.02129022404551506, -0.21898363530635834, -0.022222550585865974, -0.6095424294471741, 0.010800463147461414, 0.6457706689834595, 0.38215452432632446, -0.5360457301139832, 0.3151637613773346, 0.3791673481464386, -0.11853247135877609, 0.5856779217720032},
    {0.3112047612667084, 0.2607515752315521, 0.3582805395126343, 0.1659637689590454, -0.18983575701713562, -0.3730316460132599, 0.06491917371749878, -0.032991573214530945, -0.015127462334930897, 0.8752143979072571, -0.6757550239562988, 0.14392098784446716, -0.8313519358634949, -0.02595309168100357, 1.8708231449127197, -0.7544156312942505, -0.5992411375045776, -0.2928631007671356, -0.8347339034080505, -1.1184806823730469, 0.14695078134536743, -0.186049684882164, -0.4964029788970947, -0.6033115983009338, -0.42696866393089294, -0.5182833075523376, -0.5134410858154297, -0.30599987506866455, 0.2681907117366791, -0.8334046602249146, -0.020934365689754486, -1.2976847887039185, -1.2762858867645264, 0.1351834088563919, 0.011867718771100044, 0.22351239621639252, 0.02811250649392605, 0.08469374477863312, 0.5617257952690125, 0.4705284833908081, 0.023297930136322975, -0.5575400590896606, -0.665617823600769, -0.5513079166412354, -0.3127363324165344, 0.15638475120067596, 0.4488871395587921, -0.7921666502952576, 0.06325696408748627, -0.04739119112491608, 0.033952176570892334, 0.5052745342254639, 0.25000977516174316, 0.22077499330043793, -0.04264313355088234, -0.05981987714767456, 0.49289563298225403, 0.3642770051956177, -0.3554491102695465, -0.1458645910024643, 0.012996910139918327, 0.08957258611917496, 0.0950162336230278, -0.16353739798069, 0.21100816130638123, -0.013074801303446293, -0.23789633810520172, 0.12395540624856949, -0.2730788588523865, 1.0163542032241821, 0.2072177231311798, -0.8713411092758179, -0.9451581239700317, 0.08115924149751663, 0.16371962428092957, -0.2724545896053314, 0.20514783263206482, -0.1284044086933136, 0.07046591490507126, -0.004101988393813372, -0.3200792074203491, 0.0030237436294555664, -0.09249763190746307, -0.6106421947479248, -0.42462432384490967, 0.27696019411087036, -0.2923446297645569, 0.19686372578144073, -0.4228931665420532, 0.3457401692867279, -0.019320793449878693, 0.10982084274291992, -0.27268803119659424, -0.47926223278045654, -0.8070594072341919, -0.7180688977241516, 0.9322911500930786, -0.27910786867141724, 0.21862398087978363, -0.9833607077598572, -0.23543913662433624, -0.9515675902366638, -0.2369728535413742, -1.0538864135742188, -0.43421271443367004, -0.7783519625663757, 0.5167275667190552, -0.4180592894554138, 0.604211688041687, -0.5890188217163086, -0.6583813428878784, -0.38074663281440735, -1.1102980375289917, -0.8014264106750488, -0.7683208584785461, 0.8040719032287598, -0.8427003622055054, -0.34321802854537964, 0.49967333674430847, -0.9175779819488525, 0.042788054794073105, -0.2593768239021301, 0.6725227236747742, -0.05294721573591232, 1.1355156898498535, -0.2750662565231323, 0.2931438684463501, 0.2541077136993408, -0.0956888198852539, -0.9614802598953247, -0.640792727470398, 0.10966596007347107, -0.31955331563949585, -0.062463320791721344, -1.2131812572479248, -0.8408258557319641, -0.2178201675415039, -0.6783835887908936, -0.39943474531173706, 0.8515492677688599, -0.1082586795091629, -0.6581966876983643, 0.3364395499229431, 0.10263318568468094, -0.42845308780670166, -0.23021499812602997, -0.3291992247104645, 0.28946197032928467, 0.12434959411621094, -1.0983620882034302, -0.1782035231590271, -0.5747226476669312, -1.493251085281372, -0.3405057191848755, -0.4429110884666443, -0.5070152878761292, 0.8617625832557678, 0.6415216326713562, -0.5454989075660706, -0.2556620240211487, 0.4164855182170868, -0.512231707572937, 0.5666040778160095, 0.046996042132377625, 0.2454729825258255, -0.16867345571517944, 1.207116961479187, 0.7139108777046204, 0.3060510456562042, -0.5776214003562927, -1.2659950256347656, -0.8785498142242432, 0.7581208348274231, -1.4136720895767212, 0.39314210414886475, 0.1921386420726776, 0.3723638951778412, -0.035846203565597534, -0.6091960072517395, -0.3064902126789093, 0.2627066969871521, -0.5711172223091125, -1.2845282554626465, 1.1867742538452148, -0.9802824854850769, -0.9525322318077087, -0.6413499116897583, -0.17566826939582825, -0.30239367485046387, 0.49247807264328003, 0.3285609781742096, 0.005567020270973444, -0.23397944867610931, -1.0480517148971558, 0.2130701243877411, -1.2402944564819336, -0.7124220728874207, -0.229594886302948, -0.21050849556922913, -0.26272448897361755, 0.12553152441978455},
    {-0.060518741607666016, -0.49275559186935425, 0.09274856001138687, -0.2978264093399048, 0.29523831605911255, -0.0360870361328125, -0.6329355239868164, 0.07459639012813568, -0.5683760046958923, -0.5019233822822571, -0.7437021136283875, 0.09400944411754608, -0.409993439912796, 0.28284430503845215, 0.00625810818746686, 0.015773393213748932, 0.02507905475795269, -0.05055615305900574, 1.4233640432357788, 0.11697199195623398, 0.6087145805358887, -0.2139158844947815, -0.8462714552879333, -0.2937015891075134, 0.32065242528915405, -0.9703401327133179, 0.330149382352829, 0.051784586161375046, -1.1533608436584473, -0.2636454701423645, -0.018308447673916817, 0.1762213408946991, 0.17347504198551178, 0.7345285415649414, -0.401614248752594, -0.660683274269104, -1.170924186706543, 0.2629837393760681, 0.22405022382736206, -0.3279598355293274, -1.0101594924926758, -0.22708311676979065, -0.5118441581726074, -0.029195962473750114, -0.27080485224723816, -1.506811261177063, 0.7750672101974487, 0.10933049768209457, -0.7593125104904175, -0.11300229281187057, 0.0823809877038002, -0.09796823561191559, -0.019555944949388504, -1.1609305143356323, 0.4517042636871338, 0.18718120455741882, -0.7281978726387024, -0.8477035164833069, -0.030059095472097397, 0.9774818420410156, 0.17634397745132446, -0.2483542412519455, -0.39647942781448364, 0.46842750906944275, 0.5526180863380432, -0.21064507961273193, -0.44006234407424927, 0.09375197440385818, -0.6212775707244873, 0.6946343183517456, -0.45700275897979736, -0.8508747816085815, -0.12758119404315948, -0.17745789885520935, -0.06881155073642731, -0.8337851762771606, -0.057602886110544205, 0.2888111472129822, 1.015825629234314, 0.22086122632026672, 0.07020678371191025, 0.15293574333190918, 0.33303865790367126, -0.13213548064231873, -0.17291943728923798, -0.7823016047477722, -0.7283439636230469, 0.1538362056016922, 0.04090384021401405, -0.13617616891860962, 0.21079915761947632, 0.6562893986701965, 0.9996183514595032, 0.6120476722717285, -1.1611486673355103, 0.4292958676815033, -0.4303194284439087, 1.1506339311599731, -0.8646603226661682, -0.7367197871208191, -0.6315001845359802, 1.531471610069275, -0.2642876207828522, 0.3392692804336548, -0.14309005439281464, -0.7707581520080566, 1.206438660621643, 0.5988238453865051, -0.6270539164543152, -0.11025770753622055, -0.21978960931301117, -0.5309115052223206, -0.45069190859794617, -1.072757601737976, 0.09889177978038788, -1.1892907619476318, -1.2234350442886353, -0.3404408097267151, 0.6336033940315247, -0.3771207928657532, 0.21422411501407623, 0.9159525632858276, 1.224690318107605, 1.4842215776443481, 0.3393308222293854, 0.7219182252883911, 0.1650020331144333, -0.3129243850708008, -0.12424930930137634, -0.058768585324287415, 0.060213495045900345, -1.1978365182876587, -0.34255245327949524, -0.1489407867193222, 0.10086679458618164, -0.32899677753448486, -0.2884519398212433, -0.833916962146759, 0.41375595331192017, 0.8021052479743958, 0.24559350311756134, 0.6503540873527527, 1.3579262495040894, 0.28651395440101624, -0.6288673281669617, -1.114615797996521, 0.24731656908988953, -0.2617371380329132, -0.9265719056129456, 0.323246031999588, 0.03248974308371544, -0.09310998022556305, -1.3958150148391724, 0.9240795969963074, 0.056468334048986435, 1.3293499946594238, 1.5682432651519775, -0.7120251059532166, -0.10621561110019684, 0.5439753532409668, -0.5769688487052917, -0.7310371398925781, -0.06778525561094284, 0.06377360969781876, 0.6331501007080078, -0.07710117101669312, 0.4700298309326172, 0.6983751654624939, -0.22493544220924377, 0.22339259088039398, -0.11066342145204544, 0.6172477602958679, -0.1608574390411377, -0.4992191195487976, -0.7409202456474304, -0.6262775659561157, -0.002485815668478608, -0.7802646160125732, -0.32786500453948975, 0.4639452397823334, -0.3887482285499573, -0.3487043082714081, -1.2199598550796509, 0.25337088108062744, 0.3367125391960144, -0.2959984540939331, -0.3102708160877228, 0.4415969252586365, 0.2854381501674652, 0.70680171251297, 0.041703179478645325, -0.13788767158985138, -0.658178985118866, -0.026817524805665016, -0.26337960362434387, -0.5185677409172058, -0.5626153349876404, 0.621668815612793, 0.26240473985671997, -0.04338308423757553, 0.4677816331386566},
    {0.1012801080942154, -0.04412808641791344, -0.056427642703056335, 0.33406540751457214, -0.024192821234464645, -0.3795071840286255, 0.22937233746051788, -0.3116324245929718, 0.7969030141830444, 1.1794424057006836, 0.37354663014411926, -0.9918810129165649, 0.21403752267360687, 1.2459572553634644, -0.04103384539484978, -0.5960309505462646, 1.3132613897323608, 0.9090780019760132, -1.6018372774124146, -0.16997502744197845, 0.260873407125473, -0.7355390191078186, 0.059947822242975235, -0.23269973695278168, -0.08010046929121017, 0.24675969779491425, -0.4480396807193756, 0.20429743826389313, 1.7155992984771729, 1.4813419580459595, 0.30104708671569824, 0.25989630818367004, 0.19228452444076538, -0.4267391562461853, 0.04525461047887802, -0.27705663442611694, -0.018762150779366493, -0.15860791504383087, -0.13722683489322662, -0.5769740343093872, 0.9202814698219299, -0.3142223656177521, 0.9302626848220825, 0.40401366353034973, -1.0750775337219238, -0.30173489451408386, -0.49627354741096497, 0.5951352715492249, 0.40354230999946594, -0.021596044301986694, 0.1099955141544342, 0.017732763662934303, -0.36392006278038025, -0.2935645580291748, -0.7470141649246216, -0.11040335893630981, 0.29298722743988037, -0.6981554627418518, -0.4832156002521515, 0.04508790001273155, -0.036345358937978745, -0.011573570780456066, -0.24450767040252686, 0.06513335555791855, -0.40570807456970215, -0.1764664351940155, 0.2196800708770752, 0.15951965749263763, -0.2038349211215973, 0.05965110659599304, 0.2506197690963745, 1.3157646656036377, 0.8777150511741638, -0.014844436198472977, 0.008558342233300209, -0.5392060875892639, 0.41090506315231323, -0.6072322130203247, 0.6007935404777527, -0.0002563163870945573, 0.1844855397939682, -0.839621365070343, 0.34781694412231445, -0.7699876427650452, -0.062461916357278824, -0.9526416659355164, -0.1255183070898056, 0.6734519004821777, -1.394132137298584, -0.13594889640808105, 1.3024173974990845, -1.2722861766815186, -0.3456059694290161, -0.197076216340065, -0.23263733088970184, -0.558878481388092, -0.5024932026863098, 1.304326057434082, -0.6138083338737488, -1.0735926628112793, 0.9902880191802979, -0.04262402653694153, -0.4287397563457489, 1.3252531290054321, 0.7508856058120728, 0.23096486926078796, 0.7399649024009705, 0.07038797438144684, 1.1239649057388306, 0.1817375272512436, -0.7080951929092407, 0.24461878836154938, -0.09850645065307617, -0.9790246486663818, 0.31362685561180115, -0.27330073714256287, 0.48091939091682434, 0.379827082157135, -1.6324012279510498, -0.8750838041305542, -0.8769786357879639, 1.0191364288330078, -1.0966908931732178, -0.8241330981254578, -0.18849651515483856, 0.1763416826725006, -0.059589143842458725, 0.8531531691551208, -0.9010127782821655, 0.06487246602773666, 0.06010578200221062, 0.3635227680206299, 1.1339666843414307, 0.6645337343215942, -0.17244760692119598, -0.0544072687625885, 1.3382951021194458, 0.897513747215271, -0.10770681500434875, -0.750097930431366, 0.4512830674648285, 0.3090990483760834, -0.5512106418609619, 0.3699503242969513, 0.5942772030830383, 1.0275014638900757, -0.8530540466308594, -0.8734486103057861, 1.1603301763534546, -0.2092357724905014, 0.5353299975395203, -0.0980241596698761, 0.7575904130935669, -0.44383224844932556, 1.8637385368347168, -1.0628823041915894, 0.1216793805360794, -0.7611535787582397, 0.4574083983898163, -0.8612895011901855, 0.034300435334444046, 0.10614126175642014, -0.5651046633720398, -0.9950631260871887, -0.416302353143692, -0.36242616176605225, 0.015071293339133263, -0.4451259970664978, -0.2865960896015167, -0.145895853638649, -0.07277008146047592, -0.7805582880973816, 0.3463553190231323, 0.4813694655895233, -0.39418527483940125, 0.2197858691215515, 0.0857364609837532, -0.4741668999195099, -0.08944158256053925, -0.9421658515930176, 1.1789222955703735, 0.6606083512306213, -1.2079987525939941, 0.8804724216461182, -0.026859810575842857, 1.2723925113677979, 1.2078067064285278, 0.13593026995658875, 0.179245725274086, 0.4937046766281128, 0.5894043445587158, -0.7342239022254944, 1.0244100093841553, 0.7171708941459656, -0.07488684356212616, 0.2956621050834656, -0.14168795943260193, -0.5391523241996765, 0.5100516676902771, -0.06555105745792389, -1.2583060264587402},
    {0.2778272032737732, 0.3584991991519928, -0.1712750345468521, 0.6305750012397766, 0.07101739197969437, 0.9683164954185486, -0.992620050907135, 1.591182827949524, -0.15997464954853058, -0.4457051157951355, -1.2556674480438232, -0.06998670101165771, -0.2934103310108185, 0.3587019741535187, -0.7122946381568909, 0.22026760876178741, 1.3253034353256226, -0.7132943272590637, -0.23118944466114044, -0.5460112690925598, 0.5634881258010864, 0.4226621091365814, 0.44442594051361084, -0.98606276512146, 0.10727550089359283, -0.1342223435640335, -0.9081297516822815, 0.10374008864164352, 1.710204839706421, 1.7228482961654663, -0.09841666370630264, -0.5591503977775574, 0.46518614888191223, 0.22557924687862396, 0.3951444625854492, -0.5494533181190491, -0.26228755712509155, 0.2718781530857086, -0.2213207483291626, -0.6845121383666992, -0.9700048565864563, -1.9818546772003174, 0.8418540954589844, -0.20855532586574554, 0.10151036828756332, 0.6294161677360535, 0.037981510162353516, -0.4081675708293915, -0.5395491719245911, -0.18738849461078644, 0.2006523460149765, -0.20183499157428741, 0.1260197013616562, 0.15139658749103546, -0.6872015595436096, -0.08423538506031036, 0.08096783608198166, -0.08854641020298004, -0.2515099346637726, -0.25799962878227234, 0.15734191238880157, 0.07610863447189331, -0.23797132074832916, 0.16974180936813354, -0.488552063703537, -0.7994977235794067, 0.1568189263343811, 0.7802546620368958, -0.05250691995024681, -0.16509535908699036, 0.24065572023391724, 1.458861231803894, 0.9986058473587036, 0.09620799869298935, 0.020817389711737633, -0.2820957899093628, 0.1529562771320343, -0.1883309781551361, -0.4076612889766693, 0.5487204790115356, 0.02569173090159893, -0.16928322613239288, -0.19129794836044312, -0.6582490801811218, -0.10868191719055176, -0.08923569321632385, -0.924954354763031, 0.33400896191596985, -0.9358496069908142, -0.6138238310813904, -0.48149606585502625, -0.4459521770477295, 1.0198290348052979, 0.5527371168136597, 0.6865859627723694, -1.283335566520691, -0.22584429383277893, 0.8944564461708069, -0.023979753255844116, -0.8258885145187378, 0.17496882379055023, 0.34812334179878235, -0.882428765296936, 1.622849702835083, 0.802806556224823, -1.133291244506836, 0.8362748026847839, 0.8616726398468018, 0.1702854484319687, 0.6001420021057129, -0.06880766898393631, -0.6616725325584412, -0.4621131718158722, -0.5157527327537537, 0.7314088940620422, -0.26842790842056274, -1.0558922290802002, 1.3014745712280273, -0.5816474556922913, -1.2930634021759033, 0.39947107434272766, 0.8721011877059937, 1.1508451700210571, -0.41559046506881714, 0.3669959008693695, 0.43745654821395874, 0.17995934188365936, 0.23571377992630005, -0.11181459575891495, 0.4848693609237671, 0.13520339131355286, -0.11438357084989548, 0.39770111441612244, 1.0620098114013672, -0.8460212349891663, -0.02738967537879944, 1.3706518411636353, 0.11168578267097473, 0.18997249007225037, 0.6012279987335205, -1.750543236732483, 0.368685781955719, -0.9645453095436096, -0.011053565889596939, 0.22702234983444214, 1.0849419832229614, 0.33130186796188354, -0.09806803613901138, -0.7054439783096313, 0.06517164409160614, 0.890780508518219, 0.022671470418572426, 1.0051558017730713, 1.075561285018921, -0.4897530674934387, 0.7329129576683044, -0.43500691652297974, -1.4138606786727905, 0.3349568247795105, -0.8045727610588074, -0.36189496517181396, -0.12037735432386398, 0.6995505690574646, -1.2398390769958496, -0.24667119979858398, 0.25487378239631653, 0.0905434638261795, -0.22308877110481262, 0.987621545791626, 0.0758814811706543, 0.6951449513435364, -0.25073617696762085, -0.5654447078704834, -1.4680042266845703, 1.4907313585281372, 0.5617735981941223, -0.9311771988868713, -0.4430297613143921, 0.2593950033187866, -0.3906373083591461, 0.05855134502053261, 0.7096964716911316, 0.3411998748779297, 1.0397628545761108, -0.12084636837244034, 1.496012806892395, 1.2675294876098633, 0.055184803903102875, -1.0468543767929077, 0.48192858695983887, 0.28845420479774475, 0.7225108742713928, 2.3228647708892822, -1.4851583242416382, 0.10196793079376221, -0.5518341064453125, 0.4328877329826355, 0.39843082427978516, 0.07813270390033722, -0.1066512018442154, -0.784498393535614},
    {0.20907039940357208, -0.013417219743132591, 0.2881656885147095, 0.11850930005311966, 0.14298133552074432, -0.5334609746932983, -0.8755576014518738, 0.08793633431196213, 0.13164333999156952, 0.09308067709207535, 0.802737832069397, -1.6150543689727783, -1.261455774307251, 0.7811088562011719, 1.1510381698608398, 0.2076682299375534, 0.4271438419818878, 0.10846829414367676, -0.5244137644767761, -0.3575272560119629, -0.8084186911582947, -1.2729549407958984, -0.38145798444747925, 0.1577669233083725, -0.028122425079345703, -0.8743981719017029, -0.3414568305015564, 0.09978419542312622, 0.06726615875959396, 0.3663252592086792, 0.36890676617622375, -0.0742262527346611, -0.3188782036304474, -0.6476355195045471, 1.1690759658813477, -0.8456586003303528, -1.4058738946914673, -0.16135577857494354, 0.17134469747543335, -1.1581332683563232, 0.34070584177970886, -0.9350911974906921, 0.875877320766449, -0.24854756891727448, 0.29802629351615906, 0.14863725006580353, 0.3978196382522583, -0.07037665694952011, -0.9682344198226929, 0.3331494629383087, -0.11554025113582611, 0.5686994194984436, 0.057921409606933594, -1.2368687391281128, -0.8446139693260193, 0.059793516993522644, -0.64162677526474, 0.3407282829284668, 0.06564323604106903, -0.7054044604301453, -0.4854635000228882, 0.11988858133554459, 0.2637288272380829, -0.7570288181304932, 1.036015272140503, -0.611261248588562, 0.19154509902000427, 0.7758218050003052, -0.3980594873428345, 1.3192561864852905, 0.14363594353199005, 0.8279640674591064, 0.08108844608068466, -0.6003078818321228, 0.32128486037254333, -0.09819021075963974, 0.35717982053756714, 0.07426123321056366, 0.06543444097042084, 0.03566933795809746, -0.11763393878936768, -0.05671608820557594, -0.8111012578010559, 0.48137885332107544, 0.20553144812583923, 0.6840069890022278, -0.42358794808387756, -0.006439180579036474, -0.4134109318256378, 0.5502365231513977, 0.508809506893158, 0.49430137872695923, 0.13269005715847015, -0.1491076946258545, 0.2082078456878662, 0.3675537705421448, 0.5629981756210327, 1.9142132997512817, -0.46131575107574463, -1.2354776859283447, -1.5042177438735962, 0.34209418296813965, 0.32474663853645325, 0.22957152128219604, -0.2850731611251831, -1.0088942050933838, 0.888493001461029, -0.09415066242218018, -0.22535307705402374, -0.8891299366950989, -0.16354985535144806, -1.0157362222671509, 0.11723355203866959, -0.7701152563095093, -0.6081616878509521, -0.3170170783996582, -1.2489595413208008, 0.0934893861413002, -0.4646626114845276, -0.2718624770641327, -0.15604732930660248, 0.5106365084648132, 0.7138845324516296, -0.9408584237098694, 0.6570715308189392, 0.12333585321903229, -0.35265687108039856, -1.3403633832931519, 0.280222088098526, -0.7934949994087219, -0.10326973348855972, -1.05389404296875, 0.3808210790157318, 0.6583699584007263, -0.1822456419467926, 0.13066187500953674, 0.5052002668380737, -0.8832083344459534, -0.097712442278862, -0.006539727561175823, 0.2163134664297104, -0.5527064800262451, -1.2359994649887085, -1.0727614164352417, -0.760779857635498, 0.10952034592628479, -0.5933577418327332, 0.3358250856399536, -0.8483307361602783, 0.7584939002990723, 0.8489992618560791, 0.23168404400348663, -0.26853519678115845, -0.25171959400177, -0.9098358154296875, -0.6635061502456665, -0.4953306317329407, 0.28460976481437683, -0.41028380393981934, 0.3641214370727539, 0.24139076471328735, -0.02191992476582527, -1.0240715742111206, 0.38289156556129456, -0.12734688818454742, -0.2426082193851471, 0.7383565306663513, -0.5703368186950684, -0.17155149579048157, 0.04680470749735832, 0.015435583889484406, -0.6384369134902954, 0.14779266715049744, -0.5632075667381287, 1.0951147079467773, 0.19634315371513367, 0.0953739583492279, 1.2076923847198486, 0.7900583744049072, 0.42842981219291687, -1.0987370014190674, 0.23314420878887177, -0.6818199753761292, -0.03913533687591553, 0.03725185990333557, -0.1840249001979828, 0.5832904577255249, -1.2486884593963623, -1.350325584411621, -0.2718976140022278, -0.5620185136795044, -0.4857134521007538, 0.12120117992162704, -1.005899429321289, 0.5372071862220764, -0.197857066988945, -0.4029412269592285, -1.0374771356582642, -0.38615572452545166, 0.5464882850646973, -0.9817112684249878},
    {0.05602458864450455, -0.8106195330619812, -0.41123226284980774, -0.03366255760192871, 0.4377513825893402, -0.30238035321235657, 0.41737768054008484, -0.2259873002767563, -0.1244683489203453, -0.009996929205954075, 0.15247376263141632, -0.49800100922584534, 0.41683539748191833, -0.7287342548370361, -0.323469877243042, 0.11472315341234207, 0.5514782071113586, 0.2489204704761505, -0.5801226496696472, 1.3010202646255493, 0.21311575174331665, 0.1803603619337082, 0.08959782868623734, -0.7403700351715088, 0.07224582880735397, 0.18864494562149048, -0.4266299307346344, 0.3339979350566864, -0.6074712872505188, 0.48525744676589966, 0.12290740758180618, 0.08817489445209503, 0.6704849004745483, 0.0829584077000618, 0.35782590508461, 0.8280751705169678, -0.6844042539596558, 0.5015426278114319, 0.005928168073296547, 0.6876667737960815, 1.5412862300872803, 0.295713871717453, -0.794758141040802, -0.1482342630624771, -0.4619257152080536, 0.3059823513031006, 0.7527981996536255, 0.5270862579345703, -0.09389722347259521, -0.3122740685939789, 0.19994430243968964, 0.22082675993442535, 0.26642003655433655, -0.432882696390152, 1.246930480003357, -0.18641294538974762, 0.8510713577270508, 0.13703282177448273, 0.10109299421310425, 0.05897423252463341, -0.12055404484272003, 0.1824692040681839, 0.13419511914253235, 0.7519620060920715, 0.37793469429016113, 0.043381139636039734, -0.42336907982826233, -0.7535495162010193, -0.06846767663955688, -0.7388627529144287, -0.569852352142334, 0.9811094999313354, 0.1663256734609604, -0.5945329666137695, 0.3479098379611969, 0.17105762660503387, 0.003090911079198122, -0.01373860239982605, -0.2139991670846939, 0.29315856099128723, 0.02594650723040104, 0.05436428636312485, -0.0011174114188179374, -0.3371974229812622, 0.2127658575773239, -0.7079092860221863, -0.4392337203025818, 0.5399879813194275, 0.9472072720527649, -0.22206921875476837, 0.0358080118894577, 1.584930181503296, 0.8685675859451294, 0.4617012143135071, -0.108388252556324, 0.632716715335846, 0.4451529383659363, 0.37097617983818054, 0.43752944469451904, 0.3207870423793793, -0.1065114364027977, 0.7948684096336365, 0.1972527652978897, 0.5251444578170776, 0.6313519477844238, 1.2928050756454468, -0.13711225986480713, -0.6705868244171143, 0.07633118331432343, 0.07988712936639786, 0.5109670758247375, 0.1428547203540802, -0.44777023792266846, -1.269284725189209, -0.8197598457336426, 0.510485053062439, 0.5191661715507507, 1.0112982988357544, 0.7220974564552307, -0.9404640793800354, 1.057069182395935, 1.3979239463806152, 1.24727201461792, 0.29539725184440613, -0.286835640668869, 0.20909903943538666, 0.16223236918449402, -0.8894018530845642, -0.8393571972846985, -0.6123797297477722, -0.323022723197937, -0.35237324237823486, 0.28184133768081665, -0.8217725157737732, 0.14158491790294647, -0.3999057412147522, -0.10888069123029709, -0.8225980401039124, 0.6569246053695679, 1.6677937507629395, 0.10572043061256409, 0.21487769484519958, -0.4633554220199585, -0.38943707942962646, 0.37695908546447754, -0.11569982767105103, -0.06644117832183838, 0.28179123997688293, 0.43333694338798523, 0.5111994743347168, 0.28482016921043396, 0.05884718522429466, -0.2533927857875824, 0.8518427014350891, -0.5662069916725159, 1.2226814031600952, -0.591331958770752, 1.5615227222442627, 0.7282952666282654, -0.003037958638742566, -0.16230976581573486, -0.9394928812980652, 0.0827946662902832, -0.15738551318645477, 0.2485467493534088, -0.40423083305358887, -0.33529916405677795, -0.876369833946228, -0.7197233438491821, 0.2805475890636444, -0.09995730221271515, 0.3971380889415741, -1.334970235824585, -0.07404801994562149, 0.0032555926591157913, 0.6397587060928345, -0.15093478560447693, 0.41316601634025574, -0.5205250382423401, 0.32006412744522095, -0.7101446986198425, 0.6400279998779297, -0.8570319414138794, -0.5117360353469849, 0.6591830849647522, 0.12172815203666687, 0.5176448225975037, -0.07078789174556732, -0.06791636347770691, 0.6011635661125183, -0.6189406514167786, -0.853223443031311, -0.8355686068534851, 0.30504849553108215, 0.21120277047157288, -0.7204641103744507, 0.05161586031317711, -0.6631060242652893, -0.46150660514831543, -0.25988346338272095, -0.6620546579360962},
    {0.06748875975608826, -0.45425185561180115, -0.05948900058865547, 0.2577041983604431, -0.0005080655100755394, -0.26051396131515503, -0.08329448103904724, 0.07363614439964294, -0.3167773187160492, -1.0873764753341675, -1.2814104557037354, 0.2964630424976349, 0.09745194017887115, -0.0059296442195773125, 0.6561004519462585, 0.8176480531692505, 0.17753340303897858, -0.3891415596008301, 2.4553377628326416, -1.1954790353775024, -0.6511982679367065, 0.7764363288879395, 0.7535881996154785, 0.40920084714889526, 0.10063952952623367, -0.6278594732284546, -0.10226389765739441, 0.12713609635829926, 0.8097277283668518, 0.498171329498291, 0.15308082103729248, 0.8012362122535706, 0.411491721868515, 0.12637488543987274, 0.4543518126010895, -0.3850513994693756, -0.030251769348978996, 0.09396441280841827, 0.4134945571422577, -0.04754818603396416, -0.6557958126068115, -1.2647156715393066, -0.114908367395401, -0.031524330377578735, 0.5028651356697083, 0.07327987998723984, 1.2649561166763306, -1.1830531358718872, 0.40070873498916626, -0.26437532901763916, -0.0623391717672348, 0.10074194520711899, -0.17119766771793365, -0.49531060457229614, -0.5771578550338745, -0.4781365394592285, 0.7307621836662292, -0.43444177508354187, -0.25045889616012573, 0.5922772884368896, 0.049016304314136505, 0.07114531099796295, 0.29541003704071045, 1.0988669395446777, 0.768284261226654, 0.48998650908470154, -0.5663186311721802, -0.7766233086585999, 0.2554214298725128, 0.9686535000801086, 0.3751445412635803, 0.7161434888839722, -0.05877561867237091, 0.12677150964736938, 0.35182052850723267, -0.03975137323141098, 0.07458040863275528, 0.2942763864994049, 0.2355467528104782, 0.05034720525145531, 0.04419950395822525, -0.053667277097702026, -0.30978524684906006, -0.5126548409461975, 0.549874484539032, 0.03120296448469162, -0.6744968891143799, -0.6167363524436951, 0.5971125364303589, -0.8110623359680176, -0.7578049898147583, -1.358770489692688, -0.5204206109046936, -0.2706775963306427, -0.03187824413180351, -1.5065630674362183, 0.09230387210845947, 1.415331244468689, 0.41737306118011475, 0.3675096929073334, -0.024195166304707527, 1.0269057750701904, -0.9010356068611145, 0.05419156700372696, -0.06725852191448212, -0.9030897617340088, -0.32595425844192505, 0.6923072934150696, 0.4743990898132324, -0.29029738903045654, -1.2633641958236694, -0.8192917108535767, -1.0713011026382446, -0.9221654534339905, 0.29676058888435364, 0.5935258865356445, -0.7216105461120605, 0.8283897042274475, 0.3599196672439575, -0.33370834589004517, -0.5136232972145081, -0.7769097089767456, 0.4856239855289459, 0.11078457534313202, 1.253900408744812, -0.5159240365028381, -0.18953222036361694, 0.452760249376297, -0.3520641326904297, 0.44985100626945496, 0.040417395532131195, -0.12438084185123444, -1.1757426261901855, 1.000117301940918, -0.13452132046222687, 0.44973501563072205, 1.0269455909729004, -0.758163571357727, 0.9123353958129883, -0.7728729248046875, -1.1705552339553833, -0.0647791251540184, -1.163085699081421, 0.23383323848247528, -0.17587190866470337, 1.4034690856933594, -0.9703224897384644, 0.08137689530849457, 1.4354972839355469, 0.4121240973472595, 0.3183688521385193, 0.17882336676120758, 0.21414950489997864, -0.49081704020500183, -0.011591251008212566, -0.012018240988254547, -0.8082275390625, -1.2086642980575562, 0.09090684354305267, 1.7910324335098267, 0.15746690332889557, 0.7616392970085144, 0.4557458758354187, -0.12379658222198486, 1.3590824604034424, 1.2223173379898071, 0.7966307401657104, -0.3439430296421051, -0.5169127583503723, 0.10590949654579163, 0.5536938905715942, -0.048156414180994034, -0.368946373462677, -1.0163986682891846, 1.3448156118392944, 0.4169621169567108, 0.1093209758400917, 0.09703168272972107, 0.3340117633342743, -0.08829929679632187, 0.12128517776727676, 0.029596658423542976, 0.38555923104286194, 1.150499939918518, -0.06800200045108795, 0.5661113262176514, 0.286530464887619, 0.8241915702819824, 0.0983925387263298, 0.39628875255584717, 0.19404536485671997, 0.06522548943758011, -0.7331588864326477, -1.02760910987854, -0.8321990370750427, -1.0744538307189941, -0.6370918154716492, 0.07554669678211212, 1.5213191509246826, -0.7968888282775879, 0.9689536690711975},
    {0.25362634658813477, 0.37076470255851746, 0.10574033856391907, -0.055576588958501816, 0.03203551098704338, -0.2763262093067169, 0.49069416522979736, -0.34226667881011963, -1.4733951091766357, 0.3948769271373749, 0.5928534269332886, 0.5228477716445923, -0.5845474004745483, 0.20120757818222046, 0.6960131525993347, 0.00017863535322248936, 0.7667995691299438, 1.5002856254577637, -0.5724484324455261, -0.7590838074684143, -0.6464632749557495, -0.1679004579782486, 0.4193599224090576, -0.008172867819666862, -0.16373977065086365, 1.0827034711837769, -0.10448644310235977, -0.6447787284851074, -0.7802863121032715, 0.839625895023346, -0.13597503304481506, -1.6259453296661377, -0.753984272480011, 0.3906416893005371, -0.632084310054779, -0.3812487721443176, -0.34531447291374207, 0.678059458732605, -0.4540780186653137, -0.5789400935173035, -1.02876615524292, -0.9921061396598816, -1.0465619564056396, -0.7207211256027222, -0.46002137660980225, 0.166804701089859, -1.089774250984192, 0.05231316015124321, -0.3479118347167969, 0.14298968017101288, 0.04882160201668739, 0.816884458065033, 0.07271183282136917, 0.21137556433677673, -0.8708429336547852, -0.11127105355262756, -0.22911855578422546, 0.013653585687279701, 0.47782066464424133, -0.12367787212133408, -4.544960393104702e-05, -0.26908954977989197, 0.33564645051956177, 0.13149942457675934, -0.7139582633972168, -0.17946912348270416, 0.28032881021499634, 0.1055956780910492, -0.533238410949707, 0.7402793169021606, -0.17810595035552979, 0.9775621891021729, 0.4784371256828308, -0.7732611894607544, -0.07423744350671768, 0.5604568123817444, -0.679833173751831, 0.8876780271530151, 0.18965810537338257, -0.047917649149894714, 0.04188995063304901, 0.04399781674146652, 0.21032047271728516, -0.3862883746623993, -0.07623903453350067, 0.3740196228027344, 0.5426105856895447, -0.7925268411636353, -0.9864025712013245, 0.38328757882118225, -0.31889158487319946, -0.3332425653934479, -0.11262765526771545, -0.45044201612472534, -0.9622281193733215, 0.5377488732337952, -0.48195379972457886, 0.2120170146226883, 0.09072042256593704, -0.880034863948822, -0.7885823845863342, 0.026135452091693878, 1.1145161390304565, 0.8281674385070801, 1.1540166139602661, -0.9063894152641296, -0.3083890378475189, -0.1742209494113922, -0.7581693530082703, -0.9611868858337402, -0.05720329284667969, -0.15520083904266357, -0.5813790559768677, -0.8914276957511902, 0.9656906127929688, 0.18585669994354248, -1.070249319076538, 1.1876775026321411, 0.996247410774231, 1.1807998418807983, -0.2535667419433594, 0.4920712113380432, 1.05255925655365, 0.008792907930910587, 0.7371384501457214, -0.04704854264855385, -0.21196837723255157, -0.8686413764953613, -0.859413206577301, -0.8335270881652832, 0.21729034185409546, 0.8076699376106262, 0.4428024888038635, -0.4761752188205719, 0.11692919582128525, 0.5523500442504883, -0.16076727211475372, 1.0913585424423218, 0.03147663176059723, -0.0292487982660532, -0.7838031649589539, 0.0033535133115947247, -0.616498589515686, -0.3194933235645294, -1.151653528213501, 0.44032377004623413, 0.05471288785338402, 0.9191433787345886, -1.1797415018081665, -0.23476815223693848, -0.5265728235244751, -0.027318311855196953, 0.11289776861667633, -0.1503978967666626, 0.10406503826379776, -1.4134225845336914, -0.1968432366847992, -1.3685190677642822, -1.1892286539077759, -0.053243085741996765, 0.4541899263858795, 0.7292640209197998, -0.698488175868988, 0.03346822038292885, 0.011436325497925282, 0.7537037134170532, 0.5266072154045105, 0.33518514037132263, 0.09753787517547607, -0.7043339014053345, 0.35054484009742737, -0.05223475396633148, 0.015809407457709312, -1.2270325422286987, -0.8850740790367126, 0.7124235033988953, 0.5684933662414551, 0.25661352276802063, 0.979254424571991, 1.4045532941818237, -0.6557723879814148, 0.4693041741847992, -1.1249644756317139, -0.8719481825828552, -0.3651488125324249, 1.251259684562683, 0.7049028277397156, 0.5220616459846497, -0.9361111521720886, 0.5626559257507324, -0.8283494114875793, -0.37727290391921997, -0.799690842628479, -0.9505095481872559, -0.6423093676567078, -0.311124324798584, -0.397197425365448, 0.22942028939723969, -1.0317802429199219, -0.6547065377235413, -0.8914273977279663},
    {0.14547522366046906, 0.06857453286647797, 0.26707956194877625, -0.12247821688652039, -0.14279919862747192, 1.4208406209945679, -0.8168600797653198, 0.13521136343479156, -0.0023623143788427114, 0.9294093251228333, -0.5643818974494934, -0.08622851967811584, 0.3004651963710785, 1.5468424558639526, -0.6833696961402893, 1.0088008642196655, -0.13288791477680206, -1.0100806951522827, -1.4026949405670166, -0.7455919981002808, 0.47754305601119995, 0.8120418190956116, 0.6916643381118774, 0.007605376187711954, 0.22785665094852448, 1.5233131647109985, 0.10348207503557205, 0.14328159391880035, 0.20367220044136047, 0.30859020352363586, 0.016538606956601143, -0.9075664281845093, -0.11506672203540802, -1.198224425315857, -1.201665997505188, -0.1658134013414383, 0.398690402507782, 0.11987081915140152, -0.3691597878932953, -0.22599706053733826, 0.29729750752449036, -0.0467747300863266, -0.596290647983551, -0.15662866830825806, -0.37685227394104004, -0.6725130081176758, -0.9197382926940918, 0.49888354539871216, 0.20781107246875763, -0.2139197140932083, -0.2709929943084717, -0.7317703366279602, 0.062891386449337, -0.4306029677391052, -1.0589298009872437, -0.20371755957603455, -0.3850392699241638, 0.41508617997169495, 0.2206314355134964, -0.3053339719772339, -0.14673784375190735, 0.37336838245391846, -0.5381760001182556, -0.3576244115829468, -0.5866481065750122, 0.44007977843284607, -0.336140513420105, -0.09343113005161285, 0.37957197427749634, -0.9627698659896851, 1.482283353805542, 0.14741604030132294, 0.010928643867373466, -0.6183772683143616, -0.09516838937997818, -0.6193835139274597, -0.5960155725479126, 0.06983929127454758, 0.698639452457428, 0.23054717481136322, 0.3896695077419281, 0.3135665953159332, 0.21801620721817017, 0.10944399237632751, -0.27001073956489563, -0.9041621088981628, -0.4326505959033966, -0.36945265531539917, -0.17425864934921265, 0.35536444187164307, 1.4297488927841187, -0.1596171259880066, 0.27109378576278687, -0.07731788605451584, -0.7912219166755676, 0.8135846853256226, 1.9884815216064453, -0.4292762577533722, -0.37884044647216797, -1.5807684659957886, -0.2969549298286438, -0.14090485870838165, -0.5072020292282104, 0.11040211468935013, 0.5983346104621887, -0.8739889860153198, -0.4149448871612549, -0.21359780430793762, 0.27190452814102173, -0.6840565204620361, -0.6295956969261169, 1.9179655313491821, 0.2067086100578308, 0.11743811517953873, 0.38834065198898315, -0.11524122953414917, -0.18112815916538239, 1.3462445735931396, -1.607802391052246, -0.6725701689720154, -1.0222015380859375, -1.4449846744537354, 0.8215059041976929, -0.9717811346054077, -0.15260353684425354, -0.1538921594619751, 0.023093730211257935, 0.14809834957122803, 0.9170662760734558, -0.8846339583396912, -0.40608730912208557, -1.3513407707214355, 0.44376447796821594, -0.15254677832126617, -1.2466013431549072, 0.695561945438385, 0.015181653201580048, -0.5308094024658203, -0.14675438404083252, 0.7538139224052429, 0.04336957260966301, 0.4851921498775482, 0.8830114006996155, -0.03661934286355972, 1.0865533351898193, -0.582068681716919, -0.39439666271209717, -0.472214937210083, 0.25992482900619507, -0.3744339942932129, 0.432755708694458, 0.030487317591905594, -0.1626519113779068, -0.21712414920330048, 1.1390353441238403, -1.4850940704345703, 1.2676198482513428, 1.8682750463485718, 0.0477968193590641, 0.42044883966445923, -0.1355377733707428, -0.5716231465339661, -0.7547219395637512, 0.4100029766559601, 0.39748838543891907, 1.5714761018753052, -0.7673340439796448, 1.21370267868042, -0.9441327452659607, 0.47892868518829346, 0.5550177097320557, 0.6231619119644165, 1.5767873525619507, -1.1465829610824585, -1.4232282638549805, -1.2834404706954956, 0.21571864187717438, -0.5881156921386719, -0.45818790793418884, 0.6204603910446167, 0.9683069586753845, 0.3201683461666107, 1.3524125814437866, 1.2635451555252075, -0.9199644923210144, 1.236804723739624, -0.13148711621761322, 0.062398359179496765, -0.18593813478946686, 0.33372044563293457, 1.2364839315414429, 0.045018453150987625, 0.5455854535102844, -0.04144144803285599, 0.5452334880828857, 0.08766807615756989, 0.30402687191963196, 0.019309284165501595, -0.41453927755355835, 0.614599883556366, -0.4988498389720917},
    {-0.21715350449085236, -0.18663030862808228, 0.1007477343082428, -0.4434282183647156, 0.007587060332298279, 0.6645691990852356, 1.546347737312317, 0.06812702864408493, -0.32907137274742126, -1.1870182752609253, -0.9487128257751465, -0.5514238476753235, 0.2687050998210907, -0.9198993444442749, 0.7034031748771667, 0.8798503279685974, -0.5133554339408875, 0.5405095815658569, 1.1157203912734985, 0.038834016770124435, 0.057525090873241425, -1.0199713706970215, 0.19392046332359314, 0.030936090275645256, 0.10569878667593002, -0.15617457032203674, 0.813921332359314, 0.029576493427157402, -1.3732070922851562, -0.9349019527435303, 0.02443581074476242, 0.7814782857894897, -0.04293814301490784, 0.7157110571861267, 1.0966709852218628, 0.02388382889330387, 0.07348675280809402, -0.14725369215011597, -0.018912751227617264, -0.73395174741745, -0.7125529050827026, -0.933818519115448, -0.24654927849769592, 0.6045374870300293, -0.9698994159698486, -1.564244031906128, 1.0311641693115234, -0.385811448097229, 0.6749560832977295, 0.4890250861644745, 0.09747149050235748, 0.4306693971157074, 0.46465885639190674, 0.9849787950515747, -0.4266061782836914, -0.043388731777668, 0.23935571312904358, -0.40206941962242126, 0.526955246925354, -0.008661775849759579, 0.319736510515213, 0.2577403485774994, 0.4243752360343933, -0.6387361288070679, 0.8377635478973389, 0.10085611045360565, 0.25376859307289124, 0.05394595488905907, 0.2765171527862549, 0.6737017631530762, 0.09338781237602234, -1.0230494737625122, -0.7853962182998657, 0.2971556484699249, -0.039947524666786194, 0.09467672556638718, 0.685478687286377, 0.2999648451805115, 0.00860542617738247, -0.05530211701989174, 0.1229262575507164, 0.03882608190178871, 0.46861186623573303, 0.7052294611930847, -0.2397070974111557, -0.01189037412405014, 0.5745118260383606, -0.20741859078407288, 0.11989451199769974, -1.0444315671920776, -0.6864252686500549, 0.284930020570755, -0.6025574803352356, -0.4531595706939697, -0.03732077032327652, 1.1611372232437134, 1.0703853368759155, -1.1402512788772583, 0.17707394063472748, -0.9041902422904968, -0.32890379428863525, 0.22247622907161713, 0.1730775386095047, -0.778396487236023, -0.7741833329200745, -1.2420811653137207, -0.6342707276344299, 0.3398725390434265, -0.6866490840911865, -1.4095875024795532, 0.38808268308639526, -0.04535340517759323, 0.9580816030502319, -0.029980268329381943, -0.7466667890548706, 0.9635776877403259, -0.04768717661499977, -0.7533676624298096, -0.28452566266059875, 0.9169141054153442, 0.39378881454467773, 0.13187794387340546, -0.8118748068809509, 0.07547946274280548, 1.2096803188323975, 0.022603332996368408, -0.28329843282699585, -1.1529557704925537, 0.3140520751476288, 0.20416979491710663, 0.20521031320095062, -0.7435386776924133, 0.4500355124473572, -0.14651840925216675, 0.35191306471824646, 0.2375359982252121, -0.21018487215042114, -0.2897147536277771, 0.12196510285139084, 0.15310688316822052, 0.443569153547287, 0.0009363490389660001, -0.025812514126300812, 0.1535254716873169, -0.2677668333053589, 0.6427799463272095, 0.4201209545135498, 0.8107582926750183, -0.38094353675842285, -1.0629806518554688, 0.2892991304397583, 0.09304194152355194, -0.14449329674243927, -1.0671342611312866, 0.38141727447509766, -1.3467676639556885, 0.3377934694290161, -0.11453390121459961, -0.18651032447814941, -1.1332517862319946, 0.5891629457473755, 0.06747502833604813, 0.1577899158000946, 0.45361772179603577, 0.3425901532173157, -0.6937484741210938, -0.44163432717323303, 0.20536889135837555, 0.2314581573009491, 0.4060298502445221, 0.08272197097539902, -0.47606056928634644, 0.11113319545984268, -0.6692001223564148, 0.7213308811187744, -0.7497596144676208, 0.5328527688980103, 0.11444929987192154, -0.48762351274490356, 0.13370515406131744, 1.0026285648345947, -0.5414384603500366, -0.6390535831451416, 0.5876122117042542, -0.08353367447853088, 0.004173954948782921, -0.5121214389801025, 0.3182976245880127, -0.4063994288444519, 0.24425415694713593, -0.5154363512992859, -0.03509412333369255, -0.6728132367134094, -0.33959147334098816, -0.4392794668674469, -1.2010059356689453, -0.8970773816108704, -1.4659208059310913, -0.17159722745418549, 0.4560473561286926, -0.2031894475221634},
    {0.18272605538368225, 0.028095543384552002, 0.0893605649471283, 0.007293707691133022, 0.05819229781627655, -0.7681964039802551, 1.4924107789993286, -0.028801999986171722, 0.38038456439971924, -0.8781499266624451, 0.996326208114624, 0.058060482144355774, 0.08950795978307724, 0.6739526391029358, 0.79756760597229, 0.613303542137146, 1.0294610261917114, 0.4203111529350281, -1.5096006393432617, -0.7638370990753174, 0.15853999555110931, 0.5268045663833618, 0.01235297042876482, -0.03206106647849083, 0.004212027415633202, -0.02413785271346569, -0.012289839796721935, 0.10948042571544647, 0.8017206192016602, 1.3154011964797974, 0.15359120070934296, 0.03539964556694031, 0.05383159592747688, -0.1055220440030098, 1.183300495147705, -0.26818034052848816, 0.2084575891494751, 0.3073677718639374, -0.0345272496342659, 1.3662328720092773, 0.004355167504400015, 1.0938750505447388, -0.39684048295021057, 0.7458075284957886, -0.11591833829879761, -0.3284931182861328, -1.922355055809021, 0.7754918336868286, 0.6151638627052307, 0.7359739542007446, -0.22049087285995483, -0.213437020778656, -0.9061045050621033, 0.1454772651195526, 1.2758785486221313, -0.31039345264434814, -0.16428762674331665, 0.22798337042331696, 0.5178689956665039, 0.1577453464269638, -0.01298209372907877, 0.17357395589351654, -0.047121066600084305, 0.40835535526275635, -0.17078015208244324, 1.0043509006500244, 0.2068219929933548, 0.8130828142166138, 0.28857719898223877, 1.3346664905548096, -0.04008260741829872, 1.2628353834152222, 0.6402226090431213, -0.46790313720703125, -0.6126448512077332, 0.4680897891521454, 0.11461712419986725, -0.12291847914457321, -0.566712498664856, -0.12387389689683914, -0.9470078349113464, -0.021412141621112823, -0.11321929097175598, 0.5290126800537109, 0.22026288509368896, -0.26154667139053345, -1.552290439605713, 0.33136609196662903, 0.24244923889636993, 0.7961394786834717, -0.679835319519043, 0.6314725875854492, -0.5460531115531921, -0.20884010195732117, 0.3314429223537445, 0.38103434443473816, -0.9031845927238464, -0.5931116342544556, 0.41417068243026733, 1.7196024656295776, 0.9845763444900513, -0.10967639088630676, -0.2628398835659027, 1.0652942657470703, 0.8017845749855042, 0.926122784614563, 0.07582928985357285, -0.5677786469459534, 0.0281229205429554, -1.2025803327560425, -1.562949776649475, 0.8698325157165527, 0.2369539737701416, 1.7607413530349731, 0.1658346951007843, 1.503272294998169, 0.04027600213885307, -0.16037273406982422, 0.17632468044757843, 1.319346308708191, -0.445067435503006, -1.3851886987686157, -0.5326290726661682, 0.5687753558158875, -0.6608904600143433, 0.47012263536453247, 0.8143508434295654, 0.9341400861740112, 1.0492514371871948, 0.21817441284656525, -0.047532133758068085, 0.9047746062278748, -0.13637156784534454, 0.17680670320987701, -0.13558612763881683, -0.18570657074451447, -0.6754013299942017, 0.9301972985267639, 0.40983977913856506, -0.43959754705429077, -0.008435668423771858, -1.3904500007629395, -1.1380412578582764, -0.369052529335022, -0.13363851606845856, -1.4026292562484741, 0.2065337896347046, 0.8055822849273682, 0.9433117508888245, 0.7099828124046326, 0.18172067403793335, -0.13223713636398315, 1.2604604959487915, -0.46975916624069214, -0.23105786740779877, -0.3228682577610016, -1.0433796644210815, -1.2955611944198608, -0.11384806782007217, -0.4886878430843353, 1.4943833351135254, 0.05356690287590027, 0.35275211930274963, -0.679608166217804, -0.7906225323677063, 0.8332841396331787, -0.4137144684791565, -1.1623412370681763, 1.5635793209075928, -0.10170590132474899, 0.10900460183620453, 0.3253655433654785, -0.41507574915885925, 0.6059166789054871, 1.483257532119751, 0.5058112740516663, 0.940718948841095, 0.809666633605957, 1.5388779640197754, 0.5094518065452576, -0.6476398706436157, 0.7963064312934875, 1.2362899780273438, -0.7717602849006653, -0.3434600532054901, 0.14663578569889069, 1.1958225965499878, 1.5002707242965698, 0.32132089138031006, -0.7388527393341064, 0.04639260098338127, 0.41363921761512756, 0.2998586595058441, 1.0056757926940918, -0.2892807722091675, 0.19696460664272308, 0.9047594666481018, -0.005853863433003426, 0.5833658576011658, 0.9935528635978699, 0.5915583372116089},
