const float weight1[][201]={{0.026598213240504265, 0.10972286015748978, 0.07525940239429474, -0.030375907197594643, -0.0031473799608647823, 0.06920614093542099, 0.04708889126777649, -0.055839888751506805, -0.04466915875673294, -0.030303869396448135, 0.13218964636325836, -0.035197798162698746, 0.1143701821565628, 0.047613345086574554, -0.044813960790634155, -0.013235999271273613, -0.03623230382800102, 0.04094315692782402, 0.0004824995994567871, -0.09903547167778015, 0.19604697823524475, -0.016830861568450928, -0.020615965127944946, 0.0027701896615326405, 0.01841866970062256, 0.02302537113428116, 0.10214537382125854, -0.09602300822734833, -0.0163576602935791, 0.04186321049928665, 0.09976769983768463, -0.034115198999643326, -0.07703779637813568, 0.02698640525341034, -0.04757418483495712, 0.06974029541015625, -0.05730246379971504, 0.06529457867145538, -0.10620161145925522, 0.1308659315109253, 0.014753364026546478, 0.12428493052721024, -0.058382511138916016, 0.09120568633079529, 0.032519981265068054, -0.010053332895040512, -0.07414083927869797, 0.12585389614105225, 0.15007740259170532, 0.03521997109055519, 0.0753624215722084, 0.052223555743694305, -0.019587479531764984, 0.19344964623451233, -0.05062376707792282, 0.1749548763036728, 0.21825411915779114, 0.009163565933704376, -0.04003795236349106, 0.04722192510962486, -0.0003181665379088372, 0.01777925156056881, -0.10279494524002075, -0.01874406635761261, 0.03139311820268631, 0.10776115208864212, 0.08184997737407684, 0.08406994491815567, 0.1329040229320526, -0.043929219245910645, -0.0673392191529274, 0.06427378207445145, 0.0007089152932167053, 0.13097301125526428, -0.0551457405090332, 0.10715345293283463, 0.2321394383907318, 0.03972835838794708, 0.035112060606479645, -0.10512352734804153, 0.02056102268397808, 0.15003572404384613, 0.015309144742786884, 0.003657608525827527, 0.1908847987651825, 0.011239342391490936, -0.051522865891456604, -0.006771743297576904, -0.04759348928928375, -0.028897322714328766, 0.057070665061473846, -0.03204994276165962, -0.028830159455537796, -0.02045666053891182, 0.16819755733013153, 0.05879589915275574, 0.042545728385448456, -0.056320853531360626, 0.05158461630344391, 0.06757036596536636, 0.058708541095256805, -0.03406085819005966, 0.04563387483358383, -0.0484604686498642, -0.06937841325998306, -0.002850078046321869, 0.023050326853990555, 0.20867647230625153, -0.046225909143686295, 0.02159813791513443, 0.20531369745731354, -0.13108034431934357, 0.044963449239730835, 0.109237439930439, 0.2112644463777542, 0.0721498504281044, 0.06894344836473465, 0.013751566410064697, 0.09975040704011917, 0.0486551895737648, -0.06323614716529846, 0.06346749514341354, -0.04819060117006302, 0.036326225847005844, -0.0017408058047294617, -0.11801233887672424, 0.03640545904636383, -0.12257515639066696, 0.06877020746469498, -0.0028976015746593475, -0.05761951208114624, -0.0266154445707798, 0.042770177125930786, 0.06248878687620163, 0.05607452243566513, 0.1910901516675949, 0.018159426748752594, 0.2172102928161621, 0.05091109871864319, 0.03556586429476738, 0.0370304174721241, 0.03984203189611435, 0.0016233175992965698, 0.04097042977809906, -0.0112139992415905, -0.004084736108779907, -0.06774361431598663, 0.029269244521856308, 0.007036334369331598, 0.055502913892269135, -0.045809295028448105, 0.046018779277801514, 0.027549996972084045, -0.016436826437711716, -0.15117110311985016, -0.055305518209934235, 0.06804917007684708, -0.06555970758199692, -0.06641285121440887, 0.002571617718786001, 0.029490672051906586, -0.025994999334216118, 0.2168850600719452, -0.038348279893398285, 0.011073991656303406, -0.05472458153963089, 0.04899764060974121, -0.03477280214428902, 0.043577179312705994, 0.007116036489605904, 0.07567625492811203, 0.006086237728595734, 0.02732962742447853, 0.027144968509674072, 0.011696495115756989, -0.032051827758550644, -0.0011576772667467594, -0.12674500048160553, -0.04741435870528221, 0.05298548564314842, 0.030906394124031067, -0.06621348112821579, 0.0027542784810066223, -0.04079408943653107, 0.10410592705011368, -0.03943755105137825, -0.05695357546210289, -0.011461373418569565, 0.03926648199558258, -0.09969065338373184, -0.1493539959192276, -0.012742243707180023, 0.007461942732334137, -0.031781211495399475, 0.0818791538476944, 0.10986283421516418, 0.15380841493606567, 0.11521169543266296, 0.013441197574138641, 0.011731483042240143, 0.11070334911346436},
    {-0.07355456054210663, 0.09157117456197739, -0.050111569464206696, -0.04792376235127449, -0.019348133355379105, 0.00040350109338760376, 0.05701699107885361, 0.025722552090883255, -0.04377303272485733, -0.0015566349029541016, -0.06300205737352371, -0.04225165769457817, 0.06977961212396622, -0.053166382014751434, -0.03567919880151749, -0.010737806558609009, 0.06004207581281662, -0.01304403692483902, 0.037304095923900604, -0.06760979443788528, -0.004848274402320385, 0.001952730119228363, 0.023039020597934723, 0.028862442821264267, -0.013612673617899418, -0.04899631813168526, 0.07387193292379379, -0.0035949598532170057, -0.024059757590293884, -0.0686493068933487, 0.00043917581206187606, -0.06161242350935936, 0.023390522226691246, 0.004498481750488281, 0.052112407982349396, 0.03555869311094284, -0.01647379994392395, -0.03675352409482002, 0.04856320470571518, 0.03058847039937973, -0.02202742174267769, -0.06704983860254288, 0.04545705020427704, 0.06113374978303909, 0.04024922102689743, 0.04084700345993042, 0.04263419657945633, 0.045572057366371155, 0.05424423888325691, 0.09884995222091675, -0.012816283851861954, 0.03371160849928856, -0.003744586603716016, -0.0075792670249938965, -0.06452344357967377, -0.009874613955616951, -0.014269638806581497, 0.0010726600885391235, -0.034186091274023056, -0.05922875553369522, -0.025541452690958977, 0.029061580076813698, -0.0018639143090695143, 0.03342457860708237, 0.022797834128141403, 0.03321494907140732, 0.02419857680797577, 0.02231586165726185, -0.030876949429512024, 0.009688526391983032, -0.06451186537742615, 0.06465604156255722, 0.05120157450437546, -0.003488770453259349, 0.06298606842756271, 0.06261879950761795, -0.0423467755317688, -0.04884951561689377, 0.00907948613166809, -0.019136004149913788, -0.0015027059707790613, -0.04367436468601227, 0.057594943791627884, 0.05817272514104843, -0.08292805403470993, 0.017395146191120148, 0.039991751313209534, 0.014747880399227142, -0.042077209800481796, 0.02688668668270111, 0.059397198259830475, -0.017870917916297913, 0.015922561287879944, -0.06467090547084808, -0.033914677798748016, 0.03948000818490982, 0.05280578136444092, 0.04730336368083954, 0.060042984783649445, 0.053954802453517914, -0.055871255695819855, 0.03092801570892334, 0.0616033598780632, -0.025081712752580643, 0.006418593227863312, 0.051729343831539154, 0.023389853537082672, -0.034208133816719055, 0.046502016484737396, -0.05398733541369438, -0.01779874600470066, -0.08516579121351242, 0.051980845630168915, 0.051365017890930176, 0.017470182850956917, 0.016809973865747452, 0.0019528120756149292, 0.003953024744987488, -0.028236716985702515, -0.0013558396603912115, 0.060972683131694794, 0.01728644222021103, 0.03935255855321884, -0.07372142374515533, -0.059741608798503876, -0.05743188038468361, 0.04299888759851456, 0.0396655797958374, 0.054293468594551086, -0.09536787122488022, -0.09085546433925629, -0.04135007783770561, -0.022905156016349792, -0.024785898625850677, 0.06560369580984116, 0.05000101774930954, 0.029248788952827454, -0.027603305876255035, -0.005547629203647375, 0.06522517651319504, 0.011092698201537132, -0.056758299469947815, 0.044373877346515656, -0.04503729194402695, -0.028548073023557663, 0.0632682666182518, 0.011122277937829494, 0.013446562923491001, -0.043905798345804214, -0.023712418973445892, 0.06009232625365257, 0.0033732519950717688, 0.059475116431713104, 0.0035141855478286743, 0.027681522071361542, -0.0077196285128593445, -0.006731204688549042, -0.06786476075649261, -0.046841152012348175, -0.05488380417227745, 0.01781526207923889, -0.05124245211482048, 0.03873904421925545, 0.06231086701154709, 0.021448388695716858, -0.04915160313248634, -0.018451113253831863, 0.06450145691633224, 0.0011885985732078552, -0.04903768375515938, 0.027863815426826477, -0.0363830141723156, 0.047245100140571594, -0.05875502899289131, 0.033530093729496, -0.06316693127155304, -0.05324242264032364, -0.04100847244262695, 0.09300791472196579, -0.07671200484037399, -0.010008193552494049, -0.045804642140865326, 0.03755861520767212, 0.027993492782115936, 0.010851395316421986, -0.06899265199899673, 0.039115071296691895, -0.03241242095828056, -0.015959568321704865, -0.05494071915745735, -0.012365013360977173, -0.04485759884119034, 0.007009968161582947, 0.054471395909786224, -0.03593045845627785, 0.04623379558324814, -0.05858919396996498, 0.0980808436870575, -0.0175013430416584, 0.028629839420318604, 0.11544986814260483},
    {0.10420627146959305, 0.11476004868745804, 0.02975519187748432, -0.05317247286438942, 0.07761818915605545, -0.06098312884569168, 0.11545182019472122, 0.11570297181606293, -0.04434579610824585, 0.0673336461186409, 0.12131300568580627, -0.012450151145458221, 0.0962332934141159, -0.005852408707141876, 0.005682945251464844, -0.012744107283651829, -0.025190886110067368, 0.01103914249688387, 0.004527248442173004, -0.08470059931278229, -0.04677001014351845, -0.022148407995700836, -0.052652161568403244, -0.12306973338127136, -0.14818766713142395, -0.008516877889633179, -0.0685858204960823, 0.08767327666282654, 0.023089028894901276, -0.023500535637140274, 0.02101103588938713, 0.02105904556810856, -0.09124760329723358, -0.025888346135616302, 0.0030742883682250977, 0.15438532829284668, -0.039818257093429565, 0.1523830145597458, -0.1410704255104065, 0.12645719945430756, 0.006247416138648987, 0.06906036287546158, -0.05835101380944252, 0.1602582186460495, 0.10282307863235474, 0.1806662231683731, -0.026840010657906532, -0.19838273525238037, -0.1737593114376068, -0.07128459960222244, 0.21115580201148987, -0.005706991534680128, 0.0721050277352333, 0.1319744884967804, 0.0659046545624733, 0.16616111993789673, 0.12714754045009613, 0.05304399132728577, 0.05218531936407089, 0.08612054586410522, 0.0588536262512207, 0.15542423725128174, -0.007322981487959623, -0.0561395101249218, 0.0022949622943997383, 0.08616644144058228, 0.1471295952796936, 0.22216719388961792, 0.08026143908500671, 0.0072646960616111755, -0.06958445906639099, 0.01563074439764023, 0.0031946897506713867, 0.15523661673069, 0.03689362853765488, 0.12835969030857086, 0.09163308143615723, 0.11876995116472244, 0.04691848158836365, 0.06914098560810089, 0.013156289234757423, -0.16138726472854614, -0.05340598151087761, -0.02021176740527153, 0.14649459719657898, -0.04300212860107422, 0.0672665610909462, -0.006907805800437927, 0.1180623322725296, 0.032017312943935394, 0.049605198204517365, -0.039379414170980453, 0.046734996140003204, -0.03361443057656288, -0.00673215975984931, -0.022599464282393456, 0.036174580454826355, -0.036275465041399, 0.06059693545103073, 0.03655356913805008, 0.061837635934352875, -0.027394194155931473, -0.006691567599773407, 0.017865166068077087, -0.06926453858613968, 0.03380395472049713, -0.11905166506767273, 0.12506526708602905, -0.023732177913188934, 0.05208643525838852, 0.01676698587834835, -0.019970808178186417, 0.18064747750759125, 0.13003088533878326, -0.12921427190303802, 0.023192619904875755, 0.01243339478969574, 0.03839753568172455, -0.04014263302087784, -0.14457249641418457, -0.015955448150634766, -0.010710209608078003, -0.040586985647678375, 0.09041907638311386, 0.027198903262615204, 0.1996351182460785, -0.0875994935631752, 0.1524083912372589, -0.005589313805103302, 0.18114107847213745, -0.02021496370434761, -0.013269255869090557, 0.059867046773433685, 0.062447212636470795, 0.018129557371139526, 0.04008020460605621, 0.0636691078543663, -0.042607251554727554, 0.09467194229364395, 0.011250686831772327, -0.06509973108768463, -0.011926472187042236, 0.04036325961351395, 0.02472671866416931, 0.04085411876440048, 0.03983898460865021, -0.0827629566192627, -0.07848475873470306, 0.0051020183600485325, -0.0071524083614349365, 0.07995039224624634, 0.014300311915576458, -0.053386203944683075, -0.06330090016126633, 0.13596665859222412, -0.013355385512113571, 0.02704746276140213, 0.0689031109213829, -0.0036056339740753174, 0.08223490417003632, 0.02820039540529251, 0.013656547293066978, -0.07015278190374374, -0.01944911852478981, -0.04573722928762436, 0.04063790291547775, 0.05341247469186783, 0.0093044713139534, 0.05317506194114685, 0.11147771030664444, -0.0014747604727745056, -0.0612606406211853, 0.16385577619075775, 0.050695620477199554, 0.024399787187576294, 0.013157859444618225, 0.10264454036951065, -0.11545585095882416, 0.12075866758823395, 0.04433312267065048, -0.004113845527172089, -0.014140430837869644, 0.0644037202000618, 0.03579244762659073, -0.012282583862543106, 0.01140554528683424, -0.024658896028995514, -0.007745685987174511, -0.017173651605844498, -0.0031937139574438334, 0.1744966208934784, -0.004833295941352844, 0.059591107070446014, -0.018807485699653625, 0.08359470218420029, -0.12507088482379913, -0.2618216276168823, -0.1502540409564972, 0.035348184406757355, 0.05978318303823471, -0.02502904087305069},
    {0.06726725399494171, 0.08548859506845474, 0.04327172413468361, -0.03927604481577873, 0.021212095394730568, -0.01525069773197174, 0.09541798382997513, 0.0759858787059784, -0.02013331651687622, -0.012173425406217575, -0.13167695701122284, 0.082089863717556, -0.054479457437992096, -0.021381288766860962, 0.0162355899810791, 0.08850309997797012, -0.004259020090103149, 0.06854531913995743, -0.036358606070280075, 0.11727859079837799, -0.09483790397644043, -0.06979791820049286, -0.03935877978801727, -0.09094759821891785, -0.09565757215023041, 0.06378083676099777, -0.052749574184417725, 0.04382568597793579, 0.06076207011938095, -0.06102272495627403, -0.01689446158707142, 0.0747317522764206, -0.1475604623556137, 0.02368643879890442, 0.014315374195575714, -0.003356819972395897, 0.05702517181634903, 0.08817217499017715, -0.0580705888569355, -0.12561292946338654, 0.06799551099538803, 0.007616179529577494, -0.010025709867477417, -0.005959092173725367, -0.12914195656776428, 0.044167954474687576, 0.0036099012941122055, -0.21157586574554443, -0.20758387446403503, -0.022570934146642685, 0.0656760111451149, 0.05793837085366249, 0.05892841890454292, -0.025296082720160484, 0.0513896718621254, 0.1523384153842926, 0.03865833953022957, 0.07006707042455673, -0.0040182024240493774, 0.0757482573390007, 0.0818309411406517, 0.14352428913116455, -0.12993735074996948, 0.05712229758501053, 0.019930576905608177, 0.022786181420087814, 0.05217045545578003, -0.014019380323588848, -0.06850288063287735, 0.05960560590028763, -0.06517086178064346, 0.03175663203001022, -0.055696479976177216, 0.10631412267684937, -0.011660389602184296, 0.0014851201558485627, -0.15719324350357056, 0.03845842555165291, 0.045922115445137024, -0.015606229193508625, 0.011966939084231853, 0.01322789117693901, -0.07207537442445755, 0.023815011605620384, 0.07250788807868958, -0.06752651184797287, 0.052476562559604645, -0.017003998160362244, 0.12423785775899887, 0.016610734164714813, -0.03618277609348297, 0.0008250176906585693, -0.03472595289349556, 0.029542379081249237, -0.14604692161083221, 0.0029872495215386152, -0.05780791491270065, 0.03376360982656479, 0.03412272781133652, 0.043559730052948, 0.07020542770624161, -0.019779063761234283, -0.026283856481313705, 0.06295488029718399, -0.003126583993434906, -0.06605608016252518, -0.04995106905698776, 0.1250847429037094, -0.01980602741241455, -0.0059438347816467285, 0.09914195537567139, -0.059639330953359604, 0.08131095767021179, 0.01065791305154562, -0.03398652374744415, -0.029095130041241646, -0.03582746535539627, -0.05287729576230049, -0.10979142040014267, -0.15952631831169128, -0.009886860847473145, 0.01920390874147415, -0.0652773454785347, -0.005559013225138187, -0.002088882029056549, 0.1502927988767624, -0.042912568897008896, -0.12772630155086517, -0.0603235587477684, -0.07416465878486633, -0.03359879180788994, 0.03198619559407234, 0.02635764330625534, 0.03557319939136505, 0.006434082984924316, 0.10708019137382507, 0.05834455043077469, -0.08011205494403839, 0.03951404243707657, 0.012330579571425915, 0.04331740736961365, 0.02988658845424652, 0.009305454790592194, 0.06338288635015488, -0.03994043916463852, -0.02479073405265808, -0.03236082196235657, 0.01569703407585621, -0.10025746375322342, 0.06538394838571548, -0.04553545266389847, 0.024314355105161667, 0.0162508487701416, -0.025926366448402405, -0.06979552656412125, 0.0066022127866744995, 0.0021176859736442566, -0.062345150858163834, -0.06765399128198624, 0.09226901084184647, -0.01873529702425003, -0.040226202458143234, -0.09156281501054764, -0.06384092569351196, 0.04081989824771881, 0.05108144134283066, -0.053824059665203094, -0.003450930118560791, 0.0513874813914299, -0.019977455958724022, -0.023353336378932, 0.00821678340435028, 0.07858774065971375, -0.010143216699361801, -0.00012268871068954468, 0.0013068020343780518, 0.012110134586691856, -0.11552413552999496, -0.02391648292541504, 0.048526108264923096, 0.0022385194897651672, -0.024887900799512863, 0.05868556350469589, 0.02533942461013794, -0.009935150854289532, -0.0355566032230854, -0.031132683157920837, 0.04818496108055115, 0.0010028257966041565, 0.04681459814310074, -0.09852313250303268, -0.03789697587490082, 0.06175919622182846, -0.03409713879227638, -0.00388773693703115, -0.23252719640731812, -0.178464874625206, -0.09300822019577026, 0.03276994079351425, -0.0368078239262104, -0.021227551624178886},
    {-0.04644615203142166, -0.02353428676724434, -0.048881981521844864, -0.055748000741004944, -0.0327938087284565, -0.03026936948299408, 0.028133228421211243, -0.042775802314281464, 0.05858338624238968, -0.054663754999637604, 0.004156447947025299, 0.004183565732091665, -0.0466497428715229, -0.055409882217645645, 0.05279041826725006, 0.011134527623653412, -0.04270707815885544, 0.03626997023820877, -0.013566486537456512, 0.0065395524725317955, -0.015124715864658356, -0.017082583159208298, -0.06773512810468674, -0.0014496073126792908, 0.06353575736284256, 0.039626605808734894, -0.05398377776145935, 0.028031999245285988, 0.030375659465789795, -0.03838324919342995, -0.07296009361743927, -0.038473960012197495, 0.0014125704765319824, -0.005621626973152161, 0.0616413876414299, -0.0013116821646690369, 0.05590737611055374, -0.047837335616350174, 0.04231312870979309, 0.04195190966129303, 0.035809628665447235, -0.0586497038602829, -0.027072723954916, 0.03802434355020523, 0.06908335536718369, -0.05243201553821564, 0.06313494592905045, 0.011054664850234985, -0.05022607743740082, -0.02742413431406021, -0.038568250834941864, -0.036132536828517914, 0.003317698836326599, -0.012633390724658966, 0.021674439311027527, -0.03159192204475403, 0.018880503252148628, -0.030010156333446503, -0.04976443201303482, 0.018160302191972733, 0.010934845544397831, 0.022401656955480576, -0.012690290808677673, -0.048151277005672455, 0.048393115401268005, -0.013141509145498276, -0.011739220470190048, -0.01663956046104431, 0.0035144761204719543, 0.051704056560993195, 0.03104522079229355, -0.06592793017625809, -0.05825548619031906, -0.030905039981007576, -0.056850168853998184, -0.07034358382225037, -0.00797312706708908, -0.058029595762491226, 0.022400550544261932, 0.0006963536143302917, -0.010135084390640259, -0.059888966381549835, -0.045623231679201126, -0.00525975227355957, -0.045708321034908295, -0.04401760920882225, 0.052143409848213196, 0.004170678555965424, 0.031028088182210922, 0.06535790115594864, -0.05726509541273117, -0.031970418989658356, 0.03529537469148636, 0.05836009234189987, -0.03012913465499878, 0.05410631746053696, -0.0014761611819267273, -0.006177537143230438, 0.009291090071201324, -0.061374809592962265, 0.025412186980247498, -0.03090839833021164, 0.06527592986822128, 0.01142120361328125, 0.04773171246051788, 0.01481591910123825, -0.015688277781009674, 0.02320168912410736, 0.03046969324350357, -0.06891108304262161, -0.011187788099050522, -0.01139494776725769, 0.0015960857272148132, 0.06020697206258774, -0.05617375671863556, -0.04364539682865143, -0.06604805588722229, -0.010377626866102219, 0.01762029528617859, -0.014825891703367233, -0.011041399091482162, -0.05864642560482025, 0.0010153800249099731, -0.0503673180937767, 0.033628322184085846, 0.03327574208378792, -0.05203017592430115, 0.014685943722724915, 0.007352679967880249, 0.06818417459726334, -0.08434103429317474, -0.03345732018351555, 0.05395980179309845, -0.01908855140209198, -0.016957547515630722, -0.06298328191041946, 0.02987593412399292, 0.002832941710948944, -0.05477481335401535, -0.02076888084411621, 0.035446032881736755, -0.0493645966053009, -0.05665494501590729, 0.030268222093582153, -0.02288493886590004, 0.014369361102581024, -0.016553163528442383, 0.043567270040512085, -0.04975481331348419, 0.04576638340950012, 0.025002293288707733, 0.002252319362014532, 0.030470021069049835, -0.047403089702129364, 0.05629593878984451, -0.026558123528957367, 0.014883734285831451, 0.0502777025103569, -0.009958576411008835, 0.01177041232585907, -0.04634879529476166, 0.017998449504375458, 0.04763659089803696, -0.016786430031061172, -0.07050485908985138, 0.061573632061481476, 0.04871073365211487, -0.026070259511470795, -0.034962572157382965, 0.05073291063308716, 0.0019497796893119812, -0.060703080147504807, 0.010164819657802582, -0.05312087759375572, 0.01891566812992096, -0.03127770870923996, 0.018609754741191864, -0.06164081394672394, -0.06303665786981583, -0.005257181823253632, -0.02053673192858696, -0.05339609086513519, -0.05844252184033394, -0.014397997409105301, 0.04133696109056473, 0.028270721435546875, -0.020667098462581635, 0.06448020786046982, 0.01962386816740036, 0.05002294480800629, 0.02439461648464203, 0.056573279201984406, 0.01943565160036087, 0.04297935962677002, -0.04558530077338219, 0.05325142294168472, 0.04565654695034027, -0.047746025025844574, -0.04766855388879776, 0.05986223369836807, 0.0550752654671669},
    {0.04423734173178673, 0.11930867284536362, -0.07364577054977417, -0.09398018568754196, -0.06369754672050476, -0.04408084601163864, -0.010348472744226456, 0.08205737173557281, -0.0027816370129585266, -0.056724902242422104, -0.026796922087669373, -0.0038065791595727205, -0.02655579149723053, 0.06146784871816635, -0.06321283429861069, 0.054468896239995956, -0.0010750293731689453, -0.06485150009393692, 0.045433178544044495, 0.21241548657417297, -0.1391925811767578, -0.015363607555627823, -0.052341707050800323, -0.06828690320253372, -0.026710588485002518, -0.028273742645978928, -0.014712100848555565, 0.036332350224256516, -0.011367205530405045, 0.030739590525627136, 0.05066421627998352, -0.03822943940758705, 0.0018345456337556243, 0.05276809632778168, -0.059867069125175476, -0.051951877772808075, -0.05839608982205391, 0.035924311727285385, -0.10705503821372986, -0.030913833528757095, -0.05648130178451538, 0.04870534688234329, 0.019904986023902893, -0.04681213200092316, 0.002894047414883971, 0.0034308135509490967, 0.005874469876289368, 0.05487210303544998, -0.10059086978435516, -0.1035023108124733, -0.0444851852953434, 0.051454368978738785, 0.11296635866165161, -0.021875441074371338, -0.05011632293462753, -0.02827254682779312, -0.03526390343904495, 0.04122959077358246, -0.008312519639730453, 0.017554152756929398, 0.056772250682115555, -0.1438080221414566, -0.08926916122436523, 0.003992825746536255, -0.019176654517650604, -0.005582012236118317, 0.0471838153898716, 0.00036482512950897217, -0.09425568580627441, -0.03613881766796112, -0.007462441921234131, -0.06010452285408974, -0.03759612515568733, 0.018491923809051514, 0.015580855309963226, -0.046934574842453, -0.12391198426485062, -0.05261947214603424, -0.013533726334571838, -0.0095065888017416, -0.059689003974199295, 0.04733904078602791, -0.07348719984292984, -0.02155650593340397, 0.2081073373556137, -0.019115887582302094, 0.013293743133544922, -0.03639650344848633, 0.13230757415294647, -0.019188348203897476, -0.04368949681520462, -0.011124640703201294, -0.035872381180524826, 0.06234588474035263, -0.02643890678882599, -0.0351574532687664, -0.04281342774629593, 0.06692204624414444, -0.05524333566427231, -0.0376262366771698, -0.06679381430149078, 0.036493316292762756, 0.06862442940473557, -0.050155092030763626, 0.0006219074130058289, -0.031800776720047, 0.011095947585999966, -0.07634677737951279, 0.05924730747938156, 0.06537698954343796, -0.09699757397174835, -0.051123298704624176, -0.03558209910988808, -0.058641113340854645, -0.03467491269111633, 0.027215128764510155, 0.06249997764825821, -0.02409714087843895, -0.05676410719752312, -0.042433641850948334, -0.005618393421173096, 0.03677134960889816, -0.05706760287284851, 0.04777544364333153, -0.0021664798259735107, -0.006123293656855822, -0.043589647859334946, -0.040813617408275604, -0.04266698658466339, -0.04332384094595909, 0.05200294405221939, -0.05056647211313248, -0.035909462720155716, -0.02631230279803276, 0.03673962503671646, -0.03229212015867233, -0.0525054857134819, 0.02613014169037342, 0.021648390218615532, 0.09810782223939896, -0.02970822900533676, 0.038790494203567505, -0.053523950278759, -0.06698651611804962, 0.0045629143714904785, 0.028667457401752472, -0.02591477334499359, -0.018712516874074936, 0.017354458570480347, -0.033878766000270844, 0.0354665070772171, -0.022177597507834435, 0.05177697539329529, 0.0003769025206565857, 0.030504003167152405, 0.021258607506752014, -0.021702874451875687, -0.04577716439962387, 0.04299534112215042, 0.09209394454956055, -0.07047174870967865, 0.053924884647130966, -0.006285597570240498, 0.021048784255981445, 0.03386426717042923, 0.06664746254682541, 0.021720819175243378, 0.04430931806564331, 0.04554838687181473, -0.02239265851676464, -0.03866652771830559, -0.05105219781398773, -0.027311790734529495, 0.03170405328273773, -0.02677707001566887, 0.04782711714506149, 0.10372090339660645, -0.008374078199267387, -0.006404774263501167, 0.02749878354370594, -0.006870396435260773, 0.014314763247966766, 0.05081440508365631, -0.010218445211648941, -0.00959448516368866, -0.009769474156200886, 0.012598618865013123, 0.04730333760380745, 0.05078481137752533, 0.2546254098415375, 0.05176757276058197, -0.04454236850142479, -0.0341024287045002, -0.030315261334180832, 0.006055384874343872, -0.0560423843562603, -0.010615145787596703, 0.10104561597108841, -0.029010381549596786, 0.008370593190193176, 0.04129331558942795},
    {0.02880765311419964, 0.0026385285891592503, 0.09667140990495682, -0.021930953487753868, -0.03530463948845863, 0.06564147025346756, -0.03373003751039505, -0.08228819817304611, 0.03458774834871292, 0.05507426708936691, -0.0295309629291296, 0.04165130853652954, -0.025758979842066765, -0.010081566870212555, 0.0493013933300972, -0.10172918438911438, -0.04977665841579437, 0.003714882070198655, 0.0625079944729805, 0.2564544975757599, 0.020584380254149437, 0.049569375813007355, -0.042087189853191376, 0.06367172300815582, 0.09560395777225494, 0.04986703395843506, -0.048823777586221695, -0.02306884154677391, 0.06492283195257187, -0.03741368651390076, 0.15010230243206024, 0.0652274414896965, 0.1805524080991745, -0.0638255625963211, 0.020453959703445435, 0.023205071687698364, -0.0068150535225868225, -0.031994227319955826, 0.05680076405405998, -0.06581903249025345, 0.03303716331720352, -0.009565581567585468, -0.024914249777793884, -0.06265337020158768, -0.08649402111768723, -0.003249271772801876, -0.0024984742049127817, 0.255580335855484, 0.20699048042297363, -0.0042504239827394485, -0.07160986959934235, -0.06298094242811203, -0.08629582077264786, 0.03677443414926529, -0.052457861602306366, -0.04296962171792984, 0.01956184022128582, -0.045018743723630905, -0.06406188756227493, 0.022085731849074364, -0.07165071368217468, 0.034577351063489914, 0.0907842218875885, -0.02248011901974678, 0.02931126020848751, -0.07263713330030441, -0.05258499085903168, 0.08335334062576294, 0.027110083028674126, -0.028739314526319504, 0.028027236461639404, 0.06205407530069351, -0.03805728256702423, -0.019617782905697823, 0.017420291900634766, -0.08349335938692093, -0.06764513999223709, 0.03306674584746361, -0.06844811141490936, 0.09135322272777557, -0.05267610028386116, 0.10381270945072174, 0.17597192525863647, 0.0018993880366906524, 0.049688003957271576, 0.06373562663793564, -0.04097146540880203, -0.06683370471000671, -0.04940620809793472, -0.05643703043460846, 0.016698352992534637, 0.006689108908176422, -0.015283331274986267, 0.007391802966594696, -0.013948549516499043, -0.056480035185813904, -0.0005315616726875305, 0.056398384273052216, -0.008302565664052963, -0.0061838701367378235, 0.055243588984012604, -0.023428291082382202, 0.019298836588859558, -0.02379743382334709, 0.05795641988515854, -0.006413385272026062, 0.1419863998889923, -0.005025721155107021, -0.02585703879594803, 0.010510265827178955, 0.1259123533964157, -0.19946244359016418, 0.0022837985306978226, -0.09594089537858963, 0.2563491463661194, -0.11136554181575775, -0.0559396930038929, 0.026412345468997955, 0.23809580504894257, 0.22480788826942444, 0.03594640642404556, -0.020922359079122543, 0.04201380908489227, 0.044794633984565735, 0.03355401009321213, -0.04854276776313782, 0.09740741550922394, 0.13858939707279205, -0.04099762439727783, 0.12678125500679016, 0.11523132771253586, 0.028696119785308838, -0.030004329979419708, 0.012502506375312805, -0.04837653785943985, 0.029361816123127937, -0.03629114478826523, 0.2541792392730713, 0.03615681082010269, -0.03788016736507416, -0.0710124745965004, 0.02862316370010376, -0.06760501116514206, 0.06626338511705399, -0.005369842052459717, -0.044132836163043976, 0.02158413454890251, 0.05447100102901459, -0.015442240051925182, -0.011746179312467575, -0.04500965029001236, 0.048772212117910385, -0.003280460834503174, 0.030081361532211304, 0.11530552059412003, 0.04556402564048767, 0.0200340673327446, -0.04466311261057854, 0.04036494344472885, -0.032717879861593246, 0.04527200758457184, -0.032028984278440475, 0.20034366846084595, -0.06740142405033112, -0.043483197689056396, -0.01727558672428131, 0.029530055820941925, 0.06978058069944382, -0.042941898107528687, -0.03455152362585068, -0.07105042785406113, 0.006153762340545654, -0.08458808809518814, 0.0672571137547493, -0.03361589461565018, 0.031145930290222168, 0.01860835775732994, 0.029162319377064705, 0.12055153399705887, 0.037221573293209076, -0.020721346139907837, -0.05923403799533844, 0.01328006386756897, 0.055287815630435944, 0.00531592546030879, 0.011398415081202984, 0.06572257727384567, 0.05638568103313446, -0.05081847310066223, 0.26301461458206177, 0.09146778285503387, -0.04710663855075836, -0.06008070707321167, 0.0008284449577331543, -0.007241679821163416, 0.07006053626537323, 0.04693782329559326, -0.06831932812929153, -0.029148641973733902, 0.005755431950092316, -0.08570801466703415},
    {0.0009534063865430653, 0.07155162841081619, -0.00866004265844822, 0.034804604947566986, -0.061621811240911484, -0.008470050990581512, -0.03368845582008362, 0.02690207213163376, 0.021060161292552948, 0.002838350832462311, -0.11185287684202194, 0.10955878347158432, -0.013650362379848957, -0.06035955622792244, -0.04565095901489258, -0.022681333124637604, -0.0631585419178009, -0.02272849716246128, -0.04768426716327667, -0.059580400586128235, -0.11660942435264587, -0.018080957233905792, -0.03572312369942665, -0.08553661406040192, -0.14961883425712585, -0.07000751048326492, 0.005619268398731947, 0.026657583191990852, -0.006260372698307037, 0.018250837922096252, -0.08427061140537262, -0.018285857513546944, -0.12815216183662415, 0.020856894552707672, 0.05815153568983078, -0.07876083254814148, 0.02265840768814087, 0.028492940589785576, -0.021198751404881477, -0.1196485087275505, -0.017045889049768448, -0.07332739233970642, -0.027540262788534164, -0.057434454560279846, -0.07975160330533981, -0.05187653377652168, 0.022346217185258865, -0.18363378942012787, -0.18040983378887177, -0.03415396437048912, 0.18087972700595856, 0.03856692090630531, -0.017991339787840843, 0.05697886273264885, -0.041168853640556335, 0.14457349479198456, 0.1296938955783844, -0.05972762405872345, -0.05755624547600746, 0.12450230866670609, 0.07352179288864136, 0.042206425219774246, -0.07951150089502335, 0.03057778626680374, 0.08516056090593338, -0.015517808496952057, -0.0951727107167244, -0.009532281197607517, 0.07833205163478851, -0.01472213864326477, -0.044616613537073135, 0.06339407712221146, 0.025843799114227295, -0.0021512946113944054, 0.018222801387310028, -0.017586933448910713, 0.04884751886129379, 0.0905691608786583, -0.050851743668317795, 0.08227979391813278, 0.02089875563979149, -0.0789320319890976, -0.07171069830656052, 0.006980590987950563, 0.12902556359767914, 0.013671495020389557, -0.039318252354860306, -0.056457243859767914, 0.1276933252811432, -0.061278000473976135, 0.028814353048801422, -0.04895135015249252, -0.06014162674546242, -0.03184633329510689, 0.025882087647914886, -0.02349376119673252, 0.004300951957702637, 0.05621371418237686, -0.03653985634446144, 0.0513339638710022, -0.021787066012620926, -0.017395347356796265, 0.04354223608970642, -0.05389678478240967, -0.010531656444072723, 0.05687045305967331, -0.13435401022434235, 0.10593264549970627, 0.05282828211784363, -0.004288606345653534, 0.036363545805215836, -0.04513293132185936, -0.06898148357868195, 0.0035653000231832266, -0.01665676385164261, -0.047142140567302704, 0.028895333409309387, -0.0008893683552742004, -0.09143192321062088, -0.1365913599729538, 0.06565790623426437, 0.0548471137881279, -0.020360980182886124, -0.03078595921397209, 0.039429426193237305, 0.09005753695964813, -0.06744055449962616, -0.06733330339193344, 0.005560725927352905, -0.1395467221736908, 0.10355377942323685, -0.009957603178918362, -0.04683846980333328, 0.05001608282327652, -0.04743886739015579, 0.18559876084327698, 0.05998934060335159, 0.0274395439773798, 0.01949172653257847, 0.0028897770680487156, 0.020442336797714233, -0.04548082500696182, -0.04293866455554962, 0.04033111035823822, -0.005396023392677307, 0.029489845037460327, -0.0688292607665062, -0.09016939997673035, -0.09424963593482971, 0.03359576314687729, -0.0027167145162820816, -0.04705959931015968, 0.03792594373226166, -0.019643057137727737, 0.035240765661001205, -0.039602406322956085, -0.004136383533477783, 0.0010016411542892456, -0.02355266734957695, 0.010936284437775612, 0.00971519947052002, 0.030800141394138336, -0.10186537355184555, 0.029765799641609192, -0.03611302003264427, 0.032208725810050964, 0.013534590601921082, -0.032272689044475555, 0.029389910399913788, -0.04904969036579132, -0.044880956411361694, 0.04036349803209305, -0.05752681940793991, 0.043251536786556244, -0.06826397776603699, 0.016600050032138824, 0.003285907907411456, -0.06880378723144531, -0.08098670095205307, 0.07872078567743301, -0.001648828387260437, 0.040486663579940796, 0.004015475511550903, 0.053371235728263855, -0.03735056519508362, -0.0023247748613357544, -0.00256531685590744, -0.02253110520541668, 0.01261691004037857, -0.16705939173698425, -0.03979833051562309, 0.05985160917043686, 0.057769618928432465, -0.05490889400243759, -0.03871425241231918, -0.23010213673114777, -0.16938111186027527, -0.11331123858690262, -0.0625620111823082, -0.023271188139915466, -0.04047699645161629},
    {0.0548429936170578, -0.012179624289274216, 0.11807585507631302, 0.0516512431204319, 0.05232066661119461, -0.01743444800376892, -0.21942001581192017, -0.04211778938770294, -0.02590767666697502, -0.051090724766254425, 0.06770613044500351, 0.06776419281959534, 0.12518815696239471, 0.06355800479650497, 0.030536025762557983, 0.0635824203491211, -0.059655994176864624, 0.03830665722489357, 0.053504280745983124, -0.03086959943175316, 0.15690754354000092, 0.03710191696882248, 0.06051509827375412, 0.11162508279085159, 0.08121879398822784, 0.03644237667322159, 0.010678505524992943, 0.009808851405978203, -0.06810355931520462, -0.03586747124791145, 0.146650493144989, 0.08013011515140533, 0.2123926281929016, -0.0589413046836853, 0.0022925734519958496, -0.27940529584884644, 0.046004749834537506, -0.006959461607038975, 0.1336526870727539, 0.1031062975525856, 0.040256887674331665, -0.269996702671051, 0.06500057131052017, -0.2533849775791168, -0.010012071579694748, -0.23274385929107666, 0.07643655687570572, 0.2147449404001236, 0.1268044114112854, 0.13176999986171722, -0.03153973072767258, -0.05225730314850807, -0.1075441986322403, -0.03403701260685921, -0.040654100477695465, -0.1351298689842224, -0.024999096989631653, 0.05081599950790405, -0.04205331951379776, 0.012614493258297443, 0.0005468947347253561, 0.09226347506046295, 0.15122951567173004, -0.0187075175344944, -0.027833927422761917, -0.20367595553398132, -0.061233606189489365, 0.09111161530017853, 0.04243909567594528, -0.0016053691506385803, 0.046777114272117615, -0.06779919564723969, -0.03848206624388695, 0.02251790650188923, -0.06566043198108673, -0.21487578749656677, 0.07366811484098434, -0.2941844165325165, -0.06261849403381348, 0.07731011509895325, 0.013868629932403564, 0.10141714662313461, 0.20822979509830475, 0.07317734509706497, -0.06091069430112839, 0.013931013643741608, -0.03679177165031433, 0.03806256502866745, 0.00169985624961555, 0.04299461096525192, 0.02625502645969391, -8.93622636795044e-05, -0.017920374870300293, -0.051168203353881836, 0.11252669990062714, -0.010497760027647018, -0.015750743448734283, -0.011560995131731033, -0.014466896653175354, 0.03340556472539902, 0.014001883566379547, 0.06995757669210434, 0.014905087649822235, -0.0486302450299263, 0.0026622191071510315, -0.03992592543363571, 0.07426588237285614, 0.007387707009911537, 0.04563022404909134, 0.06587062031030655, -0.10243883728981018, 0.21070118248462677, -0.1681755781173706, -0.25868210196495056, -0.1654307097196579, 0.10577540099620819, 0.017467908561229706, -0.006838612258434296, -0.058738794177770615, 0.10917937010526657, 0.001324482262134552, -0.006173372268676758, 0.02303018420934677, 0.02714061178267002, -0.04896623268723488, -0.04236984997987747, 0.0020164349116384983, 0.07438667118549347, -0.029371868818998337, 0.15077422559261322, 0.1575935333967209, -0.06147304177284241, -0.0245453342795372, -0.02099345251917839, 0.017787344753742218, 0.0001920098438858986, -0.048959411680698395, -0.18298281729221344, 0.050803977996110916, 0.03410625830292702, 0.07602480798959732, 0.01109246164560318, 0.03982734680175781, 0.02375505119562149, 0.008787013590335846, -0.030665654689073563, 0.08107148855924606, 0.02515305019915104, 0.1227695569396019, -0.03824359551072121, 0.03154231980443001, 0.07492543011903763, -0.017545882612466812, 0.05719376355409622, 0.17217928171157837, -0.05337661877274513, -0.0018788352608680725, 0.05692119151353836, -0.019004717469215393, 0.0032054984476417303, 0.05946027487516403, -0.05624481290578842, -0.22380377352237701, 0.028034448623657227, -0.00983402505517006, 0.0315067321062088, 0.02090664952993393, -0.031033851206302643, 0.005620963871479034, 0.06896103173494339, 0.11595398187637329, 0.05624764412641525, -0.27229949831962585, -0.05819433182477951, 0.052731484174728394, -0.05411494895815849, -0.11007694900035858, 0.060418300330638885, 0.04865462705492973, 0.04610011726617813, 0.0294359028339386, 0.007998906075954437, 0.037732116878032684, -0.005021974444389343, 0.012581496499478817, -0.06284071505069733, 0.0609922930598259, 0.05782487988471985, 0.033907949924468994, -0.02057456225156784, 0.11337918788194656, 0.06179613620042801, -0.039464499801397324, 0.06516840308904648, -0.17245326936244965, 0.14947742223739624, 0.25423333048820496, 0.1989297717809677, -0.006858736276626587, 0.05709102004766464, 0.02858208678662777},
    {0.10187721997499466, 0.10679709911346436, 0.07779542356729507, 0.10987993329763412, 0.04902774468064308, 0.060815341770648956, 0.051803283393383026, -0.012523447163403034, -0.05876779928803444, -0.030125141143798828, 0.06239549070596695, 0.09109899401664734, 0.05446929484605789, -0.05055921524763107, 0.045620545744895935, -0.12764093279838562, 0.015508487820625305, 0.0056838830932974815, 0.04836887866258621, 0.007320700213313103, -0.11452794075012207, -0.05149969458580017, -0.031059488654136658, 0.04680481553077698, 0.04023037105798721, 0.02941213548183441, 0.018829191103577614, -0.02138551138341427, -0.04817919433116913, 0.06947333365678787, 0.12950876355171204, 0.16037888824939728, 0.16891993582248688, -0.06873784959316254, -0.04971269518136978, 0.03552510589361191, -0.0027185603976249695, 0.05994495749473572, 0.03768930956721306, 0.08482270687818527, 0.044493407011032104, 0.07760123908519745, 0.06889531761407852, 0.003979205619543791, 0.08773110061883926, 0.019496669992804527, 0.08092761039733887, 0.27478519082069397, 0.19706735014915466, 0.10118452459573746, 0.003914462402462959, -0.08800282329320908, -0.005122535862028599, -0.06810743361711502, -0.05440936237573624, -0.03362246975302696, -0.09951998293399811, 0.06163027137517929, -0.0675196722149849, -0.035024259239435196, -0.03831317275762558, 0.13307078182697296, 0.13583314418792725, -0.03238099068403244, -0.0762777328491211, 0.04824899882078171, 0.11448374390602112, 0.1212719976902008, 0.033286526799201965, -0.004851430654525757, -0.00358755886554718, 0.05069331079721451, 0.00917050987482071, 0.08358578383922577, -0.01801976189017296, 0.014293942600488663, -0.03830260410904884, -0.0670599713921547, -0.020666148513555527, 0.10371667891740799, -0.011296302080154419, 0.12003204226493835, 0.20802384614944458, 0.0320797935128212, -0.022923963144421577, -0.015628177672624588, 0.014500632882118225, -0.018559377640485764, 0.014475749805569649, 0.012605160474777222, -0.04947543516755104, 0.02299368381500244, -0.042729251086711884, -0.028094861656427383, -0.0005598717252723873, 0.0668671652674675, 0.023946896195411682, 0.0419827401638031, -0.049979545176029205, -0.005782678723335266, 0.04485819488763809, -0.014284979552030563, -0.07003097236156464, 0.05681268125772476, 0.007861383259296417, -0.04259345680475235, 0.10581550747156143, -0.014726064167916775, -0.0021070092916488647, 0.02009013295173645, -0.10370908677577972, -0.2313585877418518, 0.07351572066545486, 0.04489818960428238, -0.04999002814292908, 0.11536549776792526, -0.04069630801677704, 0.050764575600624084, -0.05895888805389404, 0.20790351927280426, -0.004822105169296265, -0.0448148176074028, -0.06350630521774292, -0.062452834099531174, -0.023407604545354843, -0.11516585201025009, 0.07727953791618347, 0.09149199724197388, 0.051648981869220734, 0.1822773665189743, 0.13916988670825958, 0.06006414443254471, 0.009262152016162872, 0.04752498120069504, -0.008577357977628708, -0.0655732974410057, -0.023200180381536484, -0.09473688900470734, 0.024432998150587082, -0.03269996494054794, -0.023063629865646362, 0.004999443888664246, -0.024887017905712128, 0.050237901508808136, -0.009164582937955856, 0.044444285333156586, 0.029168833047151566, 0.05191423371434212, -0.019543996080756187, -0.0004853159189224243, -0.06343325972557068, 0.1493258774280548, 0.02570444345474243, 0.00010295957326889038, 0.1799139827489853, -0.023101482540369034, -0.053709521889686584, -0.013492077589035034, -0.019566785544157028, -0.018069537356495857, -0.06705164909362793, -0.0706295296549797, -0.0872344896197319, 0.017175108194351196, 0.025497697293758392, -0.044310614466667175, -0.05530102550983429, 0.049002692103385925, -0.03146081790328026, 0.06701444089412689, 0.14076867699623108, -0.058249566704034805, 0.041125863790512085, -0.022419653832912445, -0.056547753512859344, -0.055965960025787354, 0.062096163630485535, 0.12657199800014496, 0.03752068057656288, 0.005791414994746447, 0.0054105594754219055, 0.033420413732528687, -0.004448562860488892, 0.05901525169610977, 0.02714255452156067, -0.07230691611766815, 0.006952598690986633, 0.024157574400305748, -0.05546538531780243, 0.01688898727297783, 0.13777418434619904, 0.014314234256744385, 0.013183735311031342, 0.05755230039358139, 0.117184117436409, 0.10464054346084595, 0.16924642026424408, 0.13084831833839417, -0.027447368949651718, -0.04021014645695686, 0.016500137746334076},
    {0.0981636717915535, 0.027409926056861877, -0.057150330394506454, -0.034230370074510574, 0.07465914636850357, -0.060828156769275665, -0.007194144651293755, 0.12545433640480042, -0.02251475304365158, -0.06191973015666008, -0.005322434473782778, -0.11850959807634354, -0.007951970212161541, -0.00022927671670913696, -0.034230057150125504, 0.06847693026065826, -0.030463282018899918, 0.08505657315254211, -0.0326414480805397, -0.2643671929836273, -0.10192989557981491, 0.0692831352353096, 0.06606980413198471, -0.07845455408096313, -0.021617703139781952, -0.029130663722753525, -0.053279098123311996, 0.015942735597491264, -0.029816266149282455, -0.02888435125350952, 0.007596107665449381, -0.004881868604570627, -0.14063988626003265, -0.05472593754529953, -0.05549616739153862, -0.0610671229660511, -0.020321261137723923, 0.012250557541847229, -0.10004978626966476, -0.01482156477868557, -0.005636125802993774, 0.041971202939748764, -0.0667681023478508, -0.07267098873853683, -0.0038665183819830418, -0.0063192760571837425, -0.059467069804668427, -0.20485062897205353, -0.10701383650302887, -0.06009230762720108, 0.09147671610116959, 0.08016133308410645, 0.0980391725897789, 0.004404108040034771, -0.007706873118877411, 0.1795470416545868, -0.00043216970516368747, -0.029917798936367035, 0.038136258721351624, 0.03986343368887901, 0.1337844580411911, 0.13703733682632446, -0.10945184528827667, 0.06357773393392563, -0.038910042494535446, 0.0020510642789304256, -0.0012504203477874398, 0.03159637004137039, -0.1630602926015854, -0.011239342391490936, 0.06448670476675034, -0.03542167693376541, 0.06511271744966507, -0.10217011719942093, -0.03230128809809685, 0.005225377157330513, -0.1966073364019394, 0.015637928619980812, -0.028759662061929703, 0.08491963893175125, 0.002457939786836505, -0.029141051694750786, -0.013329855166375637, -0.038487404584884644, 0.10368361324071884, 0.01750999689102173, -0.042729176580905914, -0.015443209558725357, 0.16656078398227692, 0.0238196924328804, -0.029594656080007553, -0.03697468712925911, -0.04781545326113701, 0.040022991597652435, -0.1386144608259201, -0.024722222238779068, 0.061707355082035065, 0.02809813618659973, -0.025986723601818085, 0.05036941170692444, 0.04312650114297867, 0.06678678840398788, -0.016946103423833847, 0.0441989004611969, -0.0035982131958007812, -0.04600617289543152, -0.13428381085395813, -0.01875239610671997, 0.024457193911075592, -0.05662938952445984, 0.0675722062587738, 0.010311946272850037, -0.04040471464395523, -0.008593977428972721, -0.037140436470508575, 0.024532364681363106, -0.01479688286781311, -0.06979349255561829, -0.09701955318450928, -0.11134505271911621, 0.06119178980588913, -0.029972746968269348, 0.034168630838394165, 0.0806785449385643, -0.00262480229139328, 0.12892800569534302, -0.09767766296863556, -0.034882042557001114, 0.023366175591945648, -0.061981480568647385, 0.07516244798898697, 0.051291123032569885, 0.014706127345561981, 0.030187465250492096, 0.03437276929616928, 0.09905552864074707, -0.0501079298555851, -0.0888601541519165, 0.10986284166574478, -0.025926295667886734, 0.01908821612596512, 0.05199876427650452, -0.025990717113018036, -0.010793343186378479, 0.027482859790325165, 0.03702796995639801, -0.052969470620155334, -0.035380393266677856, -0.09550915658473969, 0.028113946318626404, -0.035809051245450974, -0.006392850074917078, -0.06353817880153656, -0.06495048105716705, -0.03616415709257126, -0.043436791747808456, 0.05357123911380768, -0.06081244722008705, -0.06797301024198532, 0.10535886883735657, -0.006642624735832214, 0.06019869074225426, -0.10775507986545563, -0.03614135831594467, -0.03890525922179222, 0.06038907915353775, -0.01044628769159317, 0.01004934310913086, 0.033665262162685394, -0.038301389664411545, -0.06269661337137222, 0.0601196363568306, -0.053068291395902634, 0.06435278803110123, 0.02275155484676361, -0.0566316694021225, 0.05740082263946533, -0.04278618097305298, -0.08341663330793381, 0.033216360956430435, 0.025706037878990173, -0.009828455746173859, -0.06293018907308578, 0.04948463290929794, -0.07845005393028259, 0.030314438045024872, 0.028086721897125244, -0.023896638303995132, 0.02436619997024536, -0.14847300946712494, -0.04325712472200394, 0.013606734573841095, 0.033121638000011444, 0.0442650243639946, -0.005590764805674553, -0.20975473523139954, -0.277616024017334, -0.2621278762817383, 0.006901592016220093, 0.04270514100790024, -0.020037725567817688},
    {0.019728846848011017, 0.0622885599732399, 0.016177691519260406, 0.04575129970908165, 0.024111658334732056, 0.04300716519355774, -0.021086376160383224, 0.0704055055975914, 0.0052590444684028625, -0.046977121382951736, -0.12919862568378448, 0.10338889807462692, -0.08975419402122498, 0.03446594625711441, 0.012094676494598389, -0.03066018782556057, 0.0015138834714889526, 0.09507496654987335, 0.07016385346651077, -0.15116101503372192, -0.11628177016973495, 0.0069985464215278625, -0.028115589171648026, 0.014726915396749973, 0.004987455904483795, -0.06897132098674774, -0.06181070953607559, -0.02884514443576336, 0.013456672430038452, -0.05088496580719948, 0.02333959937095642, 0.026972999796271324, 0.03352118283510208, 0.03280522674322128, 0.02265152335166931, 0.017603373154997826, 0.012227289378643036, 0.02271309122443199, 0.029824094846844673, -0.035263799130916595, 0.04746990650892258, 0.024579452350735664, 0.011906266212463379, 0.014403107576072216, -0.141634002327919, 0.018433354794979095, -0.009592938236892223, -0.09816810488700867, -0.17493869364261627, -0.007835131138563156, 0.15786735713481903, 0.01912231184542179, 0.07009027153253555, -0.07238016277551651, 0.042659953236579895, 0.11988861113786697, -0.057490963488817215, 0.03149423748254776, -0.01591389998793602, 0.04002964496612549, 0.1043890118598938, 0.03001510724425316, -0.015139640308916569, 0.0463692769408226, -0.027703914791345596, 0.0011995354434475303, -0.06110793352127075, 0.0193425714969635, -0.09153857082128525, 0.022743165493011475, -0.04764239490032196, 0.06359075754880905, -0.04587358236312866, -0.015822982415556908, 0.02460053563117981, 0.016943519935011864, -0.23595303297042847, -0.10744929313659668, 0.016994789242744446, 0.1377187967300415, 0.06918755918741226, -0.012954462319612503, 0.07593310624361038, -0.02857474610209465, 0.047086670994758606, 0.00966518372297287, -0.01779404655098915, 0.016178712248802185, 0.15323971211910248, 0.0687856450676918, -0.013889692723751068, 0.03854534775018692, 0.02708963304758072, -0.018526755273342133, -0.05129975825548172, -0.033057499676942825, -0.015316352248191833, 0.03128331899642944, 0.05022341012954712, -0.036780133843421936, 0.04144493490457535, -0.009913787245750427, 0.037711285054683685, 0.004088364541530609, 0.052822887897491455, -0.06040923297405243, -0.04667174443602562, 0.03168147802352905, 0.019612856209278107, 0.04328261315822601, 0.10219413787126541, -0.0941736176609993, -0.07244421541690826, -0.09343208372592926, -0.11558552831411362, -0.07477524876594543, 0.011264525353908539, 0.007954709231853485, 0.016618670895695686, -0.09435870498418808, 0.05921303480863571, -0.028429996222257614, -0.0005590617656707764, -0.017732901498675346, 0.05946359783411026, 0.10083343088626862, -0.035749129951000214, -0.05276000127196312, 0.03733762353658676, 0.05609618499875069, 0.09270811825990677, -0.007143501657992601, -0.015226256102323532, -0.04619402438402176, 0.014450669288635254, 0.08828407526016235, -0.060612522065639496, -0.08124658465385437, 0.04920966178178787, 0.0259685255587101, -0.047947634011507034, 0.009593158960342407, 0.03243258595466614, 0.06459497660398483, 0.01975756138563156, 0.025691300630569458, 0.07198116928339005, 0.09277037531137466, 0.0004290797805879265, 0.0024540573358535767, 0.0742524117231369, 0.04049523174762726, 0.05787280946969986, -0.005879983305931091, 0.0408414863049984, 0.02776658535003662, -0.050103943794965744, -0.03727854788303375, -0.016406521201133728, 0.003829286666586995, 0.0034722015261650085, -0.04231824725866318, -0.12605781853199005, -0.023855149745941162, -0.0346025675535202, -0.04714563488960266, -0.003586873412132263, 0.02009749412536621, 0.00913771241903305, -0.03191490098834038, -0.057276830077171326, 0.03461063653230667, 0.005422396585345268, 0.043112993240356445, -0.04944135621190071, 0.00023201853036880493, -0.018935371190309525, 0.03348807245492935, -0.034954942762851715, -0.02413097396492958, -0.02216796576976776, 0.047980569303035736, -0.062140870839357376, 0.02902115136384964, -0.06820575147867203, -0.0023241150192916393, 0.027042001485824585, 0.007372335065156221, -0.05658247321844101, -0.14708352088928223, -0.08578088879585266, -0.028642818331718445, 0.0361957848072052, -0.05000341683626175, -0.06528294086456299, -0.17003709077835083, -0.251958966255188, -0.16242553293704987, 0.03481677174568176, -0.018563933670520782, -0.03098451718688011},
    {0.14292821288108826, 0.009719215333461761, -0.009122435003519058, 0.0012494083493947983, 0.04047005623579025, -0.002452835440635681, -0.011539016850292683, -0.004891344346106052, 0.03794635087251663, 0.00938388705253601, -0.15160679817199707, -0.09531358629465103, -0.03551551327109337, 0.0660175159573555, -0.04888535290956497, -0.005208651535212994, 0.053485214710235596, -0.018681354820728302, 0.011804580688476562, -0.14849917590618134, -0.10396501421928406, 0.05188881605863571, -0.03428637981414795, -0.119648277759552, -0.11596855521202087, -0.017228424549102783, -0.08477632701396942, 0.042372316122055054, 0.009147584438323975, -0.028074640780687332, 0.0002398428478045389, 0.07690762728452682, -0.1124572679400444, -0.06872998178005219, -0.02225969359278679, -0.11870042234659195, 0.02532459795475006, 0.028647975996136665, -0.06422553956508636, -0.05884179100394249, -0.008534014225006104, -0.019945457577705383, -0.055140815675258636, -0.0777093917131424, -0.045005228370428085, -0.10389994084835052, -0.11353562772274017, -0.13361290097236633, -0.11435092985630035, -0.10780774801969528, 0.16828231513500214, 0.10673423856496811, -0.01700541190803051, 0.04977245628833771, 0.011293262243270874, 0.12043160945177078, 0.1676645427942276, -0.019052773714065552, -0.02161383628845215, 0.07251018285751343, 0.10530060529708862, 0.06040702387690544, -0.06524890661239624, -0.0625365674495697, 0.06157108396291733, -0.012864570133388042, -0.07588164508342743, 0.016173439100384712, 0.0049600135535001755, 0.010281085968017578, -0.0532500222325325, -0.056929510086774826, -0.05120362341403961, 0.08971361070871353, 0.06089181452989578, -0.09414952993392944, 0.08086840808391571, 0.004527012351900339, 0.03773399442434311, 0.10167637467384338, 0.09786094725131989, 0.0030260435305535793, -0.03043549880385399, -0.026583053171634674, 0.0773046687245369, 0.05772993713617325, -0.013499569147825241, -0.042047105729579926, 0.061312612146139145, -0.032741978764534, -0.05592694506049156, -0.02587389200925827, -0.01583736017346382, 0.032006099820137024, 0.05292351543903351, 0.03867253661155701, -0.03736968711018562, 0.03653843700885773, 0.03232821822166443, 0.04513545334339142, -0.06703007966279984, -0.0015171989798545837, 0.057675085961818695, -0.055449359118938446, -0.05895870178937912, 0.0460040345788002, -0.16465237736701965, 0.07639522105455399, 0.06332559138536453, 0.056871794164180756, 0.13808579742908478, -0.054339561611413956, -0.11344359070062637, -0.014132061041891575, -0.06856150180101395, 0.004038411658257246, 0.06619412451982498, 0.0060656070709228516, -0.06053995341062546, -0.1381419599056244, 0.06582451611757278, 0.03494448959827423, 0.042262643575668335, -0.025626160204410553, 0.01960974931716919, 0.06221509724855423, -0.04333531856536865, 0.04510193318128586, 0.050483256578445435, -0.06369192153215408, 0.12570689618587494, -0.03717026114463806, 0.039075419306755066, 0.04312090575695038, -0.03493171185255051, 0.04994932934641838, -0.05813813954591751, -0.09024058282375336, 0.14259971678256989, 0.019622789695858955, 0.02217230387032032, 0.0463201105594635, -0.024316400289535522, 0.043677449226379395, -0.005921646952629089, 0.03150466829538345, -0.06225151941180229, -0.0532112792134285, -0.09676408767700195, 0.011819243431091309, 0.032810524106025696, 0.007262954954057932, -0.02929060161113739, -0.06311509013175964, 0.07764451205730438, 0.060527317225933075, 0.02808259427547455, 0.045632824301719666, -0.06997546553611755, 0.07418587803840637, 0.014002591371536255, 0.03572850674390793, -0.08483432978391647, 0.036859579384326935, -0.05587512627243996, 0.029974646866321564, -0.027433637529611588, -0.04437275975942612, 0.04915724694728851, -0.04073331505060196, -0.05669661611318588, 0.04255865514278412, -0.07157839834690094, 0.023773401975631714, 0.04436179995536804, -0.028659693896770477, 0.004994342569261789, -0.08096982538700104, -0.008776525035500526, -0.026816587895154953, -0.027634739875793457, 0.041572608053684235, -0.06274350732564926, 0.06981451064348221, -0.04746777564287186, -0.0103304423391819, -0.054113276302814484, -0.02692389488220215, 0.055473946034908295, -0.15147514641284943, 0.10239754617214203, -0.020044010132551193, 0.0045078471302986145, -0.05271654576063156, -0.031991563737392426, -0.04766364395618439, -0.17606419324874878, -0.15206123888492584, 0.045035138726234436, -0.06272253394126892, -0.09496216475963593},
    {0.07494640350341797, 0.025707518681883812, -0.004379732068628073, -0.012902927584946156, 0.015581815503537655, 0.026272259652614594, 0.008816828951239586, 0.07941020280122757, 0.0046053603291511536, 0.0240088552236557, -0.05687526613473892, 0.04328148439526558, -0.09372356534004211, -0.02613094449043274, 0.03719937056303024, -0.02719605155289173, -0.04464505985379219, 0.029622487723827362, -0.024961523711681366, -0.19121576845645905, -0.11744455248117447, -0.013608794659376144, 0.010033018887043, -0.06889940053224564, 0.005517610348761082, 0.011213384568691254, -0.08087032288312912, 0.10267454385757446, -0.0035907477140426636, 0.013466976583003998, -0.04602763429284096, 0.11414637416601181, 0.14865049719810486, -0.007564470171928406, -0.029223281890153885, -0.03066420368850231, -0.059599556028842926, -0.017058303579688072, 0.03273447975516319, -0.04502347111701965, 0.038940660655498505, 0.023976175114512444, -0.02403421327471733, -0.09453318268060684, -0.04037271440029144, 0.01663469709455967, 0.07483499497175217, -0.14604821801185608, -0.10888374596834183, -0.07805084437131882, 0.18759723007678986, -0.02656170353293419, 0.060213372111320496, -0.13737685978412628, -0.03788064792752266, 0.11724641919136047, 0.05903039127588272, 0.038541823625564575, 0.06647229939699173, 0.07488667219877243, 0.08208179473876953, 0.050150010734796524, 0.08213121443986893, 0.025315888226032257, 0.009031252935528755, -0.021348653361201286, 0.009896980598568916, 0.07082953304052353, -0.17811071872711182, -0.004040069878101349, 0.04154156148433685, 0.06291290372610092, 0.0461755096912384, -0.006126302760094404, -0.012527421116828918, -0.10395162552595139, -0.20347794890403748, -0.040283530950546265, 0.055965207517147064, 0.023998139426112175, 0.09616836905479431, -0.02820206992328167, 0.08686940371990204, -0.02149154432117939, 0.030439913272857666, 0.04166062921285629, -0.053352274000644684, 0.057102419435977936, 0.10458628833293915, 0.04431424289941788, -0.03683536872267723, 0.06449732929468155, 0.05439681559801102, -0.023428987711668015, -0.08258230239152908, -0.004001688212156296, -0.04543757438659668, 0.06580141931772232, 0.04673369973897934, 0.057625286281108856, -0.01822178065776825, -0.058697327971458435, -0.015376243740320206, 0.054634131491184235, 0.04609675705432892, -0.060650333762168884, 0.028114186599850655, 0.023037953302264214, -0.0224800705909729, 0.013540416955947876, 0.04674254357814789, -0.06486264616250992, 0.018846867606043816, -0.015650037676095963, -0.02982696332037449, -0.07510758191347122, 0.009994521737098694, 0.03327950835227966, 0.00404811417683959, -0.1832570731639862, -0.007420212030410767, 0.05865221470594406, 0.020484380424022675, 0.04047871753573418, 0.03842417895793915, 0.17610929906368256, 0.0007718689739704132, 0.09160372614860535, -0.056422241032123566, 0.08645479381084442, 0.06612807512283325, 0.05397295579314232, 0.043452098965644836, -0.015922848135232925, 0.005547657608985901, 0.12407074868679047, -0.028187070041894913, -0.053647350519895554, 0.12322651594877243, -0.029517756775021553, 0.003191491821780801, 0.05161481350660324, 0.017556942999362946, 0.025292672216892242, -0.043229736387729645, -0.03283470496535301, -0.039244383573532104, 0.07323712855577469, -0.017669586464762688, -0.04864537715911865, -0.05290725454688072, 0.11239602416753769, -0.04510080814361572, -0.024126797914505005, 0.13435187935829163, 0.03895501047372818, -0.021456431597471237, -0.037961527705192566, -0.042409591376781464, 0.003960458096116781, -0.014872707426548004, -0.013714843429625034, -0.10354309529066086, -0.037910327315330505, -0.024741973727941513, -0.05454044044017792, 0.043481990694999695, -0.03724690154194832, 0.05947499722242355, -0.11259538680315018, -0.08848907053470612, -0.007528550922870636, 0.014116814360022545, -0.03488802909851074, -0.01093476265668869, -0.05448275804519653, -0.04788939282298088, 0.08571764081716537, 0.03354113548994064, 0.007263149134814739, -0.0023240819573402405, -0.05032277852296829, -0.01683904230594635, -0.018874727189540863, -0.05691670626401901, -0.003741602646186948, 0.03857802599668503, 0.00021995682618580759, -0.004669688642024994, -0.23260962963104248, 0.12075136601924896, -0.03370412439107895, 0.010222859680652618, -0.01442992314696312, -0.05259918421506882, -0.06837958842515945, -0.14652107656002045, -0.1044238731265068, -0.002674512565135956, 0.004036374390125275, -0.14172129333019257},
    {0.11897324025630951, -0.0806177407503128, -0.031989216804504395, -0.01432944554835558, 0.03449316695332527, -0.01582425832748413, -0.01150105893611908, 0.008703915402293205, 0.032489269971847534, 0.06803291290998459, -0.041053496301174164, -0.04757033661007881, -0.01931585930287838, -0.05675379931926727, 0.05197475850582123, -0.03337579965591431, 0.037746645510196686, 0.05259959027171135, -0.06320378184318542, -0.02490011602640152, -0.07799465954303741, 0.013720467686653137, 0.05369187891483307, -0.07664274424314499, -0.019642343744635582, 0.02303551882505417, -0.013637395575642586, 0.036559898406267166, 0.0655776783823967, 0.03278546780347824, -0.0620168037712574, -0.00045902052079327404, -0.027976227924227715, -0.02450912818312645, 0.05828673392534256, -0.014266591519117355, 0.05396232008934021, -0.033535223454236984, -0.050098564475774765, -0.0005502436542883515, 0.03180510550737381, 0.06468453258275986, 0.04551561176776886, -0.060891225934028625, -0.035478636622428894, 0.009594738483428955, -0.0535861998796463, -0.01986527442932129, -0.009815951809287071, -0.06297420710325241, 0.1943138986825943, 0.028426673263311386, 0.004868227988481522, -0.10003995150327682, -0.014935191720724106, 0.08667563647031784, 0.03311377018690109, -0.03183536231517792, -0.0582304373383522, 0.11264247447252274, 0.14772777259349823, 0.19939228892326355, -0.09061391651630402, -0.008018866181373596, 0.06120828539133072, 0.012114942073822021, 0.013776459731161594, 0.11289773881435394, -0.1658732146024704, -0.01386260986328125, 0.05175429582595825, -0.030003663152456284, -0.018078215420246124, 0.0032695422414690256, 0.06801522523164749, -0.05854570120573044, -0.10213816165924072, -0.06431195884943008, 0.06339987367391586, 0.10398943722248077, 0.055109355598688126, -0.1870790272951126, -0.0007134347688406706, -0.039068013429641724, -0.010596198961138725, 0.009315438568592072, -0.02754814922809601, -0.0505114421248436, 0.11810087412595749, -0.02547736093401909, 0.029114946722984314, -0.06692659854888916, 0.04814545810222626, -0.0008955821394920349, -0.1556769609451294, 0.045710597187280655, 0.05109437555074692, 0.029051437973976135, -0.06580725312232971, -0.00545230507850647, -0.0022981613874435425, 0.05263761430978775, 0.002617552876472473, 0.024300381541252136, -0.051840752363204956, 0.03196880221366882, -0.0935554951429367, -0.05915335938334465, -0.04187265783548355, -0.03538450226187706, 0.04456290975213051, -0.04366815835237503, 0.04809486120939255, -0.024938415735960007, -0.050399407744407654, -0.0642964169383049, -0.06976770609617233, 0.03157053887844086, 0.10490336269140244, -0.09534742683172226, 0.02575504034757614, -0.03037172555923462, 0.019200295209884644, 0.07542058825492859, 0.021259024739265442, 0.12905065715312958, -0.066996268928051, 0.18687191605567932, 0.05507712811231613, -0.058237474411726, 0.060504648834466934, -0.038190633058547974, -0.0026583820581436157, 0.03135933727025986, 0.018593832850456238, 0.08828835189342499, -0.06497645378112793, -0.11079341173171997, 0.08597788959741592, 0.0488150455057621, -0.05466834083199501, -0.007640965282917023, 0.007994525134563446, -0.005008392035961151, -0.0014621764421463013, -0.0401902012526989, 0.0229500699788332, -0.07912670075893402, -0.06262534856796265, -0.06839926540851593, -0.028293242678046227, -0.029594218358397484, -0.0006410852074623108, -0.014015927910804749, 0.13879460096359253, -0.02056289091706276, 0.04199974238872528, 0.04379281401634216, 0.029105111956596375, 0.08604086935520172, 0.05576329678297043, 0.07224120944738388, -0.1063101589679718, 0.058791570365428925, -0.060122691094875336, -0.031646981835365295, 0.00587848573923111, 0.012805461883544922, 0.007661476731300354, -0.03939206525683403, -0.09320288896560669, 0.024502933025360107, 0.012738019227981567, 0.026024550199508667, 0.056698091328144073, -0.0017448216676712036, 0.0066685909405350685, -0.1002177745103836, 0.08239113539457321, 0.0645555779337883, 0.039039917290210724, -0.06600493937730789, -0.06166060268878937, 0.04392372816801071, -0.0677681639790535, 0.07948248833417892, 0.015741877257823944, -0.07512807846069336, -0.03695313632488251, -0.04120622202754021, 0.15253430604934692, 0.0480421781539917, -0.046979062259197235, -0.02132771909236908, -0.06432806700468063, 0.045836322009563446, -0.2168770134449005, -0.11332499980926514, -0.059211183339357376, -0.05152115225791931, 0.010973365046083927},
    {-0.08345530182123184, 0.03706138953566551, -0.08230914920568466, -0.007803539279848337, 0.02402128465473652, 0.041498780250549316, -0.1038372814655304, 0.011746629141271114, 0.02237677574157715, -0.0542878583073616, -0.06219892576336861, 0.030254928395152092, -0.034168634563684464, -0.010274495929479599, -0.04991454631090164, -0.04604032263159752, 0.024491526186466217, 0.11771441251039505, 0.009672529995441437, -0.17329850792884827, 0.10993652790784836, 0.062541164457798, -0.011546801775693893, -0.06568962335586548, -0.0011343806982040405, 0.017545990645885468, -0.01270413026213646, 0.028599897399544716, -0.01135868951678276, -0.021233484148979187, 0.022536111995577812, 0.18512104451656342, -0.05172561854124069, 0.052497804164886475, -0.04037284851074219, -0.030832862481474876, 0.04314647614955902, 0.13802731037139893, -0.2497420310974121, -0.10864405333995819, 0.018661588430404663, -0.10446162521839142, 0.027265608310699463, -0.10435140877962112, -0.09161464869976044, -0.14005962014198303, 0.032719872891902924, -0.07362575083971024, 0.2346947342157364, -0.13248686492443085, 0.03033928945660591, -0.001693742466159165, 0.03748361021280289, 0.05586479976773262, 0.05768585950136185, 0.036141373217105865, 0.023994678631424904, -0.018204066902399063, -0.05696988105773926, 0.031201884150505066, 0.02399170584976673, -0.03420156240463257, -0.050375912338495255, 0.012088462710380554, -0.07008224725723267, -0.045927755534648895, -0.11828651279211044, 0.12484735995531082, 0.10843044519424438, -0.04642282426357269, -0.004784323275089264, 0.05442792922258377, -0.06341464072465897, 0.03567109256982803, -0.03338183835148811, -0.12472598254680634, 0.09286534786224365, -0.07987096905708313, -0.05531751364469528, 0.08234071731567383, 0.00034369828063063323, -0.18954405188560486, -0.11232505738735199, 0.05444233864545822, -0.0873057171702385, -0.023407217115163803, -0.0619073361158371, -0.005371108651161194, 0.1411026418209076, 0.0026122629642486572, 0.06781496852636337, 0.05748312920331955, 0.03473086655139923, -0.01760261505842209, 0.020935416221618652, -0.048162300139665604, 0.02458920329809189, -0.06147679314017296, 0.03328597545623779, 0.0029774457216262817, -0.05866384506225586, -0.013084601610898972, -0.022023100405931473, 0.023965179920196533, 0.019619077444076538, 0.002007603645324707, -0.02879307046532631, 0.05955091863870621, -0.06624332815408707, -0.0013973861932754517, 0.24615485966205597, -0.21579164266586304, -0.1272103637456894, -0.0810638889670372, 0.1814606487751007, -0.02897040918469429, -0.04651176929473877, 0.06970784813165665, 0.3056245446205139, -0.12564504146575928, 0.016776040196418762, -0.038610950112342834, 0.011414997279644012, -0.028111761435866356, -0.03258899599313736, 0.1070886179804802, -0.09179962426424026, 0.061854127794504166, -0.06986317038536072, -0.015606994740664959, 0.07604696601629257, 0.0206803809851408, 0.05351155996322632, 0.003494665026664734, 0.02253951132297516, 0.22928740084171295, 0.05574209243059158, 0.14273601770401, 0.032576750963926315, -0.05440260097384453, -0.010654703713953495, -0.04619729518890381, -0.05322552099823952, 0.03964725881814957, -0.030140813440084457, 0.02956857532262802, 0.028805412352085114, 0.002905049594119191, 0.0027574822306632996, -0.02523895725607872, 0.05525589734315872, -0.0030905217863619328, 0.0443086177110672, 0.053257234394550323, 0.11532752960920334, -0.04969886317849159, 0.020724117755889893, 0.00036359578371047974, -0.06895636022090912, 0.1545613557100296, -0.018285002559423447, -0.037693772464990616, 0.17860086262226105, -0.0013241693377494812, 0.026942342519760132, -0.03909200802445412, 0.0420861691236496, 0.021008267998695374, -0.04677242785692215, -0.032648827880620956, -0.029605170711874962, 0.06410079449415207, -0.13856437802314758, 0.04132789373397827, -0.05540158972144127, 0.06858976930379868, -0.04757281020283699, -0.001099422574043274, 0.10359605401754379, -0.007717917673289776, -0.02718348801136017, 0.016545146703720093, -0.01838051527738571, 0.06819189339876175, 0.052499935030937195, -0.04359578713774681, -0.058272991329431534, 0.14220139384269714, 0.059857554733753204, -0.1937645524740219, 0.084376759827137, -0.00800234079360962, 0.018650591373443604, -0.05594455450773239, -0.07225362211465836, 0.14247068762779236, 0.008214478380978107, -0.19219271838665009, 0.0649772360920906, 0.005399294197559357, 0.035332150757312775},
    {0.0346536785364151, 0.1089634895324707, -0.042993754148483276, -0.02521495893597603, -0.029767338186502457, -0.051070503890514374, -0.03197069838643074, 0.0795210599899292, 0.017241843044757843, -0.009532827883958817, -0.047948699444532394, -0.12765412032604218, -0.12299707531929016, -0.06858751177787781, 0.01739579439163208, -0.036583106964826584, -0.048980407416820526, 0.06353740394115448, -0.0370941199362278, -0.1752326488494873, 0.0027526472695171833, -0.06311886012554169, -0.06615832448005676, -0.0606745183467865, -0.03517148643732071, -0.057516247034072876, 0.059554118663072586, 0.044803086668252945, 0.008348792791366577, 0.011148922145366669, 0.029980890452861786, 0.07042878866195679, -0.007546368520706892, 0.02723182737827301, 0.06052315980195999, -0.09797333925962448, -0.043539196252822876, 0.04453811049461365, -0.010026955977082253, -0.016794584691524506, 0.03751939535140991, -0.03365686908364296, 0.0695192739367485, 0.02997072972357273, -0.01578783616423607, -0.06182491034269333, -0.05308648943901062, -0.1412815898656845, -0.17516879737377167, -0.06070764735341072, 0.08469239622354507, 0.00773085281252861, 0.09129027277231216, -0.050950344651937485, -0.0029768571257591248, 0.10911412537097931, 0.11778214573860168, 0.06624826043844223, 0.02659982442855835, 0.06814112514257431, 0.10928802937269211, 0.07151170074939728, -0.04319582134485245, -0.02444559335708618, 0.05214835703372955, -0.037302885204553604, 0.060951992869377136, -0.06501933932304382, -0.062266815453767776, -0.007799044251441956, 0.05560360103845596, -0.02288832888007164, 0.061786048114299774, 0.05233212932944298, 0.01943068951368332, -0.09491638094186783, -0.0012266553239896894, -0.007054496090859175, -0.04593587666749954, 0.009194626472890377, 0.06080254167318344, -0.026866091415286064, -0.06072993203997612, -0.0505484938621521, 0.11589774489402771, 0.06972991675138474, 0.038130879402160645, -0.007661730051040649, 0.09335736930370331, 0.001995675265789032, -0.01618387922644615, -0.06629949063062668, -0.018812350928783417, -0.009956557303667068, -0.050096604973077774, -0.07075998187065125, 0.06993743032217026, -0.04629349708557129, -0.019952956587076187, 0.04062924534082413, -0.023022107779979706, -0.0440865233540535, 0.05756395310163498, -0.0633007287979126, -0.042726337909698486, 0.050163909792900085, -0.04331865534186363, 0.104258231818676, 0.017604023218154907, 0.05710316449403763, 0.16103538870811462, -0.11719872802495956, -0.034871574491262436, -0.041506439447402954, 0.02993735671043396, 0.026844153180718422, 0.01547134667634964, -0.04536379128694534, -0.010211804881691933, -0.19343023002147675, 0.03329238295555115, 0.06306291371583939, 0.06499407440423965, 0.007739614695310593, -0.03666779026389122, 0.07752476632595062, -0.02202414721250534, -0.03454045578837395, -0.06675051152706146, -0.09444468468427658, -0.0015048678033053875, -0.040575120598077774, -0.041179314255714417, -0.019933156669139862, -0.05023304745554924, 0.17076481878757477, 0.036413997411727905, 0.13400177657604218, 0.07263130694627762, -0.04220312833786011, 0.05027245357632637, -0.040566056966781616, -0.02991986647248268, 0.006513319909572601, -0.003090403974056244, 0.05146408826112747, -0.06298236548900604, 0.048429615795612335, -0.052941981703042984, 0.01903267204761505, 0.05550742149353027, 0.07254867255687714, -0.024939551949501038, 0.055655546486377716, -0.06273219734430313, 0.06651004403829575, -0.0446673259139061, -0.06368431448936462, 0.016124345362186432, 0.01729336567223072, 0.04157248139381409, -0.029076287522912025, 0.009480415843427181, 0.021015457808971405, -0.03848813474178314, 0.02359456568956375, 0.018240347504615784, 0.005594536662101746, -0.06142624467611313, -0.026697775349020958, -0.09241073578596115, -0.02380179986357689, -0.04765108972787857, 0.04248166084289551, 0.06868984550237656, 0.05113765597343445, -0.002622455358505249, -0.04433324560523033, 0.040605515241622925, 0.07160798460245132, 0.013048559427261353, -0.06674332916736603, -0.027821701020002365, 0.05055924504995346, 0.0029122931882739067, -0.004576078150421381, -0.062368012964725494, -0.028565064072608948, 0.056732453405857086, -0.2563851475715637, -0.10418795794248581, 0.027640238404273987, 0.017053335905075073, -0.05062584578990936, -0.01254611648619175, -0.1793714314699173, -0.18405838310718536, -0.1144249439239502, -0.06857580691576004, -0.03634193167090416, 0.03431876003742218},
    {0.17900735139846802, 0.05753399804234505, 0.05919692665338516, 0.004955091513693333, 0.05134713277220726, 0.004359066486358643, 0.015197604894638062, 0.10010876506567001, -0.01604277640581131, 0.06947136670351028, -0.06501802802085876, 0.14750483632087708, 0.016733253374695778, -0.015951603651046753, -0.06702599674463272, 0.08580134809017181, -0.019551195204257965, 0.06573373079299927, -0.041699495166540146, -0.1878315806388855, -0.11960361897945404, 0.0032257959246635437, -0.05464118719100952, -0.060488566756248474, -0.0018019723938778043, -0.00483056902885437, -0.1339922994375229, 0.11561741679906845, 0.013539500534534454, -0.057505231350660324, 0.024668730795383453, -0.018851783126592636, 0.07215259224176407, -0.0020320042967796326, 0.030984394252300262, 0.11656837165355682, -0.013534601777791977, 0.13396425545215607, -0.0491529181599617, -0.005314481910318136, -0.06969500333070755, 0.09844251722097397, 0.03786951303482056, 0.02481994964182377, -0.0003241394879296422, 0.11372046172618866, -0.007855283096432686, -0.041743163019418716, -0.10336513072252274, -0.07678990066051483, 0.17136642336845398, 0.06615108251571655, -0.016569169238209724, -0.06886566430330276, -0.04762868583202362, 0.058534134179353714, -0.03783448413014412, -0.007394947111606598, -0.04639250412583351, 0.12090767174959183, 0.12147144973278046, 0.17444920539855957, 0.027251383289694786, -0.03515340015292168, 0.004821479320526123, 0.07073558121919632, 0.05276195704936981, 0.03646073490381241, -0.13181692361831665, 0.0640806183218956, -0.055619485676288605, 0.06330827623605728, 0.029377736151218414, 0.029221318662166595, -0.04328414797782898, -0.010409621521830559, -0.21011744439601898, 0.014636312611401081, -0.05036575347185135, 0.1118488758802414, 0.07205989211797714, -0.0803530216217041, 0.01869160309433937, -0.08918818831443787, 0.07383178919553757, 0.035814858973026276, -0.03197031468153, -0.0080186128616333, 0.1675909161567688, 0.06618446856737137, -0.023918095976114273, 0.022960714995861053, 0.04223385453224182, -0.042536161839962006, -0.10194124281406403, -0.04649272561073303, 0.039231158792972565, 0.03194736689329147, -0.033186402171850204, -0.06838898360729218, 0.018217988312244415, 0.026300542056560516, 0.01574869453907013, 0.05197076499462128, 0.0675385370850563, 0.05327046662569046, 0.060651104897260666, 0.04518086090683937, -0.04478086531162262, -0.03322313725948334, -0.018808959051966667, -0.13217952847480774, -0.009777362458407879, 0.0749015361070633, -0.09664225578308105, -0.1144646555185318, 0.03598817437887192, -0.005463294684886932, -0.14564768970012665, -0.14951126277446747, -0.011465676128864288, 0.008460067212581635, -0.011897850781679153, -0.023293372243642807, -0.012980815023183823, 0.05042123794555664, 0.06207304075360298, 0.051106326282024384, -0.005458541214466095, 0.0887128934264183, 0.10881298035383224, 0.07014200836420059, 0.049909621477127075, 0.003848746418952942, 0.023248597979545593, 0.09048852324485779, -0.06839918345212936, -0.08920823782682419, 0.11401782929897308, 0.013724272139370441, 0.04425625130534172, -0.0024784356355667114, 0.05902054160833359, -0.009103883057832718, -0.05244265869259834, -0.04685983434319496, -0.030316069722175598, -0.04889892041683197, 0.061888162046670914, -0.023358922451734543, 0.03275798261165619, 0.044562213122844696, -0.07036608457565308, 0.015178501605987549, 0.007904760539531708, -0.062148019671440125, -0.0559372715651989, 0.06105969101190567, 0.04550734907388687, 0.010152113623917103, -0.0656011626124382, -0.02432636171579361, -0.12285282462835312, 0.04834699630737305, 0.06586488336324692, -0.017780762165784836, -0.05095034837722778, -0.016119487583637238, 0.055050887167453766, -0.06850665807723999, 0.05236981436610222, 0.043195098638534546, 0.045234911143779755, 0.0028870180249214172, 0.04012775421142578, -0.0489748939871788, 0.11698146909475327, 0.03842208534479141, 0.0024225774686783552, 0.04514162987470627, -0.06078029423952103, -0.04762408882379532, -0.010438241064548492, -0.03776939585804939, -0.016247930005192757, 0.06120934709906578, 0.017521932721138, 0.0020546000450849533, -0.06242279335856438, -0.14913611114025116, 0.04563364386558533, -0.0024068057537078857, 0.03730228543281555, 0.06748514622449875, 0.07720442116260529, 0.021058229729533195, -0.0529269278049469, 0.0007209152681753039, -0.052636850625276566, 0.0034611597657203674, -0.0563170425593853},
    {0.08943985402584076, 0.038287632167339325, -0.03947123512625694, 0.04073740169405937, 0.06558271497488022, 0.03759916126728058, -0.09307625144720078, 0.09477347880601883, 0.04539526253938675, 0.04157601296901703, -0.12166006118059158, 0.08542057871818542, -0.09191051125526428, -0.05388069897890091, 0.02678721398115158, 0.029481980949640274, -0.059790242463350296, 0.024642683565616608, 0.05282343924045563, -0.18416814506053925, -0.12130217999219894, -0.027863580733537674, 0.058512501418590546, 0.004846835508942604, 0.012015054002404213, -0.0267682746052742, -0.00881956797093153, 0.052283551543951035, -0.02233058586716652, -0.053747400641441345, 0.006819294299930334, 0.10977872461080551, 0.020747782662510872, 0.06510557979345322, -0.053306374698877335, -0.057441286742687225, -0.01596849039196968, 0.0342133603990078, 0.10311982780694962, -0.033943016082048416, 0.04773606359958649, -0.10062900930643082, -0.02631194144487381, 0.023874305188655853, -0.12344180047512054, 0.0006344003486447036, 0.05051969736814499, -0.2304687649011612, -0.18537692725658417, -0.03998849540948868, 0.11860833317041397, -0.020626243203878403, 0.10122891515493393, -0.13901925086975098, -0.03926511108875275, 0.060299959033727646, 0.05825783684849739, 0.0014477893710136414, -0.04004903882741928, 0.10329949855804443, 0.0721781924366951, 0.03244561329483986, 0.07228010147809982, 0.022159993648529053, -0.05742330476641655, 0.008649079129099846, -0.05055735260248184, -0.07607804238796234, -0.08009683340787888, 0.049884796142578125, 0.03621160238981247, 0.023677624762058258, -0.037907663732767105, 0.05830550566315651, -0.06852696090936661, -0.06934956461191177, -0.17304331064224243, -0.07400905340909958, 0.019730553030967712, 0.03816264122724533, 0.018513236194849014, -0.0708366110920906, -0.057935550808906555, -0.012521613389253616, 0.009278548881411552, 0.02415374666452408, 0.030420668423175812, -0.04462894797325134, 0.08007154613733292, -0.017772387713193893, 0.05307988077402115, 0.05693160742521286, -0.01617143303155899, 0.039971187710762024, -0.04262387752532959, 0.02532018907368183, -0.023948684334754944, -0.0527091845870018, 0.05345223844051361, -0.062383804470300674, 0.06653320044279099, -0.03955444321036339, 0.04746390879154205, 0.00363786518573761, -0.03321324288845062, 0.010717198252677917, -0.009853411465883255, 0.11098459362983704, 0.0036161914467811584, -0.023889504373073578, 0.017436984926462173, -0.15246514976024628, -0.06993125379085541, -0.0926554724574089, 0.02241598255932331, -0.12943029403686523, -0.05230793356895447, -0.055552124977111816, -0.08167021721601486, -0.13252151012420654, -0.04020130634307861, 0.03140532225370407, -0.008531171828508377, 0.004862816073000431, 0.04903335124254227, 0.15341074764728546, -0.05436525121331215, -0.08644170314073563, -0.06103166937828064, 0.01049831137061119, 0.02355661615729332, 0.014183416962623596, 0.03040929138660431, 0.031192995607852936, 0.02596619725227356, 0.04294656589627266, 0.01489613950252533, -0.009883997961878777, 0.010594494640827179, 0.01980288326740265, -0.07715804874897003, -0.035371359437704086, 0.06555480509996414, 0.035781942307949066, 0.0035749971866607666, -0.01590273529291153, 0.07493613660335541, 0.0014317919267341495, 0.07059527933597565, 0.040463611483573914, 0.03794032707810402, 0.053370170295238495, -0.06023923307657242, 0.06020212918519974, -0.10608773678541183, 0.014881834387779236, 0.06586868315935135, -0.026965633034706116, -0.018638063222169876, -0.016058020293712616, -0.021807070821523666, -0.048680759966373444, -0.07762037962675095, 0.036191485822200775, -0.050319232046604156, 0.06697095185518265, 0.0018651112914085388, -0.061511874198913574, -0.06280668824911118, -0.16982759535312653, -0.171522319316864, -0.0382298119366169, -0.06522581726312637, 0.04482680559158325, -0.00924605131149292, -0.06253133714199066, -0.012466887943446636, 0.05884459614753723, -0.026410063728690147, 0.061154115945100784, 0.013975255191326141, 0.037793755531311035, 0.025142908096313477, -0.01755201444029808, -0.06635502725839615, -0.012816614471375942, -0.04280077666044235, 0.10417979955673218, -0.05836381018161774, -0.22131294012069702, 0.006665679160505533, 0.03650307655334473, 0.014291651546955109, -0.03554458171129227, -0.060334861278533936, -0.15966148674488068, -0.21977470815181732, -0.17454756796360016, 0.05831063538789749, -0.018513988703489304, -0.005526757799088955},
    {0.06665932387113571, 0.12317563593387604, -0.05428016558289528, -0.05694461986422539, -0.003170945215970278, 0.029649153351783752, -0.0640188604593277, 0.013154040090739727, 0.013293050229549408, -0.05114264786243439, -0.019430693238973618, 0.06503917276859283, -0.11814231425523758, -0.011793099343776703, -0.0518546923995018, 0.016636451706290245, 0.052105993032455444, 0.05732810124754906, -0.03281387686729431, -0.18659958243370056, -0.11902261525392532, 0.06379016488790512, 0.046459659934043884, 0.05063626170158386, -0.04482666775584221, -0.016190797090530396, 0.0651557669043541, 0.0409211628139019, 0.04639840126037598, 0.027343742549419403, -0.02236250229179859, 0.0063792341388762, -0.09564223140478134, 0.042915984988212585, -0.0017367750406265259, -0.01794467307627201, -0.06430359184741974, 0.059794194996356964, -0.1114325225353241, -0.041441090404987335, 0.05770168453454971, -0.0939750000834465, -0.009843811392784119, -0.06764476001262665, -0.003462874097749591, -0.02613082528114319, -0.10295527428388596, -0.16524232923984528, -0.22176827490329742, -0.02375708520412445, 0.14106746017932892, 0.10083453357219696, -0.01808364875614643, -0.046408943831920624, -0.03551759198307991, 0.13475586473941803, -0.029316088184714317, -0.024408899247646332, -0.04334348440170288, 0.13159559667110443, 0.05770108848810196, 0.0649358406662941, -0.10168112814426422, -0.06843242794275284, -0.04921308904886246, -0.038834020495414734, 0.006337770726531744, 0.06384969502687454, -0.11851660907268524, 0.027280062437057495, 0.00952855497598648, 0.007331185042858124, 0.05732662230730057, -0.08154816925525665, 0.04501648247241974, 0.015000314451754093, -0.20244689285755157, -0.07453326880931854, -0.05308382958173752, -0.0010521910153329372, 0.08402243256568909, -0.051952291280031204, -0.019799387082457542, -0.011598436161875725, 0.005376356188207865, -0.007382050156593323, 0.051343441009521484, -0.053408846259117126, 0.08882959187030792, -0.0079197958111763, -0.0570509098470211, -0.021539416164159775, -0.05820750817656517, 0.022407427430152893, -0.09898820519447327, -0.005064469762146473, 0.04702356457710266, -0.06657828390598297, 0.01066434383392334, 0.026240885257720947, 0.01679816097021103, -0.014929253607988358, 0.016865059733390808, 0.01455642282962799, 0.03313025087118149, -0.05871104449033737, -0.12140537798404694, 0.09200289845466614, -0.041781872510910034, 0.06845550984144211, 0.055243998765945435, -0.02481231279671192, -0.06020538508892059, -0.031882043927907944, -0.04117485508322716, 0.007697306573390961, 0.0014032423496246338, -0.007654950022697449, -0.03646671026945114, -0.20111392438411713, 0.03629269450902939, -0.04016636312007904, -0.0679115355014801, -7.096559420460835e-05, 0.008784331381320953, 0.09240543097257614, -0.004380278289318085, 0.060773760080337524, -0.05707481503486633, -0.04001976177096367, -0.009511738084256649, -0.035047952085733414, 0.014119639992713928, 0.0026543810963630676, 0.027273498475551605, 0.09890219569206238, -0.0277092307806015, -0.05350460857152939, 0.11859387159347534, 0.09053099155426025, 0.04413633421063423, 0.025097839534282684, -0.04812731221318245, 0.027199015021324158, -0.0074418336153030396, 0.013762466609477997, -0.05500391870737076, 0.013011257164180279, -0.04070389270782471, -0.017707459628582, -0.037260837852954865, 0.039679598063230515, -0.03543302044272423, 0.01976897567510605, -0.04679425060749054, -0.0236021988093853, 0.05693099647760391, 0.02368735522031784, 0.0032423213124275208, 0.08295300602912903, 0.002340078353881836, 0.00566135486587882, -0.04350641369819641, -0.03245045989751816, -0.04968390613794327, -0.03801599517464638, -0.002783171832561493, 0.00699547678232193, 0.008725792169570923, -0.12894421815872192, -0.0003282155084889382, 0.04252312332391739, -0.08625072985887527, 0.003919348120689392, -0.0232720784842968, -0.03313126787543297, 0.013484595343470573, -0.10922423005104065, 0.06480897217988968, -0.009925855323672295, -0.004999123513698578, 0.03961387276649475, -0.0035018175840377808, -0.04583220183849335, 0.012610933743417263, -0.008137576282024384, -0.008074864745140076, -0.07887554913759232, -0.027824994176626205, -0.20602644979953766, -0.0077748168259859085, 0.004101589322090149, -0.03267906606197357, 0.05530758947134018, -0.09895869344472885, -0.17484040558338165, -0.09736227244138718, 0.03832518309354782, -0.0672999918460846, 0.03891291469335556, -0.020286237820982933},
    {0.0586131326854229, 0.10505665838718414, -0.030265579000115395, -0.0995570495724678, 0.0017429025610908866, 0.06410221010446548, -0.0720905214548111, 0.018470508977770805, 0.017132915556430817, -0.06558646261692047, -0.10537321120500565, -0.19117271900177002, 0.008600864559412003, 0.015663661062717438, 0.056622736155986786, -0.050378669053316116, 0.025357820093631744, 0.12680970132350922, 0.05802396684885025, -0.2283647060394287, 0.2615499198436737, 0.007163986563682556, -0.03397306427359581, 0.0587678924202919, -0.08739381283521652, -0.06610090285539627, 0.10655532777309418, 0.046471141278743744, 0.035843729972839355, 0.03647390007972717, 0.0505470409989357, -0.04270342364907265, -0.11986006051301956, 0.05016496777534485, 0.04606472700834274, -0.07036565989255905, -0.04064188897609711, 0.11596781760454178, 0.14657248556613922, -0.088641457259655, 0.06142481416463852, -0.05145731940865517, 0.0210847407579422, -0.10382332652807236, -0.08287931233644485, -0.14163611829280853, -0.04616393521428108, -0.14352312684059143, 0.015455754473805428, 0.11748496443033218, 0.11597129702568054, -0.06832242012023926, 0.04615034908056259, -0.06868718564510345, 0.05428983271121979, 0.02298278734087944, 0.0212901271879673, 0.010342061519622803, 0.018370211124420166, 0.048939384520053864, 0.0778091698884964, 0.021977707743644714, -0.1344846934080124, 0.055220119655132294, -0.07471837848424911, -0.14881880581378937, -0.08279664069414139, 0.0013893559807911515, -0.06755554676055908, -0.04856133460998535, 0.06937739998102188, -0.043945230543613434, -0.003310360014438629, -0.07124792784452438, 0.007874950766563416, -0.13539908826351166, -0.13727079331874847, -0.10383322089910507, -0.0238405279815197, 0.05539322644472122, 0.1053277999162674, 0.1522684395313263, 0.02989993989467621, 0.02043863758444786, -0.08676053583621979, -0.01753014326095581, 0.019422076642513275, -0.0027958303689956665, 0.13594496250152588, -0.050546713173389435, -0.0018895044922828674, 0.0020894333720207214, 0.058679915964603424, 0.034230783581733704, -0.18467101454734802, 0.08515183627605438, -0.012473851442337036, 0.008481033146381378, 0.039531052112579346, -0.04167254641652107, -0.01905060186982155, -0.008304137736558914, -0.04793889820575714, 0.045707494020462036, -0.05143853276968002, -0.009826455265283585, -0.21372318267822266, -0.046158917248249054, -0.06702875345945358, 0.02214665710926056, 0.09328825026750565, 0.16204656660556793, -0.02581941708922386, -0.016628338024020195, 0.20483502745628357, 0.031231317669153214, 0.054464392364025116, 0.010945089161396027, 0.10029255598783493, -0.13984854519367218, 0.04988919943571091, 0.00483403354883194, 0.04491928964853287, -0.07002241909503937, -0.048325296491384506, 0.1259131282567978, -0.10141370445489883, 0.051170334219932556, 0.01812492311000824, -0.15920834243297577, -0.05973106622695923, -0.0360916405916214, 0.013733766973018646, -0.04308898746967316, -0.021503597497940063, 0.17739859223365784, 0.028144054114818573, 0.10787679255008698, 0.06587880104780197, 0.10709650814533234, -0.009362415410578251, 0.004840098321437836, -0.012398075312376022, 0.009131021797657013, 0.03397486358880997, 0.04507507383823395, -0.013674698770046234, -0.04160657525062561, -0.044589847326278687, -0.046554382890462875, 0.05435439199209213, -0.09593931585550308, -0.034415554255247116, -0.06742485612630844, 0.11388759315013885, -0.05476595088839531, 0.021518312394618988, 0.00025334209203720093, -0.008210316300392151, 0.21214984357357025, -0.045184019953012466, 0.013430901803076267, 0.16695865988731384, -0.011034883558750153, 0.057406313717365265, 0.014612503349781036, 0.007997594773769379, -0.03619767725467682, 0.03829316049814224, -0.012622246518731117, -0.01846352592110634, 0.031035318970680237, -0.045754145830869675, 0.06274165958166122, 0.04160444438457489, -0.06201360002160072, -0.07678385078907013, -0.12056910246610641, 0.06098151579499245, -0.029225578531622887, -0.016666509211063385, 0.0491948202252388, -0.016368061304092407, 0.01794784516096115, 0.015884092077612877, 0.03829606622457504, -0.036987945437431335, -0.12356911599636078, 0.011561088263988495, -0.22177079319953918, 0.12529100477695465, -0.061684977263212204, -0.04657992720603943, 0.023796096444129944, -0.11241132020950317, -0.013850120827555656, 0.25304052233695984, 0.08542639017105103, 0.03394459933042526, -0.06511684507131577, -0.0073134275153279305},
    {0.09501964598894119, 0.06219871714711189, 0.01603696681559086, -0.03599676862359047, 0.04892828315496445, -0.03628544509410858, -0.10046346485614777, 0.052974358201026917, 0.06627780944108963, -0.06510507315397263, -0.15677715837955475, -0.093318872153759, -0.0730295479297638, -0.03538325056433678, 0.018710806965827942, 0.07311185449361801, 0.054378263652324677, -0.02284115180373192, -0.06254010647535324, -0.16354262828826904, -0.03723179176449776, -0.019097059965133667, 0.010350920259952545, 0.04463852196931839, -0.024807974696159363, -0.000624440610408783, -0.04368090629577637, 0.04466478154063225, -0.02434300258755684, -0.06175801903009415, -0.07165850698947906, 0.10067670047283173, 0.01260558795183897, 0.024297527968883514, 0.030697807669639587, -0.085569366812706, -0.040426403284072876, -0.007334040477871895, -0.016328655183315277, -0.0736498311161995, -0.05512986704707146, -0.022489462047815323, 0.0413798987865448, 0.014807183295488358, -0.051673050969839096, -0.09661180526018143, 0.006133232265710831, -0.10845715552568436, -0.09888440370559692, 0.07681230455636978, 0.10885130614042282, 0.05376109480857849, -0.020651299506425858, -0.05299312248826027, -0.03586971014738083, 0.1483549028635025, 0.008710152469575405, -0.04130105674266815, -0.052949853241443634, 0.15094450116157532, 0.10641027987003326, 0.12526965141296387, -0.014479928649961948, -0.05874573439359665, -0.005882343742996454, -0.08033232390880585, 0.02077026292681694, 0.029504312202334404, -0.17285923659801483, -0.014732725918293, 0.052300870418548584, -0.013310138136148453, -0.003992311656475067, 0.06215248256921768, -0.0025311633944511414, -0.06914745271205902, -0.10245497524738312, -0.02690163068473339, -0.05008050054311752, 0.12971626222133636, 0.055594123899936676, 0.07568569481372833, 0.034777164459228516, 0.05919332802295685, 0.027503523975610733, 0.00888768583536148, 0.046048007905483246, 0.015163585543632507, 0.13342861831188202, -0.05592900514602661, -0.036040447652339935, -0.06724753230810165, 0.03927876800298691, -0.06477323919534683, -0.0946941077709198, 0.03374862298369408, -0.06918324530124664, -0.06964879482984543, 0.03075612336397171, 0.03168712556362152, -0.0164179764688015, -0.022512540221214294, 0.03349880874156952, -0.053372304886579514, -0.04527535289525986, -0.03247901424765587, -0.0841372013092041, 0.04082833603024483, 0.06708673387765884, -0.024993643164634705, 0.05180080607533455, 0.029320085421204567, -0.07198964804410934, -0.09883836656808853, -0.13692604005336761, -0.006913209334015846, 0.015975624322891235, -0.035078179091215134, 0.010857457295060158, -0.0859590619802475, 0.015260249376296997, 0.001004055142402649, 0.03417038917541504, 0.10342811793088913, 0.06006931513547897, 0.10182365030050278, 0.027298010885715485, 0.1095907911658287, -0.0544147752225399, 0.03910379111766815, 0.09255190193653107, -0.017012648284435272, 0.009239420294761658, -0.06347424536943436, 0.0519268736243248, 0.13814201951026917, -0.053977273404598236, -0.026726623997092247, 0.11018770933151245, 0.09670232981443405, 0.007333817891776562, 0.04515907168388367, 0.036740243434906006, 0.043742381036281586, 0.030981749296188354, 0.03920353949069977, 0.06137404963374138, 0.0021232853177934885, 0.0016034983564168215, -0.036760736256837845, -0.02641960233449936, 0.10551420599222183, 0.043343476951122284, -0.07008625566959381, 0.06431376934051514, 0.025765955448150635, -0.013883505016565323, 0.03604885935783386, 0.01865324378013611, 0.0627434030175209, -0.012157425284385681, 0.0608544796705246, -0.14018206298351288, -0.020018819719552994, -0.017621565610170364, -0.047162771224975586, 0.015384599566459656, -0.01764870062470436, 0.05679241567850113, -0.03908781707286835, -0.0816258043050766, 0.03177037835121155, -0.057069674134254456, 0.013442829251289368, 0.02472500503063202, -0.028231337666511536, -0.019549811258912086, -0.05621463432908058, 0.08546136319637299, 0.046472106128931046, -0.04989418014883995, 0.02072073519229889, -0.017666693776845932, 0.030549734830856323, -0.036660417914390564, 0.03396458923816681, 0.060880281031131744, -0.018644768744707108, 0.013483025133609772, -0.21207726001739502, 0.11441647261381149, -0.018596384674310684, 0.013575226068496704, 0.06858894973993301, -0.09499399363994598, -0.003213120624423027, -0.06147368997335434, -0.01813049614429474, -0.033464670181274414, 0.019191183149814606, 0.018414361402392387},
