const float weight1[][321]={{0.03847053647041321, 0.04077870771288872, 0.0222125593572855, -0.020207440480589867, 0.01567932963371277, 0.054763369262218475, -0.010202895849943161, -0.03144431114196777, -0.03534705564379692, -0.023979689925909042, 0.03139806538820267, -0.04411633312702179, 0.05776972323656082, 0.03767681121826172, -0.03546163812279701, 0.07567251473665237, -0.028670907020568848, 0.12433482706546783, 0.00038180500268936157, -0.052237965166568756, 0.0370112881064415, -0.013318393379449844, 0.05518440529704094, -0.03221971169114113, 0.08455779403448105, 0.022022735327482224, 0.0528731644153595, -0.054084084928035736, -0.012943945825099945, 0.055446527898311615, -0.0009250044822692871, -0.007549669593572617, 0.03151007741689682, 0.0213545560836792, -0.03764582425355911, -0.01275264099240303, -0.24624106287956238, -0.021719258278608322, -0.01219094917178154, 0.03035060316324234, 0.052146755158901215, 0.05088290572166443, -0.0010829822858795524, 0.02470705658197403, -0.047471318393945694, -0.055419985204935074, -0.11692710220813751, 0.01004752516746521, -0.09932928532361984, -0.05915529280900955, 0.01246577501296997, -0.014536639675498009, -0.004312340170145035, 0.04734508693218231, -0.09602949768304825, 0.10357910394668579, 0.04493163526058197, 0.0072512030601501465, -0.031682346016168594, 0.053195737302303314, 0.01126183569431305, 0.0018412135541439056, -0.02057940885424614, 0.006228577345609665, 0.021778753027319908, -0.05154107138514519, 0.01730397343635559, 0.0516345277428627, 0.034512124955654144, -0.034761540591716766, -0.05328605696558952, 0.14456228911876678, -0.06591637432575226, -0.011006289161741734, -0.04363726079463959, 0.07779896259307861, 0.03861847519874573, 0.005576123483479023, 0.05831946060061455, -0.036863986402750015, 0.08988331258296967, -0.07157629728317261, -0.05983452498912811, -0.02068561501801014, -0.051655445247888565, 0.11479759961366653, -0.012002550065517426, 0.024189835414290428, -0.018017258495092392, 0.011601824313402176, 0.06724179536104202, 0.024784743785858154, -0.07758443057537079, -0.01618751510977745, 0.027470439672470093, 0.016793131828308105, 0.13927143812179565, 0.010213656350970268, 0.04081931710243225, 0.053468964993953705, 0.12372943013906479, 0.047751858830451965, 0.036110445857048035, -0.03834715113043785, -0.054899685084819794, 0.09592262655496597, 0.012847487814724445, 0.15525822341442108, -0.12297210097312927, 0.017090775072574615, 0.03307301551103592, 0.043056659400463104, -0.07495419681072235, 0.08173856139183044, 0.10928382724523544, -0.030875999480485916, 0.054555490612983704, 0.01088172197341919, -0.05430649593472481, -0.05104046314954758, -0.05003926157951355, 0.090468630194664, 0.034315984696149826, 0.05062320828437805, -0.0013775117695331573, -0.05202298238873482, 0.03865480422973633, 0.020827583968639374, 0.09489072859287262, -0.049757592380046844, -0.060137055814266205, -0.030331209301948547, 0.03384437412023544, 0.04944787174463272, 0.034452252089977264, 0.10696733742952347, -0.04458295553922653, -0.03144326061010361, -0.04195571690797806, -0.012083297595381737, 0.06287390738725662, 0.05692955106496811, 0.0012845471501350403, 0.03242022544145584, -0.05804644525051117, -0.0032322853803634644, 0.09506461024284363, 0.11269361525774002, 0.047174811363220215, 0.04391989856958389, -0.08428110927343369, 0.04544907063245773, 0.021800532937049866, -0.01300659030675888, 0.035947415977716446, -0.04376368969678879, -0.011006353422999382, -0.09372659027576447, -0.05255301669239998, 0.008228756487369537, 0.023336201906204224, -0.018817003816366196, 0.022705331444740295, -0.030345294624567032, 0.008762933313846588, -0.043303992599248886, 0.03877221792936325, -0.027515992522239685, 0.07678285986185074, -0.0495147705078125, -0.013323847204446793, 0.032520584762096405, -0.02583855763077736, 0.021480023860931396, 0.0949605256319046, -0.10380242764949799, -0.09005275368690491, -0.0834282711148262, 0.04059594124555588, 0.048359550535678864, 0.02445647120475769, -0.05239525064826012, 0.08333364874124527, -0.04948042333126068, 0.03466040641069412, 0.022406375035643578, -0.004595515318214893, 0.10086324065923691, -0.005143479444086552, -0.11574452370405197, -0.00036268308758735657, -0.010083038359880447, 0.03643970936536789, -0.02841220423579216, 0.017326921224594116, 0.01416555792093277, 0.00023820623755455017, 0.00627511739730835, 0.014140955172479153, 0.08938087522983551, -0.06947220116853714, -0.053261738270521164, 0.04246068000793457, -0.034156106412410736, 0.007784571032971144, 0.02625413052737713, 0.031228605657815933, 0.045117996633052826, 0.14675378799438477, -0.04903225973248482, 0.09015658497810364, -0.04985402524471283, -0.013914022594690323, 0.018522776663303375, -0.030637331306934357, -0.028233231976628304, 0.02203824557363987, 0.04751177132129669, -0.010321851819753647, 0.02951902151107788, -0.05350016430020332, 0.11149343103170395, 0.0015452094376087189, -0.01629773899912834, 0.03158516064286232, 0.07103489339351654, -0.09594346582889557, 0.021516427397727966, 0.029614433646202087, -0.002646318869665265, 0.014111481606960297, 0.02362174540758133, -0.01927988976240158, 0.06989964842796326, 0.0035596825182437897, 0.041236959397792816, 0.028137870132923126, -0.013035845011472702, -0.004947572946548462, -0.0006995853036642075, 0.02420489490032196, -0.06720598042011261, -0.05305706709623337, -0.024849288165569305, 0.04837562143802643, 0.07109199464321136, 0.03493969142436981, -0.027610095217823982, 0.044979870319366455, 0.06879444420337677, 0.06762810796499252, 0.014851383864879608, 0.11357143521308899, 0.006387941539287567, -0.005997534841299057, 0.04033045470714569, 0.024021804332733154, 0.012433260679244995, 0.0008487999439239502, -0.02705172263085842, 0.001374397543258965, 0.0009042210876941681, 0.04750528186559677, 0.019570376724004745, 0.026449128985404968, 0.024167433381080627, 0.026283249258995056, 0.025275826454162598, 0.07891146838665009, -0.02443317323923111, 0.007666602730751038, -0.051048748195171356, 0.05116283893585205, 0.040516212582588196, 0.043760620057582855, 0.049841366708278656, 0.049550749361515045, -0.03350933641195297, -0.01627259887754917, 0.03771984949707985, -0.0074325911700725555, 0.04951765015721321, -0.0247053075581789, 0.0666685551404953, 0.004047811031341553, -0.08469296246767044, 0.013764917850494385, 0.03164578974246979, 0.05620967969298363, -0.029064906761050224, 0.06269600987434387, -0.04854389652609825, -0.0007536079501733184, -0.043370869010686874, -0.051174599677324295, -0.026836952194571495, 0.010110899806022644, 0.04178563505411148, 0.03743153065443039, -0.008458024822175503, 0.06968622654676437, -0.04421136528253555, 0.024473577737808228, -0.014957355335354805, -0.019847355782985687, -0.19581806659698486, 0.1323222815990448, 0.053127873688936234, -0.016027696430683136, 0.0367974117398262, 0.008620589971542358, 0.0012116841971874237, 0.013497375883162022, 0.046849388629198074, -0.022072480991482735, -0.04736059531569481, -0.047056011855602264, 0.0015452764928340912, 0.0031280554831027985, -0.011164497584104538, -0.057011038064956665},
    {0.07521358877420425, 0.0968751609325409, 0.08616891503334045, -0.049469027668237686, -0.05750883370637894, -0.026591725647449493, 0.046506814658641815, 0.03138768672943115, 0.042962849140167236, -0.0459909550845623, -0.05371800810098648, -0.03272064030170441, -0.09994260221719742, -0.019613277167081833, 0.05191272497177124, 0.024429641664028168, 0.02314479649066925, -0.06471525132656097, 0.0015925541520118713, 0.05161319673061371, 5.8572739362716675e-05, -0.044913288205862045, -0.0003006717888638377, -0.03563836216926575, 0.031323518604040146, 0.0431211031973362, 0.06884235143661499, 0.01949385553598404, -0.030605498701334, -0.029917065054178238, 0.054857976734638214, 0.01761583238840103, -0.00848282128572464, 0.0027808062732219696, 0.021904610097408295, 0.05910957232117653, -0.024263719096779823, -0.05370192229747772, -0.09261175245046616, -0.043429985642433167, -0.06772022694349289, -0.034421246498823166, 0.20339713990688324, 0.04930708557367325, 0.016972273588180542, -0.03889404982328415, 0.15000192821025848, 0.051040515303611755, 0.08021733909845352, 0.03505957871675491, 0.022048860788345337, 0.051108408719301224, 0.03738541901111603, -0.04649331420660019, 0.08670138567686081, -0.06224827095866203, -0.042131148278713226, -0.026507731527090073, 0.024408899247646332, -0.054289307445287704, -0.007919564843177795, -0.036245573312044144, 0.029720425605773926, 0.1536056399345398, 0.13097740709781647, 0.14636316895484924, 0.03095206618309021, -0.02160211279988289, -0.09444651752710342, -0.04347502440214157, -0.009784530848264694, 0.07000909745693207, 0.027164842933416367, 0.09701751917600632, -0.028432056307792664, -0.08650597184896469, -0.03817678242921829, -0.05632592737674713, 0.04006488248705864, 0.02265501767396927, -0.03968293219804764, 0.03385303542017937, 0.1418687105178833, 0.18656735122203827, 0.032372791320085526, 0.04291258379817009, -0.0695251002907753, -0.03682945668697357, -0.015763968229293823, -0.07441379129886627, 0.03670391067862511, 0.014179104939103127, 0.12920160591602325, 0.027968943119049072, -0.004631053656339645, 0.00449695810675621, 0.06281905621290207, 0.08347239345312119, -0.017369955778121948, 0.003582444041967392, -0.033378057181835175, 0.011855140328407288, -0.017526209354400635, -0.04166407138109207, -0.05006524920463562, -0.0407172255218029, -0.032808203250169754, 0.07571710646152496, 0.13603171706199646, 0.018270529806613922, -0.023786962032318115, -0.13077908754348755, 0.07595894485712051, -0.07937640696763992, 0.04558582603931427, 0.16711211204528809, 0.01659824699163437, -0.03150849789381027, -0.020465511828660965, -0.037038326263427734, 0.05188531428575516, 0.043194666504859924, -0.1517215520143509, -0.046173617243766785, 0.021245479583740234, 0.03318348526954651, 0.03739449381828308, 0.026397734880447388, -0.11133898049592972, -0.008898921310901642, 0.19464553892612457, 0.13619951903820038, -0.02260098233819008, 0.03193853050470352, 0.05521669611334801, 0.006341686937958002, 0.01383428368717432, 0.17898789048194885, 0.1827913522720337, 0.1060170978307724, -0.048891983926296234, 0.036100998520851135, 0.04199594259262085, 0.040608592331409454, 0.1423407793045044, -0.010756131261587143, -0.037383873015642166, 0.09593035280704498, 0.025066763162612915, -0.040069013833999634, 0.16746310889720917, -0.055062733590602875, 0.012368731200695038, 0.002527981996536255, 0.023035598918795586, 0.029194220900535583, 0.13516083359718323, 0.03325773403048515, -0.027034783735871315, 0.03712696582078934, 0.040954895317554474, -0.029053863137960434, -0.0497913584113121, 0.0031535327434539795, 0.0009241476655006409, -0.03133346885442734, -0.03402792662382126, 0.053228557109832764, -0.08681728690862656, -0.001078542321920395, 0.02533555030822754, 0.1096755862236023, -0.031161241233348846, 0.036981768906116486, -0.08728402107954025, -0.03274345397949219, 0.03585829213261604, 0.07389787584543228, 0.08333051949739456, 0.04795083403587341, 0.028925128281116486, 0.04893261194229126, 0.09254474192857742, 0.0014351507415995002, 0.014136843383312225, -0.136627197265625, -0.05506822466850281, 0.13785791397094727, 0.008042513392865658, 0.062329478561878204, 0.0412164106965065, 0.002712119370698929, 0.038110777735710144, 0.06466743350028992, -0.0026736296713352203, -0.019897639751434326, 0.03956330567598343, 0.00983864814043045, 0.07974856346845627, 0.21605496108531952, 0.16594307124614716, -0.012625671923160553, -0.008475072681903839, -0.03211680054664612, -0.02971838414669037, 0.008762127719819546, 0.0306482445448637, -0.054088182747364044, -0.09965642541646957, 0.03408012166619301, 0.15123634040355682, -0.0461595319211483, 0.053986962884664536, 0.11418770998716354, 0.049414969980716705, 0.014346063137054443, 0.047078970819711685, 0.0503818616271019, 0.04863516986370087, -0.0025189369916915894, -0.014300357550382614, 0.025786565616726875, -0.00943751260638237, 0.04900003969669342, 0.18895703554153442, 0.06962990015745163, 0.10192512720823288, -0.034130681306123734, -0.03641384840011597, 0.04079187661409378, -0.026576075702905655, 0.050856947898864746, -0.031740233302116394, -0.05339818075299263, -0.050090499222278595, -0.00012385845184326172, -0.010568220168352127, 0.02140287309885025, 0.05452357977628708, 0.05731559544801712, 0.026161879301071167, 0.041422031819820404, -0.0017628632485866547, 0.03435102477669716, -0.015390239655971527, -0.046373531222343445, 0.05848003178834915, 0.07788683474063873, 0.007362700998783112, 0.03602189943194389, 0.07797812670469284, -0.049348969012498856, -0.12492261826992035, 0.02409224957227707, 0.0401158407330513, 0.11660133302211761, 0.01041191816329956, -0.0347864031791687, -0.003070015460252762, 0.016446992754936218, 0.009543837048113346, -0.0032553188502788544, -0.011189434677362442, 0.045772403478622437, 0.028322845697402954, 0.003422863781452179, -0.011445339769124985, -0.019512780010700226, 0.20246031880378723, -0.01358964666724205, 0.052373699843883514, 0.03036513924598694, -0.003824625164270401, 0.04715491831302643, 0.0607365258038044, -0.03941889479756355, -0.03509409725666046, -0.04845481365919113, 0.010606187395751476, 0.08188561350107193, 0.047306910157203674, -0.07945185899734497, -0.007975760847330093, 0.0823066309094429, 0.040235258638858795, 0.12125963717699051, 0.007285021245479584, -0.012067999690771103, -0.046472638845443726, 0.011431112885475159, 0.10259834676980972, 0.06757805496454239, -0.0656265839934349, 0.10147716104984283, 0.006549172103404999, -0.016919180750846863, 0.012847349047660828, 0.05113670229911804, -0.0033701956272125244, 0.08361218869686127, -0.04158565774559975, 0.0430399551987648, -0.023286722600460052, 0.07813885062932968, -0.031144913285970688, -0.03869854658842087, 0.1048813983798027, 0.1043841764330864, -0.0005444735288619995, -0.013497494161128998, 0.02889602817595005, -0.0482877641916275, -0.08604247123003006, 0.2135060578584671, 0.26897963881492615, 0.20745845139026642, 0.011327870190143585, -0.04959399998188019, 0.04512447118759155, 0.03822343796491623, 0.058107536286115646},
    {0.03945251554250717, 0.07949092239141464, -0.05289392173290253, -0.021715331822633743, -0.0405554324388504, -0.05253177881240845, -0.011987250298261642, 0.052531786262989044, -0.021907955408096313, -0.005297109484672546, 0.03679225593805313, -0.02574087493121624, -0.005464526824653149, 0.015904180705547333, 0.030411511659622192, 0.1013258546590805, 0.02720656991004944, 0.05882536619901657, 0.0554446280002594, -0.003179635852575302, -0.0027511976659297943, -0.01668168231844902, 0.12903296947479248, -0.03205195814371109, -0.0009105147910304368, 0.04856274276971817, -0.07501863688230515, 0.01344379037618637, 0.011742867529392242, 0.04558183625340462, 0.047166384756565094, -0.05157021805644035, 0.052893541753292084, -0.044073063880205154, 0.04774545133113861, 0.027355097234249115, -0.26094475388526917, -0.011880870908498764, 0.08259594440460205, 0.036338530480861664, -0.05572307109832764, -0.025828836485743523, -0.02589292638003826, 0.026921644806861877, 0.051510684192180634, -0.03672713786363602, -0.15171626210212708, 0.04152511805295944, -0.0456470251083374, -0.06277934461832047, 0.01314420998096466, -0.04993579164147377, 0.000652845948934555, -0.027478918433189392, 0.0005618864088319242, -0.01530036237090826, 0.028860189020633698, -0.04574386030435562, 0.026717409491539, 0.027001582086086273, 0.034469157457351685, 0.0555541068315506, -0.01565133035182953, -0.02732997015118599, 0.07716456800699234, -0.11155837774276733, -0.05227069556713104, 0.035758309066295624, 0.014919038861989975, -0.01567266508936882, -0.004703406244516373, 0.06035584583878517, -0.03685910254716873, -0.028707636520266533, -0.03850403428077698, -0.0012660791398957372, 0.020764321088790894, -0.05217151716351509, -0.0879540666937828, -0.012958604842424393, -0.00454161548987031, -0.053490810096263885, -0.13762375712394714, -0.21654485166072845, -0.06443525850772858, 0.10682682693004608, 0.07189366221427917, -0.002639184705913067, -0.021329302340745926, -0.02060937136411667, -0.012904099188745022, 0.010464067570865154, -0.0693836584687233, 0.020857006311416626, 0.028149351477622986, 0.005091339349746704, 0.1407155841588974, 0.09427545964717865, -0.013944610953330994, -0.009965118020772934, 0.05518622323870659, 0.0986170619726181, 0.023649491369724274, 0.007363483309745789, 0.05015537142753601, 0.07250909507274628, 0.01687934808433056, 0.04411923512816429, -0.06139948219060898, -0.024581296369433403, 0.06499482691287994, -0.07038015872240067, -0.020665759220719337, 0.013637201860547066, -0.034160565584897995, -0.07704350352287292, 0.005224384367465973, 0.0016757398843765259, -0.04933420941233635, -0.053535133600234985, 0.046677008271217346, 0.0447828434407711, 0.03564976528286934, -0.05077406391501427, -0.05051782727241516, 0.03230110555887222, 0.040421150624752045, -0.0425914041697979, -0.026551704853773117, 0.04066331684589386, -0.07487933337688446, -0.014666954055428505, 0.0065020062029361725, 0.015249326825141907, 0.03661787509918213, 0.05740368738770485, -0.02021612599492073, -0.08639688044786453, -0.0463358499109745, 0.045962829142808914, 0.07286769151687622, 0.04833582043647766, -0.01969398930668831, 0.046438343822956085, -0.09144607931375504, 0.029724523425102234, 0.05423548072576523, -0.025871314108371735, 0.050604842603206635, 0.0007935427129268646, -0.09843100607395172, -0.016100440174341202, -0.029988175258040428, 0.04887053370475769, 0.011011331342160702, -0.05001411586999893, -0.15189185738563538, 0.03595711663365364, 0.04345652461051941, 0.025931112468242645, -0.029126320034265518, 0.022690050303936005, -0.017073538154363632, -0.012633822858333588, -0.0339285284280777, -0.04411382973194122, -0.025949997827410698, -0.023952390998601913, 0.01088628638535738, -0.033848829567432404, 0.04635749012231827, 0.023154491558670998, 0.0032890290021896362, 0.007709279656410217, 0.05332262068986893, -0.132333442568779, 0.05476592481136322, -0.01253226213157177, 0.04036635905504227, 0.02870071679353714, -0.010735265910625458, 0.009309850633144379, 0.05939026549458504, -0.08123267441987991, -0.053599342703819275, -0.024968039244413376, 0.026455380022525787, -0.026822805404663086, -0.05197961628437042, 0.014535569585859776, 0.024036496877670288, -0.030372967943549156, -0.0985560491681099, 0.00036671277484856546, 0.0011177808046340942, -0.004448439925909042, 0.04877731204032898, -0.001037944108247757, 0.021876243874430656, -0.0753524973988533, -0.11439043283462524, 0.03319687396287918, 0.02833644300699234, -0.046409972012043, -0.045243971049785614, 0.0644688755273819, 0.0798741951584816, -0.0414898656308651, 0.17739306390285492, 0.00608337577432394, -0.06849542260169983, -0.021700933575630188, -0.036734744906425476, -0.0017042222898453474, 0.011449621990323067, -0.009996902197599411, -0.02896079793572426, -0.009309541434049606, 0.019692465662956238, -0.023747272789478302, -0.03937898576259613, 0.12431865930557251, 0.04015316814184189, -0.0033607427030801773, -0.0682215541601181, -0.007774213794618845, 0.032117780297994614, -0.0015401601558551192, 0.010101270861923695, 0.0020547877065837383, 0.06983889639377594, 0.04091382771730423, 0.024566322565078735, -0.03394518420100212, -0.046098023653030396, -0.019703220576047897, -0.04498598724603653, -0.05566343292593956, -0.006309196352958679, -0.06873448193073273, 0.017725735902786255, -0.011790678836405277, -0.00801997259259224, -0.06541582196950912, -0.029941607266664505, 0.0317094661295414, 0.03699873387813568, -0.09215108305215836, 0.041261494159698486, 0.012159118428826332, 0.030633600428700447, 0.05171822011470795, 0.03737996891140938, -0.02529844269156456, 0.027929507195949554, 0.0174296572804451, -0.02384142205119133, 0.04281475394964218, -0.0011680945754051208, -0.004888337105512619, 0.03941544145345688, -0.04856637120246887, 0.020108863711357117, -0.011201969347894192, 0.05165335536003113, 0.009037688374519348, 0.037770479917526245, 0.011723950505256653, -0.07059387862682343, 0.018359683454036713, 0.024110905826091766, -0.054529882967472076, -0.008852984756231308, -0.009016912430524826, -0.052182886749506, 0.04764225333929062, -0.04445073753595352, -0.034536946564912796, -0.10491718351840973, -0.05432382971048355, 0.013943083584308624, -0.03555279225111008, -0.008737146854400635, -0.07022830843925476, 0.0008034780621528625, -0.04326840862631798, 0.0266103595495224, 0.03459077328443527, -0.05372655391693115, 0.011621102690696716, -0.023928653448820114, -0.041857145726680756, -0.039403632283210754, -0.049290262162685394, 0.04269881546497345, -0.015104919672012329, -0.013418640941381454, -0.04508700221776962, 0.023641064763069153, -0.020573504269123077, -0.010543239302933216, -0.016434580087661743, 0.028048723936080933, -0.0667276531457901, -0.04483150318264961, -0.19123071432113647, -0.04686016961932182, -0.03474125266075134, -0.013098649680614471, 0.039227306842803955, 0.011571747250854969, 0.036215297877788544, 0.0007157614454627037, -0.14472733438014984, -0.18462897837162018, -0.17871037125587463, 0.0445474237203598, -0.021015651524066925, 0.011777617037296295, 0.039785146713256836, -0.026679104194045067},
    {-0.04480975121259689, 0.02913016267120838, -0.014114086516201496, 0.005192641634494066, -0.01328323408961296, -0.05579105019569397, 0.048723697662353516, 0.038545191287994385, -0.020629603415727615, -0.027666158974170685, 0.040145352482795715, 0.0015428736805915833, -0.048034824430942535, 0.008043497800827026, -0.04203496873378754, 0.024308890104293823, -0.024750297889113426, 0.09135765582323074, -0.048776865005493164, -0.049881402403116226, -0.00416005402803421, -0.01625087857246399, 0.04940834268927574, -0.04624602943658829, -0.05205516517162323, 0.07593432813882828, -0.01829107291996479, -0.016354035586118698, 0.0510236993432045, 0.0953049585223198, 0.043718598783016205, 0.01930364966392517, 0.16046108305454254, 0.015379585325717926, 0.0340099036693573, 0.03617539256811142, 0.20321905612945557, 0.03612838685512543, 0.07791241258382797, -0.03772050142288208, 0.04736945778131485, 0.04358149319887161, 0.0266950111836195, 0.016799867153167725, -0.041979752480983734, -0.02837054245173931, -0.050404369831085205, -0.03488152474164963, -0.008188828825950623, 0.04358241707086563, -0.002201128751039505, -0.044886860996484756, 0.0295497328042984, -0.006809540092945099, 0.02974054217338562, 0.053902652114629745, -0.050020817667245865, 0.0046686530113220215, -0.000850677490234375, -0.04591692239046097, 0.035951629281044006, 0.0069589316844940186, -0.025272561237215996, 0.04266144335269928, 0.07427582144737244, -0.07264208048582077, -0.005664080381393433, -0.02237323671579361, -0.013322483748197556, 0.05087556689977646, -0.00899495929479599, 0.11803232878446579, -0.18585489690303802, -0.05110042542219162, 0.038563452661037445, 0.041755810379981995, -0.04737328365445137, -0.04110993072390556, -0.08687110990285873, -0.054309602826833725, -0.031316325068473816, 0.026291988790035248, -0.10406952351331711, 0.10791724175214767, -0.18419896066188812, 0.08531765639781952, 0.1164722815155983, 0.0669887363910675, 0.011338505893945694, 0.17561040818691254, -0.0014633808750659227, 0.12043532729148865, -0.0839466005563736, -0.03224778175354004, 0.01578812301158905, -0.017310205847024918, -0.006385599263012409, -0.07708478718996048, 0.018200606107711792, 0.03262530267238617, 0.13297894597053528, 0.006464148405939341, -0.030990077182650566, -0.0002164691686630249, -0.04236394539475441, 0.14749936759471893, 0.06527036428451538, -0.14926238358020782, 0.02445622906088829, 0.00028868764638900757, -0.021615613251924515, -0.02859693206846714, -0.005905088037252426, -0.04756118357181549, -0.044437140226364136, -0.08382079005241394, 0.012329250574111938, -0.03713969886302948, -0.045082882046699524, -0.04163820296525955, -0.01070934534072876, 0.007405979558825493, 0.08686681091785431, 0.03040909767150879, 0.033854976296424866, -0.018734879791736603, 0.04665333777666092, -0.015126552432775497, 0.010519444942474365, -0.02880083955824375, -0.13666106760501862, -0.05648205801844597, -0.03457184135913849, -0.008803017437458038, 0.05784614756703377, 0.08418451249599457, -0.0353848971426487, -0.21395231783390045, -0.24298319220542908, 0.05295594036579132, 0.11934027075767517, 0.1797434240579605, -0.052854470908641815, 0.02887745201587677, -0.046885959804058075, -0.0396881178021431, 0.14168232679367065, -0.039570048451423645, 0.024252526462078094, -0.050011374056339264, 0.005584681872278452, 0.05173332989215851, -0.045554179698228836, 0.02974843978881836, 0.07921429723501205, -0.046403173357248306, -0.04185280576348305, 0.01985577493906021, 0.049456723034381866, -0.019068259745836258, -0.01803397387266159, -0.03357807546854019, -0.0044458769261837006, 0.029097460210323334, -0.04515804350376129, 0.04982377588748932, -0.0017143487930297852, -0.03350936621427536, -0.018421806395053864, -0.032296136021614075, -0.033762723207473755, 0.11478108912706375, 0.006804414093494415, -0.04001364856958389, 0.09446299076080322, -0.020821131765842438, 0.17522203922271729, -0.025789087638258934, -0.01143635530024767, 0.047560885548591614, -0.004318848252296448, 0.017842337489128113, 0.19988276064395905, -0.16925469040870667, -0.04235392436385155, -0.05300695821642876, 0.003610670566558838, 0.23246517777442932, -0.01645815744996071, 0.006478030234575272, 0.01373271644115448, -0.02680853381752968, -0.012596982531249523, -0.0719500407576561, 0.040971532464027405, 0.00029824674129486084, 0.024138063192367554, 0.016822107136249542, -0.017173655331134796, 0.12992794811725616, -0.025352930650115013, -0.02026483044028282, -0.05576484650373459, 0.04671957343816757, 0.02191004902124405, 0.11810368299484253, 0.07979290187358856, 0.05273866653442383, 0.12827494740486145, -0.007415765896439552, 0.021355856209993362, 0.03306301683187485, 0.020173050463199615, -0.00970641802996397, -0.021612033247947693, 0.025087669491767883, -0.06185105815529823, 0.037845976650714874, 0.052177995443344116, 0.008845746517181396, -0.006745193153619766, 0.2607840299606323, -0.005436602979898453, 0.011327385902404785, 0.24999022483825684, 0.005321221426129341, -0.007592193782329559, -0.0036849044263362885, 0.0037817619740962982, 0.05549018085002899, 0.1601799577474594, 0.040359899401664734, 0.04096408933401108, 0.03310748562216759, -0.026985520496964455, -0.02398870512843132, 0.004791673272848129, -0.04602382332086563, -0.004079069942235947, -0.029056403785943985, -0.02295614406466484, 0.00662371888756752, 0.030998677015304565, 0.04447278007864952, 0.04855319857597351, 0.15135183930397034, 0.07827328890562057, -0.027936840429902077, 0.0519426092505455, -0.003430761396884918, 0.021399732679128647, 0.027369558811187744, 0.17418456077575684, 0.021284766495227814, -0.05138155817985535, 0.009582622908055782, -0.007977623492479324, 0.03901258111000061, -0.02513967454433441, -0.039388660341501236, 0.15570200979709625, 0.04946306347846985, 0.033985383808612823, 0.0008853301405906677, 0.039224639534950256, -0.03330392390489578, 0.029410764575004578, 0.0062369704246521, 0.24924057722091675, -0.017796598374843597, -0.018254555761814117, 0.05137395113706589, -0.029605746269226074, 0.04741692543029785, -0.08897683024406433, 0.005282469093799591, -0.05050567165017128, 0.016185380518436432, 0.0009600355406291783, -0.046054985374212265, -0.050970740616321564, -0.015009276568889618, -0.0074302516877651215, 0.02614256739616394, 0.01569075882434845, -0.0197148434817791, -0.026318009942770004, -0.023790594190359116, 0.08904314786195755, -0.04186781868338585, 0.039532970637083054, -0.021437153220176697, -0.021932048723101616, -0.050076793879270554, -0.034840770065784454, -0.053044576197862625, 0.029099896550178528, -0.04151031747460365, 0.012852579355239868, 0.05354244261980057, 0.03273053467273712, -0.05069267749786377, 0.04368621110916138, -0.012150044552981853, 0.022390127182006836, 0.14800295233726501, -0.032475631684064865, -0.006081977393478155, -0.0342181995511055, -0.0204504132270813, 0.1522444784641266, 0.04413266479969025, -0.022741645574569702, -0.04044714197516441, -0.06997320801019669, -0.2199954390525818, -0.04534969478845596, 0.013784818351268768, -0.04280880466103554, -0.03612877428531647, 0.05209502577781677},
    {0.04511451721191406, 0.056492969393730164, -0.04353606328368187, 0.05451587215065956, 0.049920838326215744, 0.020888976752758026, -0.003447011113166809, 0.050434499979019165, -0.0324210450053215, -0.05288603529334068, -0.0348643958568573, -0.04465906694531441, 0.0337388701736927, 0.0052931420505046844, -0.012093819677829742, 0.059168826788663864, -0.04135240241885185, 0.01442229375243187, -0.00042062997817993164, 0.044628486037254333, -0.006569884717464447, -0.00489334762096405, 0.11824993789196014, -0.01853898912668228, -0.02084207348525524, -0.06721004098653793, 0.009747984819114208, -0.0050749629735946655, 0.043000221252441406, 0.03190375491976738, -0.020460881292819977, 0.008316859602928162, -0.008023320697247982, -0.02638198435306549, 0.02506726235151291, -0.03164714574813843, -0.20854943990707397, -0.054215122014284134, -0.019594894722104073, 0.02090030163526535, 0.0031348930206149817, 0.029869504272937775, 0.0449746772646904, -0.0165560282766819, 0.033245861530303955, 0.035446345806121826, -0.02896765060722828, 0.0019857920706272125, 0.0071492306888103485, -0.04857918620109558, -0.03244174271821976, -0.03633108362555504, 0.011713400483131409, 0.022707462310791016, -0.06217353418469429, 0.05708181485533714, -0.038280732929706573, 0.019179485738277435, -0.028717469424009323, 0.014890119433403015, 0.027421273291110992, -0.009303003549575806, -0.04752141237258911, 0.03807823732495308, -0.03698117658495903, -0.003043423406779766, -0.004249196499586105, -0.03492266312241554, 0.01034445222467184, 0.013077110052108765, -0.054994672536849976, 0.06400532275438309, -0.014897809363901615, -0.03872276470065117, -0.0025958530604839325, 0.044328972697257996, -0.012219954282045364, 0.0565805621445179, -0.02026028372347355, -0.035342272371053696, 0.052466485649347305, -0.03968003764748573, -0.13329081237316132, -0.1995813548564911, 0.01956862583756447, 0.062394239008426666, -0.008905190043151379, 0.009704509750008583, 0.03839140385389328, 0.08698995411396027, -0.018641337752342224, 0.04922258481383324, -0.10185978561639786, 0.004869520664215088, -0.043675072491168976, 0.05322108417749405, 0.08685653656721115, 0.06673774868249893, 0.03798577934503555, -0.05259782075881958, 0.1262604296207428, 0.10171609371900558, -0.016396965831518173, -0.04687235876917839, 0.010508619248867035, 0.14780762791633606, 0.050968337804079056, 0.08701366931200027, -0.0020902298856526613, -0.032760024070739746, -0.03089696727693081, 0.059701863676309586, -0.07115568220615387, -0.013850821182131767, -0.054737240076065063, -0.0570112019777298, 0.0175296813249588, -0.04822775349020958, -0.0465279221534729, -0.03332209587097168, -0.02306554839015007, 0.0660211443901062, 0.030429556965827942, -0.03362976759672165, -0.006661556661128998, 0.027427010238170624, 0.025862321257591248, -0.05225849896669388, 0.013822943903505802, 0.00921863317489624, -0.1362166553735733, -0.005591768771409988, 0.0022460073232650757, -0.04952806979417801, 0.09100286662578583, 0.08396922051906586, -0.07664521038532257, -0.008346970193088055, -0.07536882907152176, -0.08427722752094269, 0.0005285145598463714, 0.018407020717859268, 0.029479242861270905, -0.021419983357191086, -0.10446315258741379, -0.028267990797758102, 0.06510476022958755, -0.0486006997525692, -0.05539749562740326, 0.028952404856681824, -0.11943510919809341, -0.004953879863023758, 0.01444203406572342, -0.03478371351957321, 0.04532400891184807, -0.02213842049241066, -0.055802639573812485, 0.014177756384015083, -0.02644750289618969, 0.01792977750301361, -0.023325879126787186, 0.047663018107414246, -0.05569681525230408, -0.013488546013832092, -0.02214799076318741, -0.021792825311422348, -0.009571783244609833, -0.0241260826587677, 0.016380518674850464, 0.04517419636249542, -0.033647023141384125, 0.06736238300800323, 0.008763879537582397, 0.014754347503185272, 0.08942146599292755, -0.06270738691091537, -0.029678627848625183, -0.05907551571726799, 0.033506475389003754, 0.029593534767627716, -0.04726294055581093, -0.045544710010290146, 0.03778074309229851, 0.12010898441076279, -0.04903097823262215, 0.020186837762594223, 0.044721800833940506, -0.08685111254453659, -0.008582137525081635, -0.07186433672904968, 0.034478962421417236, 0.033024467527866364, -0.0477631501853466, -0.0031805518083274364, 0.05016423016786575, 0.020450398325920105, -0.02553197182714939, 0.01441984623670578, 0.021124033257365227, -0.11829216778278351, -0.11808853596448898, -0.04023938626050949, 0.020683035254478455, -0.02409369871020317, 0.004093860276043415, 0.04229351878166199, 0.045209452509880066, -0.044000864028930664, 0.1336642950773239, -0.023937800899147987, -0.07351294904947281, 0.006266288459300995, -0.03373751789331436, 0.03798315301537514, -0.030069492757320404, -0.04759054258465767, -0.06131377071142197, 0.008812151849269867, -0.003622986376285553, 0.0034033767879009247, 0.044482357800006866, 0.03966164216399193, 0.040620967745780945, -0.01724027842283249, -0.1496080607175827, 0.07311375439167023, -0.0754489079117775, 0.00039497262332588434, 0.06462692469358444, -0.011736336164176464, 0.043943606317043304, 0.04180343449115753, -0.0033936090767383575, -0.025957467034459114, -0.00019356608390808105, -0.018709056079387665, 0.03869781643152237, 0.0023165009915828705, -0.012267973273992538, -0.015565766021609306, -0.000703766942024231, -0.07097078114748001, 0.0035779885947704315, 0.03523191064596176, 0.043400950729846954, 0.01729036495089531, 0.008245730772614479, -0.007748403586447239, -0.030898571014404297, -0.0024838510435074568, -0.031079016625881195, 0.004400245845317841, 0.026073835790157318, 0.050608113408088684, -0.007895763963460922, -0.06590154767036438, 0.03957812488079071, -0.03753875195980072, 0.0424669086933136, 0.047470033168792725, 0.06966657936573029, -0.044016703963279724, -0.019069071859121323, 0.04432962089776993, -0.03598933666944504, -0.033977702260017395, 0.031914323568344116, -0.0042699165642261505, -0.1125074103474617, -0.025552550330758095, -0.01390404999256134, -0.047201965004205704, 0.026584595441818237, -0.004708342254161835, -0.08121639490127563, 0.030011095106601715, -0.015543706715106964, 0.044639378786087036, -0.06745128333568573, -0.03938664123415947, 0.0007926039397716522, 0.0018879419658333063, -0.024087578058242798, 0.01970244199037552, 0.00609835609793663, -0.03991081193089485, 0.023553915321826935, -0.028576519340276718, 0.050100311636924744, 0.010710030794143677, -0.05639342591166496, -0.029132314026355743, 0.021916380152106285, -0.034963443875312805, 0.031939953565597534, -0.009644873440265656, 0.034225285053253174, -0.054017823189496994, 0.013135753571987152, -0.0004858758475165814, 0.03164161369204521, -0.035913653671741486, 0.05162796378135681, -0.0288083553314209, 0.032037414610385895, -0.22197914123535156, 0.01339513435959816, -0.04064686968922615, -0.014359727501869202, -0.002029959112405777, 0.07421977072954178, 0.009983859956264496, -0.03504432737827301, -0.1550234854221344, -0.06449506431818008, 0.0040546562522649765, -0.04344984143972397, 0.005241669714450836, -0.05552889034152031, 0.01677808165550232, -0.017127709463238716},
    {-0.01169878151267767, -0.020400218665599823, -0.04706347733736038, -0.03534968942403793, -0.0275209192186594, 0.018599987030029297, 0.03300974518060684, 0.041401758790016174, -0.013796016573905945, 0.005737941712141037, -0.011377159506082535, -0.020500946789979935, -0.05666184797883034, 0.0065480805933475494, -0.0033201128244400024, 0.12849654257297516, 0.050293952226638794, 0.1152942031621933, 0.0543636828660965, -0.04720625653862953, 0.03914044797420502, 0.04233836382627487, 0.060537874698638916, 0.013016439974308014, -0.01582704484462738, 0.047308601438999176, -0.009604799561202526, -0.009665783494710922, 0.028837144374847412, -0.012040457688272, 0.03795597702264786, -0.053890883922576904, 0.007098541595041752, 0.029397405683994293, -0.02758023329079151, 0.03147948160767555, -0.24383650720119476, 0.001814134418964386, -0.00624799495562911, 0.036403924226760864, -0.05834304913878441, 0.026081591844558716, -0.027766956016421318, 0.031855590641498566, -0.034283727407455444, 0.05143547058105469, -0.12682630121707916, -0.05495097115635872, -0.01829792559146881, -0.04578022286295891, 0.033817730844020844, -0.04297995939850807, 0.01803477853536606, -0.03995206207036972, -0.022469760850071907, 0.028453204780817032, -0.026933755725622177, -0.03216990828514099, -0.05454554781317711, 0.025498129427433014, 0.04021110385656357, -0.03327712416648865, 0.029689989984035492, 0.003937127534300089, -0.07718139886856079, -0.06189817935228348, -0.014803405851125717, -0.010134678333997726, 0.0019629818852990866, -0.024895653128623962, -0.01731901615858078, 0.02883136458694935, -0.07619503140449524, -0.008170976303517818, -0.053650036454200745, -0.04668451473116875, 0.023111283779144287, -0.06819096952676773, -0.03585228696465492, -0.026999512687325478, -0.06942468136548996, -0.054897505789995193, -0.05862605944275856, 0.07146228849887848, -0.04407327622175217, 0.1895129531621933, 0.05173551291227341, 0.01371852308511734, 0.03081759810447693, 0.025329146534204483, 0.05730416998267174, 0.07349024713039398, -0.0626450777053833, 0.02077580988407135, -7.071346044540405e-05, -0.014180533587932587, 0.08613959699869156, 0.09501992166042328, -0.03000275418162346, -0.012463688850402832, 0.0938936322927475, 0.07255788147449493, 0.02643408626317978, 0.011079803109169006, 0.05535798519849777, 0.12650378048419952, 0.00041161265107803047, 0.1339246928691864, -0.09731864184141159, -0.015117529779672623, 0.06511437147855759, 0.019874174147844315, 0.03363719955086708, -0.011634654365479946, 0.10284397006034851, -0.031642280519008636, -0.025330454111099243, -0.01827385649085045, 0.03848829120397568, 0.013822495937347412, -0.005411449819803238, -0.07294296473264694, 0.040139663964509964, 0.0010480694472789764, -0.004885036498308182, 0.018223971128463745, 0.0259082093834877, -0.03874736651778221, 0.020770922303199768, -0.03787411004304886, -0.13424040377140045, -0.06754225492477417, 0.01767919957637787, 0.05535770207643509, -0.038650400936603546, 0.03519558906555176, -0.07736676186323166, -0.06651833653450012, 0.007161677349358797, -0.03874196857213974, 0.041957318782806396, 0.035327885299921036, 0.04915955662727356, 0.03448802977800369, -0.12557628750801086, 0.0315156951546669, 0.13944792747497559, 0.1428564041852951, -0.024265974760055542, 0.041041985154151917, -0.09987751394510269, 0.050025492906570435, -0.030262457206845284, 0.03473275154829025, 0.07643228769302368, -0.013884194195270538, -0.04574139416217804, 0.038716696202754974, -0.04223734140396118, -0.0014867372810840607, 0.045042186975479126, -0.015038583427667618, 0.029292874038219452, 0.047051385045051575, -0.03261648118495941, -0.05381957069039345, 0.02218388020992279, -0.0077817402780056, 0.014576292596757412, 0.016543596982955933, -0.02455732971429825, 0.020899631083011627, 0.0003192126750946045, 0.04472677409648895, 0.15355537831783295, -0.10621155798435211, -0.03611673042178154, 0.023240184411406517, 0.02810770645737648, -0.018467184156179428, -0.0332484096288681, -0.041099365800619125, 0.12322930991649628, -0.09742552787065506, 0.006329596042633057, 0.013624333776533604, -0.020207304507493973, 0.026325978338718414, -0.03726460784673691, 0.029776981100440025, -0.024849457666277885, 0.026831626892089844, -0.06146693602204323, -0.021910062059760094, 0.04889976978302002, -0.031228570267558098, 0.051568277180194855, 0.042903169989585876, -0.04300369694828987, 0.08739519119262695, -0.08021299540996552, -0.005427371710538864, 0.04517658054828644, -0.027013685554265976, 0.00552159221842885, 0.0978449210524559, -0.0009814230725169182, 0.04411672055721283, 0.19994544982910156, -0.005533854477107525, 0.13409507274627686, -0.03871860355138779, -0.11923056095838547, -0.0044561526738107204, -0.009627447463572025, -0.032549552619457245, -0.0719248428940773, -0.040007904171943665, 0.03609989583492279, -0.03310856968164444, 0.012271992862224579, 0.14610548317432404, 0.038274675607681274, 0.012864775024354458, 0.020283952355384827, 0.05305110663175583, -0.024577617645263672, -0.00857166014611721, 0.0444435179233551, 0.035309478640556335, 0.0578143484890461, -0.0057344622910022736, -0.03812457621097565, 0.08213035017251968, -3.0882656574249268e-06, 0.03751382231712341, 0.009356990456581116, -0.054392799735069275, -0.039338044822216034, -0.03503163531422615, -0.0021512210369110107, -0.046858903020620346, -0.02450965717434883, -0.05092373862862587, 0.03520797938108444, 0.06318435817956924, 0.10075484961271286, -0.06836012005805969, -0.00041832029819488525, -0.028982825577259064, 0.06846924871206284, 0.04288601875305176, 0.14363166689872742, 0.04653342813253403, -0.023774519562721252, 0.09523503482341766, 0.0230596661567688, -0.009453274309635162, -0.04305455461144447, 0.007428430020809174, 0.02477552741765976, 0.04876852035522461, -0.05342885106801987, 0.005957131739705801, -0.017633099108934402, 0.004910964518785477, 0.03327486664056778, -0.02562333270907402, 0.001332802465185523, -0.006476446986198425, 0.05056845396757126, 0.026244059205055237, 0.032444216310977936, -0.0038389749825000763, -0.05460212007164955, 0.040114015340805054, 0.007256694138050079, 0.013129018247127533, -0.07527486234903336, -0.07853154093027115, -0.025342198088765144, -0.06467118859291077, -0.01635328307747841, 0.015350677073001862, 0.005982458591461182, -0.09313835948705673, 0.051913440227508545, -0.004371237009763718, -0.0024315332993865013, -0.012366700917482376, 0.14923349022865295, -0.08930555731058121, 0.07072442024946213, -0.008512092754244804, -0.03915030136704445, 0.01819508522748947, -0.03381199389696121, -0.022231686860322952, -0.04589110612869263, 0.011784126050770283, 0.04777935892343521, 0.033221274614334106, -0.03954920545220375, -0.0536586232483387, 0.03549664467573166, -0.20849956572055817, 0.08234284073114395, -0.00022973510203883052, 0.006220776587724686, -0.03370453789830208, 0.06720183789730072, 0.02123100310564041, -0.01790066808462143, 0.05284807085990906, -0.17792199552059174, -0.1616530418395996, 0.013517342507839203, -0.00912797823548317, 0.04321359843015671, 0.0504116415977478, -0.05068995803594589},
    {0.12336200475692749, 0.008651241660118103, -0.015101836062967777, -0.008198650553822517, -0.02393249049782753, -0.050253041088581085, -0.03662407025694847, -0.01852262392640114, -0.014175258576869965, -0.028535407036542892, -0.04599171504378319, 0.04087024927139282, -0.005373374558985233, 0.004091665148735046, 0.049628376960754395, 0.08173729479312897, 0.03760688751935959, 0.08208119124174118, 0.0017422623932361603, -0.018358483910560608, 0.007805079221725464, -0.03791031241416931, 0.0775211825966835, -0.04208099842071533, -0.04495073854923248, -0.04836934059858322, -0.009153143502771854, -0.007252007722854614, 0.03516910970211029, 0.017005616798996925, -0.010213810950517654, -0.05576099455356598, 0.030518149957060814, -0.04321955144405365, 0.040954820811748505, 0.018552280962467194, -0.0024757643695920706, 0.023977242410182953, 0.012621774338185787, -0.04250076785683632, -0.05137239769101143, -0.015483353286981583, -0.09891437739133835, -0.05305849760770798, -0.04406441003084183, -0.05074259266257286, -0.0652507096529007, 0.02017652988433838, -0.06887341290712357, -0.10918349772691727, 0.0387762188911438, -0.05440748482942581, -0.029089106246829033, 0.04155062139034271, -0.06894571334123611, 0.036976441740989685, -0.017740849405527115, -0.04474668204784393, -0.04428630694746971, 0.004481222480535507, 0.029476970434188843, -0.02686884254217148, 0.004583001136779785, 0.023629672825336456, 0.04963672161102295, -0.10441374033689499, 0.04669923335313797, -0.012018933892250061, -0.086080402135849, 0.005501646548509598, -0.04930052161216736, 0.05339530482888222, -0.009639744646847248, -0.05827502906322479, 0.011326968669891357, -0.030263621360063553, 0.045541584491729736, 0.007376437541097403, -0.07993466407060623, 0.026748299598693848, -0.061666201800107956, -0.059297651052474976, -0.0664711520075798, -0.009753672406077385, -0.06717506796121597, 0.1463087499141693, -0.013637196272611618, 0.0033631413243710995, 0.0699053406715393, -0.006535633001476526, 0.027901144698262215, 0.10211806744337082, -0.09902769327163696, -0.04899756982922554, 0.04855769872665405, -0.05021743103861809, 0.17983068525791168, -0.00706652132794261, -0.027086514979600906, 0.033301226794719696, 0.0733790323138237, 0.11411552131175995, -0.025829434394836426, -0.05265771597623825, -0.03053944744169712, 0.1728588044643402, 0.09720848500728607, 0.12345800548791885, -0.05729468911886215, -0.023051325231790543, -0.00369953247718513, -0.07835790514945984, -0.05250481143593788, -0.06303101032972336, 0.10129061341285706, -0.13030321896076202, -0.032309360802173615, -0.04330506548285484, -0.0439145565032959, -0.03501211851835251, -0.016080372035503387, -0.14279066026210785, 0.03909517452120781, 0.04104096442461014, -0.004459910094738007, 0.04652291536331177, -0.052834123373031616, -0.04419436678290367, 0.009013770148158073, 0.008310280740261078, -0.10266122967004776, -0.11530812829732895, 0.04024530202150345, -0.00654260441660881, -0.017783546820282936, 0.09726106375455856, -0.04507843405008316, -0.0901031419634819, -0.027538634836673737, 0.020536096766591072, 0.08003044128417969, 0.09391754865646362, 0.0301775261759758, -0.047396473586559296, -0.13842158019542694, 0.020005792379379272, 0.09739001095294952, 0.17206519842147827, -0.04469659551978111, 0.014933794736862183, -0.09361281991004944, 0.01712924987077713, -0.04120880365371704, -0.008893780410289764, 0.08814090490341187, -0.02802945114672184, -0.05314997211098671, -0.06878995150327682, -0.02556026354432106, 0.017445653676986694, -0.027678946033120155, 0.037747710943222046, -0.022757746279239655, 0.0455365926027298, -0.03487895429134369, 0.034913450479507446, 0.04529724270105362, -0.0030852407217025757, 0.01296787429600954, 0.013855800032615662, -0.03381193429231644, 0.04647355526685715, 0.03807137906551361, 0.018848709762096405, 0.07366632670164108, -0.08573967963457108, -0.0373159684240818, 0.03167051076889038, -0.017374757677316666, -0.019562888890504837, 0.048829518258571625, 0.022234275937080383, -0.014123227447271347, -0.051408834755420685, 0.034126341342926025, 0.0121528971940279, -0.054105598479509354, -0.06404304504394531, -0.03494147211313248, -0.05832240357995033, -0.054072096943855286, -0.002143528312444687, -0.029553601518273354, -0.038835521787405014, -0.015360891819000244, 0.008159928023815155, -0.01866178959608078, 0.006510287523269653, -0.026205092668533325, 0.08835577964782715, -0.04636138305068016, -0.05522814020514488, -0.034280043095350266, 0.024897471070289612, 0.007725290954113007, 0.0016139886574819684, 0.041101228445768356, 0.04270349442958832, 0.14564724266529083, -0.04733884707093239, 0.06715867668390274, -0.028804823756217957, -0.028060564771294594, 0.061773352324962616, 0.03233230486512184, 0.03107437491416931, -0.03726988285779953, 0.023887574672698975, 0.027199439704418182, -0.0041732266545295715, -0.039650797843933105, 0.0602567195892334, 0.018493205308914185, -0.0919557586312294, -0.09828511625528336, 0.15841765701770782, -0.04865491762757301, 0.004525341093540192, 0.05139395222067833, 0.04533614590764046, 0.04318328574299812, 0.025490224361419678, -0.036924876272678375, 0.046106766909360886, -0.035826556384563446, -0.0451844185590744, -0.05027826502919197, -0.051395826041698456, -0.029819373041391373, -0.05722430348396301, 0.0423913449048996, -0.08972622454166412, -0.053787581622600555, 0.0021605452056974173, -0.00525636225938797, 0.06612160056829453, 0.017456745728850365, -0.08348649740219116, -0.03078603744506836, 0.06085262447595596, 0.07760784029960632, 0.007952123880386353, 0.11545538902282715, 0.03391553461551666, 0.003157384693622589, 0.16853757202625275, -0.028682583943009377, 0.05092287063598633, 0.01800348609685898, -0.04481308534741402, 0.0627652257680893, 0.02692275494337082, -0.04067060723900795, 0.022970804944634438, 0.020341388881206512, -0.007777336984872818, -0.04979715496301651, 0.03915758430957794, -0.15320122241973877, 0.0001331120729446411, 0.02222524583339691, 0.013792060315608978, 0.01928117126226425, 0.03905023634433746, -0.08433907479047775, 0.010767117142677307, 0.02620941400527954, 0.035027265548706055, -0.05793912336230278, -0.08899517357349396, -0.01695111393928528, -0.08171148598194122, 0.005461286753416061, -0.010670038871467113, 0.01272282749414444, -0.07317978143692017, 0.04489762336015701, 0.031691938638687134, -0.002233860781416297, 0.009199179708957672, 0.1404181867837906, -0.062373898923397064, 0.03801635652780533, -0.018690932542085648, -0.03717336803674698, -0.021476589143276215, 0.04958014190196991, 0.009736143052577972, 0.027273178100585938, -0.01328183338046074, -0.021064259111881256, 0.0011979490518569946, 0.045769430696964264, -0.0026251482777297497, 0.043950244784355164, 0.002819466171786189, 0.12650223076343536, -0.07115475088357925, 0.04816201329231262, -0.01115434244275093, -0.00011558195546967909, 0.009294047951698303, -0.09272116422653198, 0.08806775510311127, -0.21091042459011078, -0.10138823837041855, -0.03907463699579239, -0.03342815488576889, 0.025959037244319916, 0.01792433112859726, 0.0071496507152915},
    {0.07277767360210419, -0.008995181880891323, 0.03531036898493767, 0.06998822093009949, 0.047935035079717636, 0.042165257036685944, 0.009421519935131073, 0.03411263972520828, -0.031316712498664856, 0.037301793694496155, -0.024459108710289, 0.04271906614303589, 0.06628909707069397, 0.03892918676137924, 0.04263712465763092, 0.048513513058423996, 0.02247605472803116, 0.10605407506227493, 0.03375715762376785, 0.006323289126157761, -0.04117580130696297, 0.024921633303165436, 0.06180427223443985, -0.053469810634851456, -0.028753511607646942, 0.034414228051900864, -0.07510915398597717, 0.03669238090515137, -0.033212810754776, 0.04384820535778999, -0.043718479573726654, 0.02255351096391678, 0.06309927254915237, 0.01799684762954712, -0.03769979998469353, 0.10764890909194946, -0.2600017786026001, -0.014972265809774399, 0.049402009695768356, 0.0361228808760643, 0.01913841813802719, -0.04687947779893875, -0.08501716703176498, 0.042896002531051636, 0.0012167207896709442, -0.04125715047121048, 0.07963592559099197, 0.021402083337306976, -0.029776688665151596, 0.0036321913357824087, -0.01408056914806366, -0.0403393879532814, 0.028701752424240112, 0.05443062633275986, -0.05871563032269478, 0.07776615768671036, 0.021436236798763275, -0.014660365879535675, 0.0339464470744133, 0.004854448139667511, -0.012119948863983154, 0.024754732847213745, 0.039742179214954376, 0.002493971958756447, 0.08567871153354645, 0.020402109250426292, 0.029841236770153046, 0.00323515385389328, 0.10932421684265137, -0.04780230298638344, -0.04127787426114082, 0.08179623633623123, -0.0083659952506423, -0.005695015657693148, -0.0026075318455696106, 0.06039061397314072, -0.0346103310585022, 0.016306886449456215, -0.0795411542057991, 0.010913550853729248, 0.07643880695104599, 0.007370073348283768, -0.119754858314991, -0.13635767996311188, -0.02090894989669323, 0.0811670795083046, 0.028397787362337112, -0.014208401553332806, 0.06607310473918915, 0.015566741116344929, 0.0016062089707702398, 0.022248847410082817, -0.040002305060625076, 0.002085469663143158, 0.005548447370529175, -0.014540188014507294, 0.09754981845617294, 0.013775276951491833, 0.011434927582740784, -0.005284219980239868, 0.030926741659641266, 0.06359381228685379, -0.017087087035179138, -0.0015519820153713226, -0.03398054838180542, 0.11002667248249054, 0.06369099020957947, 0.12447425723075867, 0.0010364993941038847, 0.020329728722572327, 0.04805275797843933, 0.12176954746246338, -0.06753150373697281, 0.06225349381566048, 0.013253734447062016, -0.06617056578397751, 0.04579520970582962, -0.004652880132198334, 0.04633399099111557, 0.021971918642520905, -0.03964764624834061, 0.027898147702217102, 0.063294418156147, -0.02694402076303959, 0.0027475841343402863, -0.04477718845009804, -0.047963254153728485, -0.01887676864862442, 0.040143828839063644, -0.037306711077690125, -0.0897347629070282, -0.0023156593088060617, 0.007230743765830994, 0.055287666618824005, 0.09831872582435608, 0.08324380218982697, 0.03288658335804939, -0.07661306858062744, -0.04015914350748062, -0.03725159913301468, 0.032535433769226074, 0.060869596898555756, 0.02418684959411621, -0.033788200467824936, -0.0840287059545517, 0.03796740621328354, 0.053671155124902725, -0.0015687503619119525, -0.0026388168334960938, -0.023684710264205933, -0.04814935475587845, -0.031332045793533325, -0.04477415606379509, 0.0471767783164978, -0.01522011123597622, -0.02266528829932213, -0.015937861055135727, -0.06741805374622345, -0.02894355170428753, 0.012922912836074829, -0.04495937377214432, -0.054904755204916, 0.02755078673362732, -0.014689788222312927, 0.030796386301517487, 0.04418041557073593, -0.03355623781681061, 0.02294393628835678, 0.07721125334501266, 0.02387777715921402, -0.001940947026014328, 0.0872768983244896, -0.0523269921541214, 0.030027247965335846, 0.09658736735582352, 0.0011317851021885872, 0.016142621636390686, 0.015071939677000046, 0.13113468885421753, -0.03868336230516434, -0.02709217742085457, 0.042323268949985504, 0.04434369131922722, -0.07999227941036224, 0.03922811150550842, 0.0562828928232193, 0.10858507454395294, -0.06894706189632416, -0.049038030207157135, -0.05285685509443283, -0.013632986694574356, -0.040804941207170486, -0.062333639711141586, 0.05789457634091377, -0.02221568301320076, 0.02102494239807129, 0.03719776123762131, -0.01641576737165451, -0.06588681042194366, -0.10979823768138885, -0.21361671388149261, 0.020039550960063934, -0.009586784988641739, 0.03184916824102402, 0.10141339898109436, 0.023920448496937752, 0.05579400435090065, -0.0436333604156971, 0.1029943898320198, 0.06510770320892334, -0.11525675654411316, -0.04263215884566307, 0.059806302189826965, 0.046576786786317825, -0.00020128628239035606, 0.02466253936290741, 0.01376805454492569, -0.04801786690950394, -0.0023459717631340027, 0.008936449885368347, -0.047052931040525436, 0.13804525136947632, -0.015076611191034317, -0.023404482752084732, -0.07258637994527817, 0.04194844886660576, -0.08361014723777771, 0.056153204292058945, -0.027748649939894676, 0.050390586256980896, 0.10796888917684555, -0.04773816838860512, -0.02266213670372963, -0.013850750401616096, 0.008135505020618439, -0.042137160897254944, -0.04504876956343651, -0.04051783308386803, 0.028560593724250793, 0.0004595371428877115, -0.025627383962273598, 0.03122803382575512, -0.0027069486677646637, 0.03398451209068298, 0.04012653976678848, 0.05609841272234917, 0.1265585720539093, 0.03511323034763336, 0.003326352685689926, 0.011596386320888996, 0.07822810113430023, -0.010682318359613419, 0.04515707120299339, -0.0368906706571579, -0.02590898610651493, -0.12616917490959167, -0.020474214106798172, -0.012532226741313934, 0.0253266841173172, 0.04377303272485733, 0.08168298006057739, -0.0295709278434515, 0.02891315519809723, 0.03864963725209236, 0.035716041922569275, -0.05304143205285072, -0.0012005716562271118, 0.04563875496387482, -0.08569347858428955, -0.046654485166072845, 0.0364033579826355, -0.01791096106171608, -0.048664163798093796, 0.05011003464460373, -0.004585916176438332, 0.054545290768146515, 0.009030058979988098, -0.04089493304491043, -0.002486791694536805, -0.06901562213897705, 0.03800433874130249, 0.11990496516227722, 0.0047997646033763885, -0.04131442308425903, -0.006075847893953323, 0.0941254049539566, 0.02765185385942459, 0.03344276547431946, 0.022342577576637268, 0.015517354011535645, -0.12977954745292664, -0.01570228673517704, 0.0031595355831086636, -0.00777682987973094, -0.013807114213705063, 0.05165831744670868, -0.0388159304857254, 0.030920684337615967, 0.03412191569805145, -0.07536635547876358, -0.02074228972196579, -0.046005167067050934, -0.04622538760304451, 0.04861874505877495, -0.011361539363861084, -0.209626242518425, -0.045260366052389145, -0.0591866672039032, 0.03456231206655502, -0.004685848951339722, 0.07754991948604584, -0.034784819930791855, 0.06345852464437485, -0.187965989112854, -0.23941124975681305, -0.16167809069156647, -0.04304187372326851, -0.02317788451910019, -0.0499434694647789, 0.012265637516975403, -0.0031580862123519182},
    {0.08373101055622101, 0.061213795095682144, -0.08216994255781174, 0.022054076194763184, 0.022002650424838066, 0.014534421265125275, -0.02106577903032303, 0.02916727215051651, -0.04421442747116089, 0.023719176650047302, -0.021708451211452484, -0.03511251509189606, 0.010806145146489143, 0.04904581606388092, 0.03558504581451416, 0.07866620272397995, -0.0077666714787483215, 0.08563721925020218, 0.03510384261608124, -0.022678643465042114, 0.02925673872232437, 0.031028158962726593, 0.016579441726207733, -0.03281348943710327, -0.08456787467002869, 0.04881836846470833, -0.11234969645738602, 0.05524476617574692, -0.01171962171792984, -0.011779117397964, -0.04282025992870331, -8.890032768249512e-05, 0.07126369327306747, 0.036873213946819305, 0.031852953135967255, 0.012996155768632889, -0.16352911293506622, -0.04171501845121384, 0.05092539265751839, 0.031501978635787964, -0.011215778067708015, -0.0068667493760585785, -0.04653501510620117, -0.04963283613324165, -0.04818654805421829, -0.0117124542593956, -0.08282767236232758, -0.007217660546302795, -0.06265720725059509, -0.06680410355329514, 0.020789451897144318, 0.003259024815633893, 0.008740097284317017, 0.0036442577838897705, -0.015891067683696747, 0.05856810137629509, -0.013907037675380707, -0.01709309220314026, -0.02067762240767479, 0.029436148703098297, -0.043177150189876556, -0.035327985882759094, -0.0068252719938755035, -0.04427667334675789, 0.015257306396961212, -0.121949203312397, -0.010768748819828033, 0.007939204573631287, -0.03854306787252426, -0.007059264928102493, 0.008873239159584045, 0.017339510843157768, 0.015438995324075222, -0.06554169952869415, 0.010656528174877167, -0.0713030993938446, 0.021106362342834473, 0.011356077156960964, -0.06868612766265869, -0.023124612867832184, -0.022399509325623512, -0.10232953727245331, -0.20913183689117432, -0.18548257648944855, -0.031199244782328606, 0.1138976588845253, 0.07529067993164062, 0.008868841454386711, -0.025125669315457344, 0.05036631226539612, 0.06349170953035355, 0.09493109583854675, -0.07221388816833496, 0.021740175783634186, -0.01804901659488678, 0.05566536635160446, 0.035805586725473404, 0.031809620559215546, -0.04030761867761612, -0.029975254088640213, 0.06670747697353363, 0.12408629804849625, 0.0304984450340271, 0.05260005593299866, -0.025276945903897285, 0.07791692763566971, -0.007772181648761034, 0.09323324263095856, -0.0539269857108593, -0.0008308365941047668, 0.025685787200927734, 0.0013122493401169777, -0.0035939558874815702, -0.02360616996884346, -0.027486862614750862, -0.05040286108851433, 0.04978347569704056, 0.036539047956466675, -0.023514941334724426, -0.009913045912981033, -0.05230012536048889, 0.014002791605889797, 0.09183080494403839, 0.04428570717573166, -0.053699128329753876, 0.02172723412513733, -0.02948124334216118, 0.037533633410930634, 0.00536227785050869, -0.024372965097427368, -0.088394895195961, -0.08491409569978714, 0.04518558830022812, -0.007710166275501251, 0.07434666901826859, 0.012070491909980774, 0.04148584604263306, 0.0852576419711113, -0.08384497463703156, -0.0280391126871109, 0.063386470079422, 0.026416772976517677, 0.05206918716430664, 0.03698074817657471, -0.09898178279399872, -0.014419037848711014, 0.04156206548213959, -0.01737469807267189, 0.04323241114616394, 0.03647672384977341, -0.12386296689510345, 0.02633603662252426, 0.010863073170185089, -0.017788656055927277, 0.04626528546214104, -0.03330272436141968, -0.12325714528560638, 0.014939581975340843, 0.017573684453964233, 0.0010526664555072784, 0.024276651442050934, 0.007908746600151062, 0.026334337890148163, -0.0033375993371009827, -0.025787636637687683, -0.005871675908565521, 0.04641195386648178, 0.016209453344345093, -0.020822692662477493, 0.030405357480049133, 0.04969349503517151, 0.07387766242027283, 0.015832729637622833, -0.04464736580848694, 0.11083263158798218, -0.07608091086149216, 0.03706250339746475, 0.01131150871515274, 0.02073555812239647, 0.004389908164739609, 0.021682336926460266, -0.022304650396108627, 0.048831645399332047, -0.038225576281547546, -0.046290263533592224, -0.008640156127512455, 0.012750839814543724, -0.019360600039362907, -0.018312975764274597, -0.061486825346946716, -0.025982361286878586, -0.04478682577610016, -0.0263578612357378, 0.009016968309879303, -0.03849346935749054, -0.04943061247467995, 0.03744421899318695, -0.035688623785972595, -0.046273812651634216, -0.005418507382273674, -0.13075415790081024, -0.016978643834590912, -0.030039256438612938, -0.03355904668569565, -0.05479936674237251, 0.01680600270628929, 0.008129715919494629, -0.036572568118572235, 0.05363353714346886, -0.026322128251194954, -0.08896975964307785, 0.034407638013362885, -0.0577378123998642, 0.07025168836116791, -0.029438484460115433, -0.012950912117958069, -0.06865780800580978, 0.04112842679023743, -0.027607174590229988, -0.008652765303850174, -0.04311263561248779, 0.05428878590464592, 0.04760763794183731, -0.04031135514378548, -0.04223773628473282, 0.031243382021784782, -0.06570012867450714, -0.0016204178100451827, 0.004973636474460363, 0.029510512948036194, 0.029991915449500084, 0.03052709996700287, -0.04021694138646126, 0.017257891595363617, -0.04501897096633911, 0.03889753669500351, -0.026670338585972786, 0.008089430630207062, -0.01141851395368576, -0.04655397683382034, 0.05317142605781555, -0.012634963728487492, -0.010029535740613937, -0.004854198545217514, 0.003194015473127365, -0.01505765225738287, 0.10463450103998184, -0.11445209383964539, -0.0020862333476543427, 0.020130278542637825, 0.025998564437031746, -0.012521862983703613, 0.06107751280069351, -0.03907904028892517, 0.025709018111228943, 0.008023452945053577, 0.00908997654914856, 0.003373030573129654, 0.026291102170944214, -0.044909730553627014, 0.07117237895727158, -0.041365571320056915, 0.029869213700294495, 0.03079572506248951, -0.050013650208711624, 0.005299456417560577, -0.018259160220623016, 0.01085711270570755, 0.009233284741640091, -0.02538653090596199, 0.046126268804073334, 0.018228188157081604, 0.01645481586456299, -0.03449077904224396, -0.008200840093195438, 0.025943398475646973, -0.027736186981201172, 0.012272082269191742, -0.027544839307665825, -0.08209466934204102, 0.046122752130031586, -0.03938160464167595, 0.042700812220573425, -0.06201537325978279, 0.019432321190834045, 0.04649868607521057, 0.025167636573314667, 0.051185376942157745, 0.020895954221487045, -0.048183705657720566, -0.032822754234075546, -0.07014891505241394, 0.0018195017473772168, 0.001196265104226768, -0.035737257450819016, -0.012711673974990845, 0.05269227176904678, -0.009224928915500641, -0.033060189336538315, -0.024883052334189415, 0.013533655554056168, -0.0265362411737442, 0.03858456760644913, -0.044019073247909546, -0.04607820510864258, -0.16576965153217316, -0.014436953701078892, -0.011367576196789742, -0.023377832025289536, -0.006345391273498535, 0.07974710315465927, 0.009586647152900696, -0.033558622002601624, -0.16988907754421234, -0.1728678047657013, -0.064764104783535, 0.040953584015369415, -0.023742135614156723, -0.014305435121059418, 0.013521037995815277, 0.021327145397663116},
    {0.05326345935463905, 0.07742170244455338, 0.0296048354357481, 0.04500243067741394, 0.06568631529808044, -0.003515157848596573, -0.04054195061326027, 0.05417440086603165, -0.01735983043909073, -0.013153303414583206, 0.007371380925178528, -0.02179906889796257, 0.05919143185019493, 0.002704918384552002, -0.020160436630249023, 0.09411084651947021, -0.052959542721509933, 0.11611031740903854, -0.0007086843252182007, -0.029909171164035797, 0.04092332720756531, 0.04043138027191162, 0.09848684072494507, -0.05207379534840584, -0.01145726628601551, 0.049442581832408905, 0.03450974449515343, 0.002071291208267212, 0.019229084253311157, -0.017965856939554214, 0.025297164916992188, 0.00305807963013649, -0.002501498209312558, -0.03313416242599487, -0.028000036254525185, -0.010471601970493793, -0.22320178151130676, 0.0380578488111496, 0.0051934183575212955, 0.03239775449037552, 0.0786362811923027, -0.05520773306488991, 0.07466452568769455, 0.002197049558162689, -0.023643895983695984, 0.020380161702632904, -0.12702025473117828, 0.015193350613117218, 0.03313083574175835, -0.0670379102230072, -0.014812994748353958, 0.026767443865537643, 0.04712056368589401, 0.0435829684138298, 0.01181641686707735, 0.08837518841028214, -0.038466840982437134, -0.002103600651025772, 0.024814888834953308, 0.014713451266288757, 0.0278400257229805, -0.05141637846827507, -0.015392497181892395, -0.0006070436793379486, 0.01349065825343132, -0.15331031382083893, -0.006046358495950699, 0.006326127797365189, 0.09519835561513901, -0.001157030463218689, -0.03180282190442085, 0.09791219979524612, -0.05954805761575699, -0.024036873131990433, -0.054124876856803894, 0.08139306306838989, -0.04225032031536102, 0.09865424782037735, -0.01823374256491661, 0.009076669812202454, 0.08288995921611786, -0.03521445766091347, -0.1313629001379013, -0.17105427384376526, 0.04993973299860954, 0.15208418667316437, 0.07029472291469574, 0.01987498812377453, 0.06546185910701752, -0.01353830099105835, -0.0022903364151716232, 0.05747031047940254, -0.06828638911247253, 0.006062585860490799, 0.012347593903541565, -0.032176170498132706, 0.09823139011859894, -0.005847126245498657, 0.02059343457221985, 0.04486565291881561, 0.08994097262620926, 0.05926353111863136, -0.01525161787867546, 0.008827507495880127, 0.040841035544872284, 0.14041045308113098, -0.015862923115491867, 0.009833517484366894, -0.09240050613880157, -0.027383998036384583, 0.04478449374437332, 0.11161821335554123, -0.0006193045992404222, 0.06923730671405792, -0.04797730594873428, -0.07478673756122589, 0.03801615536212921, -0.037174902856349945, -0.016876790672540665, -0.050903305411338806, 0.012597605586051941, -0.09542171657085419, 0.08927708864212036, -0.046854276210069656, -0.04076909273862839, 0.03254234790802002, -0.03418782353401184, 0.03720653057098389, 0.0730128139257431, 0.04945001006126404, -0.115560382604599, -0.017518602311611176, -0.023875702172517776, 0.02081657201051712, 0.04683222621679306, 0.0006847836775705218, -0.07341956347227097, 0.12183713912963867, -0.04204680398106575, 0.02094714343547821, 0.01427636481821537, -0.0190688818693161, 0.019380338490009308, -0.04330797120928764, -0.17536069452762604, -0.03855183720588684, 0.1449243426322937, -0.0029365913942456245, -0.009137075394392014, -0.05198071897029877, -0.07931707799434662, 0.013884283602237701, -0.0100528784096241, 0.02150854468345642, 0.03137105330824852, -0.01680222526192665, -0.13743872940540314, 0.02343357913196087, -0.040930889546871185, 0.0415419265627861, -0.03194735199213028, 0.033893294632434845, 0.0341421440243721, 0.013113588094711304, -0.04289961978793144, -0.02923385612666607, 0.014767065644264221, -0.024369750171899796, 0.12497083842754364, -0.024282537400722504, -0.015758324414491653, 0.029672052711248398, 0.025891490280628204, -0.011580713093280792, 0.10708294063806534, -0.0024502056185156107, -0.00046717305667698383, 0.02813808247447014, 0.043327149003744125, -0.031630486249923706, 0.0456472784280777, -0.004548218101263046, 0.03316705673933029, 0.10079127550125122, -0.04508071392774582, 0.07924728095531464, 0.11801407486200333, -0.13901808857917786, -0.07958707213401794, 0.04579319432377815, -0.055456630885601044, 0.02194860577583313, -0.04245228320360184, 0.06296698749065399, -0.0016058944165706635, -0.036734744906425476, -0.0037858746945858, 0.04306924343109131, 0.02295847237110138, -0.09695934504270554, -0.19243183732032776, -0.04040507972240448, -0.022813379764556885, -0.04501457139849663, 0.05538918823003769, 0.053676899522542953, 0.020453322678804398, -0.02363324910402298, 0.0824061930179596, 0.02493228018283844, -0.10893111675977707, -0.018522314727306366, 0.01906542107462883, -0.017643040046095848, 0.03745591640472412, 0.0020671039819717407, 0.046519685536623, 0.045486852526664734, 0.027482807636260986, -0.013929087668657303, -0.008185580372810364, 0.043017707765102386, 0.019457630813121796, -0.09021081775426865, -0.11506449431180954, 0.03593900799751282, -0.01464027538895607, -0.0011382531374692917, 0.0043421234004199505, 0.03534729406237602, 0.09318310022354126, 0.001588631421327591, 0.03550740331411362, 0.008887003175914288, -0.05241886526346207, -0.001105763018131256, 0.04506240785121918, -0.016024768352508545, -0.0423709973692894, 0.017474722117185593, -0.021349038928747177, -0.08213648945093155, -0.036805130541324615, -0.03966207802295685, 0.05057957023382187, -0.018934862688183784, 0.050988055765628815, -0.10531764477491379, 0.009032778441905975, 3.31737901433371e-05, -0.04192016273736954, 0.0020023994147777557, 0.06359866261482239, -0.042930953204631805, -0.05528327822685242, -0.025508617982268333, 0.025572650134563446, 0.016364537179470062, 0.0423441156744957, 0.0027653537690639496, 0.051607608795166016, 0.015214003622531891, 0.044109150767326355, -0.0424189455807209, 0.01918458193540573, -0.04304920509457588, -0.004200015217065811, -0.03655628487467766, -0.18352161347866058, 0.03137318789958954, -0.023850664496421814, 0.02339784801006317, 0.022793948650360107, 0.010091640055179596, 0.0025982772931456566, -0.019971787929534912, 0.043724425137043, -0.015587884932756424, 0.02398487739264965, 0.0350000262260437, -0.0006170086562633514, 0.05983443558216095, 0.01639915257692337, 0.07668344676494598, -0.05456571280956268, -0.03950009495019913, -0.014469068497419357, -0.029827378690242767, 0.09244365245103836, -0.001047823578119278, -0.0063848476856946945, -0.12858889997005463, 0.05097711831331253, 0.039953719824552536, -0.037011392414569855, 0.030902758240699768, 0.03331080824136734, 0.05072346329689026, -0.051355477422475815, 0.05603281036019325, -0.018285652622580528, 0.05427563190460205, 0.020781859755516052, -0.07911675423383713, -0.009900212287902832, -0.18644574284553528, -0.09296081215143204, 0.005949466489255428, -0.014544647186994553, 0.05396077781915665, 0.09418178349733353, -0.03045954555273056, 0.05304964259266853, -0.15517745912075043, 0.015131018124520779, 0.04108880087733269, -0.025108614936470985, -0.006332315504550934, 0.014758363366127014, -0.044269368052482605, 0.0360686220228672},
    {0.05553247034549713, 0.09048695117235184, 0.05801718309521675, 0.13030654191970825, 0.004272481892257929, 0.02795860916376114, -0.042015090584754944, 0.033216655254364014, -0.01045721024274826, 0.002144087105989456, -0.029610777273774147, -0.04041249305009842, 0.09732488542795181, 0.02235563099384308, 0.013643607497215271, 0.08338766545057297, 0.019041143357753754, -0.046859677881002426, -0.040345270186662674, -0.05427384003996849, 0.013765431940555573, -0.04971158877015114, 0.04105391725897789, 0.017971210181713104, 0.06371048092842102, 0.19806179404258728, 0.09597791731357574, -0.04994644969701767, -0.05235160514712334, -0.05881929770112038, 0.0254579558968544, -0.04551305994391441, 0.050868336111307144, -0.01378161832690239, 0.006606467068195343, 0.11802513897418976, 0.28530991077423096, 0.03826858848333359, 0.04617931321263313, 0.02154875546693802, 0.14435355365276337, -0.05136455222964287, -0.1646585315465927, -0.004511076956987381, 0.023233480751514435, 0.043693698942661285, 0.20066557824611664, -0.00047051534056663513, 0.04008863493800163, 0.1489160656929016, 0.044490352272987366, -0.08447999507188797, -0.0156329907476902, 0.03416354954242706, -0.08773954212665558, 0.019063271582126617, -0.026192788034677505, -0.021810811012983322, 0.04008343815803528, -0.04806564003229141, -0.002355612814426422, -0.029460538178682327, 0.029935933649539948, 0.1733323633670807, 0.15269777178764343, 0.15005162358283997, 0.009358450770378113, -0.005720376968383789, 0.10824637860059738, -0.019343990832567215, 0.028418712317943573, 0.0890510082244873, 0.07561499625444412, 0.0653938427567482, -0.022181756794452667, 0.09028972685337067, 0.0439995676279068, 0.07834943383932114, 0.14195512235164642, -0.0025692470371723175, 0.11183679848909378, 0.007995160296559334, -0.06425013393163681, -0.10287649929523468, -0.09815678745508194, 0.09499721229076385, -0.011367123574018478, -0.04868069291114807, -0.016679435968399048, -0.07399792224168777, 0.0076708318665623665, 0.021983768790960312, 0.1739751696586609, -0.006062787026166916, -0.013924993574619293, 0.001579195261001587, 0.1490115076303482, 0.13214842975139618, -0.014886364340782166, -0.007878702133893967, 0.06615826487541199, -0.07172609120607376, 0.05534203350543976, -0.03663240745663643, -0.015788931399583817, 0.14664751291275024, -0.07110083848237991, -0.10450177639722824, 0.15235580503940582, -0.05009036511182785, -0.04816841334104538, 0.13615620136260986, -0.04939742013812065, 0.09598628431558609, -0.040368206799030304, 0.18909718096256256, 0.034374140202999115, 0.008406996726989746, -0.0014317259192466736, -0.00668194517493248, -0.03672361373901367, 0.21609552204608917, 0.10032958537340164, -0.035896725952625275, -0.04206359386444092, -0.007102061063051224, 0.026344522833824158, 0.04990217834711075, 0.14789144694805145, -0.022460617125034332, 0.14318597316741943, 0.07525978982448578, -0.019652552902698517, 0.005527708679437637, 0.04273328557610512, 0.055187616497278214, 0.09191518276929855, -0.20117171108722687, 0.09277563542127609, -0.04797782748937607, -0.08709345012903214, 0.29935744404792786, 0.028814688324928284, 0.04562338441610336, 0.1997855305671692, -0.05289929732680321, 0.1446874588727951, -0.12687425315380096, -0.0236758254468441, 0.005154043436050415, 0.1413564234972, 0.04072394222021103, -0.04424482211470604, 0.03504566103219986, -0.02215796522796154, 0.015060700476169586, 0.21422505378723145, 0.030447369441390038, -0.019734863191843033, 0.04404066503047943, -0.016780685633420944, 0.052629925310611725, -0.03534560650587082, -0.05039389804005623, 0.012759320437908173, -0.01773509383201599, 0.032896630465984344, -0.03585498780012131, 0.048098914325237274, 0.016629695892333984, -0.03045596554875374, 0.10962989926338196, 0.014433734118938446, 0.004427000880241394, 0.03344925493001938, 0.18111176788806915, 0.04000076651573181, -0.0809679701924324, 0.18224014341831207, 0.0336160734295845, 0.05435481667518616, 0.04046563059091568, 0.03762247785925865, -0.1306799352169037, 0.04816148430109024, 0.13867588341236115, 0.1067865714430809, -0.14549194276332855, 0.014726553112268448, -0.040803126990795135, 0.02033895254135132, -0.025851590558886528, 0.04371105507016182, 0.12632553279399872, 0.04489284008741379, -0.03005054034292698, -0.04958495870232582, 0.021871939301490784, 0.06581106036901474, -0.15380290150642395, -0.08872067928314209, -0.0013299919664859772, -0.02997116930782795, -0.043139152228832245, 0.042197030037641525, -0.05100518465042114, 0.016436515375971794, 0.05229542404413223, 0.09622657299041748, 0.12180902808904648, -0.12275433540344238, 0.03304369002580643, 0.16193881630897522, 0.07416194677352905, 0.0018547804793342948, -0.012694776058197021, 0.14803683757781982, -0.051847267895936966, 0.026994891464710236, 0.012843221426010132, -0.012622632086277008, -0.09933724999427795, 0.04494328051805496, 0.018296992406249046, -0.07567148655653, -0.1462862640619278, -0.054696016013622284, 0.004564098082482815, -0.009934812784194946, -0.05412996560335159, -0.017788104712963104, 0.007252335548400879, -0.0038224682211875916, -0.07240696996450424, 0.04630386829376221, 0.010713912546634674, -0.04550434276461601, -0.04234705865383148, -0.05195055902004242, -0.00784638524055481, -0.001607939600944519, 0.07785028219223022, 0.048779577016830444, 0.07398675382137299, 0.006952807307243347, -0.027493569999933243, 0.11250565946102142, 0.013922219164669514, 0.03443646430969238, 0.02379264123737812, -0.001199399121105671, -0.0006544217467308044, 0.10182151943445206, -0.013131856918334961, 0.05311787128448486, -0.08433575928211212, -0.004437420517206192, 0.04082662612199783, 0.019801899790763855, -0.04847579449415207, 0.011070681735873222, -0.037688955664634705, -0.040750354528427124, -0.032047610729932785, -0.005851678550243378, -0.03671075403690338, 0.012487299740314484, 0.003202330321073532, -0.06073999032378197, 0.033559367060661316, -0.02781716175377369, -0.007661070674657822, 0.012511767446994781, -0.0008842796087265015, 0.06089338660240173, -0.0262749083340168, 0.05070749670267105, -0.04401213675737381, 0.14643031358718872, 0.11631040275096893, -0.015638887882232666, 0.0622100904583931, -0.05169907584786415, 0.01867472007870674, 0.021480388939380646, 0.0913705974817276, 0.03005155175924301, 0.002024926245212555, 0.04091925173997879, -0.008963089436292648, -0.11943505704402924, 0.1458435356616974, 0.008783185854554176, -0.08151239901781082, -0.006345193833112717, 0.04193980246782303, 0.05237229913473129, -0.018926575779914856, 0.018168993294239044, -0.022794032469391823, -0.0531107634305954, -0.0322432778775692, -0.0095871202647686, 0.13788262009620667, 0.02528020739555359, 0.2248178869485855, -0.14923134446144104, 0.10747930407524109, 0.02081182599067688, 0.012462064623832703, 0.03304062411189079, 0.053443774580955505, 0.1386144608259201, -0.04919146001338959, -0.10235121846199036, -0.09881605952978134, -0.02628973126411438, -0.00043341144919395447, -0.009859390556812286, -0.051198773086071014, -0.03856688737869263},
    {0.09763863682746887, 0.017014700919389725, 0.0008591716177761555, -0.004108717665076256, -0.01454614382237196, -0.032159946858882904, -0.009072881191968918, 0.006694518029689789, -0.009414862841367722, -0.05280587822198868, -0.010271821171045303, -0.04779719188809395, -0.010998991318047047, 0.001820933073759079, -0.004319384694099426, 0.07420334219932556, 0.0014470890164375305, 0.11834721267223358, 0.039493873715400696, 0.0030455440282821655, 0.01839679479598999, 0.04708332568407059, 0.012030565179884434, 0.04616546630859375, -0.061560600996017456, -0.06156979501247406, -0.022078271955251694, -0.001961205154657364, 0.04670342057943344, 0.01443919725716114, -0.04149828851222992, -0.0370805561542511, -0.012605845928192139, -0.04405026137828827, 0.043062157928943634, 0.015357773751020432, -0.18304701149463654, -0.04625924676656723, -0.03140532597899437, 0.01201087236404419, -0.06463656574487686, -0.049178216606378555, -0.052886962890625, 0.048317015171051025, 0.03601032495498657, -0.02060423046350479, -0.09441597759723663, -0.030725888907909393, -0.03902393579483032, -0.0025927943643182516, 0.05211940407752991, -0.028573142364621162, -0.040317412465810776, -0.01275547593832016, 0.029059195891022682, -0.02976094000041485, 0.0410427451133728, 0.03418062627315521, -0.007667120546102524, 0.002284519374370575, 0.031753405928611755, -0.03875421732664108, 0.04776967316865921, 0.021389011293649673, 0.012275096960365772, -0.037396837025880814, -0.04809592664241791, -0.03768531605601311, -0.04053160175681114, -0.02988721989095211, 0.03254465013742447, 0.04805339127779007, 0.011877601966261864, -0.090813048183918, -0.04939565062522888, -0.01409192569553852, -0.00250963494181633, -0.03417626768350601, -0.04385780543088913, 0.05340152978897095, -0.014641143381595612, 0.007953708991408348, -0.11151643842458725, -0.1518014520406723, -0.06112518161535263, 0.09798654913902283, 0.04780526086688042, 0.05182582885026932, 0.06377089023590088, 0.021208861842751503, 0.04889684170484543, 0.09144531190395355, -0.028050871565937996, -0.03827652335166931, 0.03566357493400574, 0.035921625792980194, 0.13755062222480774, 0.040675174444913864, 0.03826279938220978, 0.008549556136131287, 0.03358371555805206, 0.09468059986829758, 0.0009032562375068665, -0.04731249064207077, -0.01170073077082634, 0.140546053647995, 0.06470730155706406, 0.07572954893112183, -0.06726127117872238, 0.046301402151584625, 0.0377710685133934, -0.050595205277204514, -0.03568501025438309, 0.018971124663949013, -0.02175862528383732, -0.06279252469539642, -0.04253074526786804, 0.03415868431329727, 0.02444510906934738, -0.04823572561144829, 0.05151855945587158, -0.08267354965209961, 0.06243734061717987, -0.012635990977287292, 0.03494468331336975, 0.0501905158162117, 0.05441966652870178, 0.037773922085762024, -0.07652480900287628, -0.020820848643779755, -0.014082846231758595, -0.03794660419225693, 0.03587745875120163, 0.019908204674720764, 0.003233856987208128, 0.06824891269207001, -0.022139986976981163, -0.11349913477897644, -0.06891589611768723, 0.029856212437152863, 0.026089226827025414, 0.006439766380935907, -0.03546466678380966, 0.017421364784240723, -0.0732271745800972, -0.03169112280011177, 0.09379111975431442, -0.008109444752335548, -0.01860564574599266, 0.024797633290290833, -0.040267981588840485, -0.053232815116643906, 0.042219534516334534, -0.00854705274105072, 0.034738220274448395, 0.05497872084379196, -0.023849928751587868, 0.014151524752378464, 0.01873628795146942, -0.029996633529663086, 0.020764976739883423, -0.05422592535614967, -0.019501421600580215, 0.01367013156414032, -0.007347647100687027, 0.015612944960594177, -0.04139083996415138, -0.025850074365735054, -0.0813785195350647, -0.05495047941803932, 0.025338634848594666, 0.05791176110506058, 0.019113048911094666, 0.02407211810350418, 0.0481967069208622, -0.05746142193675041, 0.0006979343015700579, 0.04200252890586853, 0.12215326726436615, -0.012796580791473389, 0.031629517674446106, 0.014647237956523895, 0.09579257667064667, 0.03316114842891693, -0.04170919582247734, 0.010025415569543839, -0.08163652569055557, 0.007155321072787046, -0.05571374669671059, 0.023055551573634148, 0.0028786733746528625, -0.026281900703907013, -0.06489479541778564, 0.024729205295443535, 0.041294485330581665, 0.0028615184128284454, -0.018903955817222595, -0.015411559492349625, -0.05679509788751602, -0.07856922596693039, -0.1876174658536911, 0.050858236849308014, -0.050449587404727936, -0.041391678154468536, -0.07623065263032913, 0.017317932099103928, 0.05278715863823891, -0.031811609864234924, 0.13507266342639923, -0.027305981144309044, -0.0724700465798378, 0.03880047798156738, -0.013766961172223091, 0.025757428258657455, -0.0070930421352386475, -0.04829484224319458, -0.09266648441553116, -0.01657591387629509, 0.0017601139843463898, 0.0240631103515625, 0.024683266878128052, 0.09521570801734924, -0.03572555631399155, -0.021211231127381325, -0.020194072276353836, 0.03280522674322128, -0.02487782947719097, -0.02327890321612358, -0.006442104931920767, 0.06834353506565094, 0.08575247973203659, 0.0028289221227169037, -0.012583959847688675, 0.05808558315038681, -0.027237964794039726, 0.035319842398166656, 0.03201916813850403, 0.019600026309490204, 0.02831149846315384, -0.06217079609632492, 0.0476384237408638, -0.044811367988586426, 0.011776112020015717, 0.04865525662899017, -0.021338120102882385, 0.01221221499145031, 0.028137145563960075, -0.05467381700873375, -0.04631471261382103, -0.0020446903072297573, 0.05429568141698837, -0.03981800377368927, 0.13038340210914612, 0.0014758780598640442, -0.04867482930421829, -0.09311865270137787, -0.054549697786569595, -0.05444787070155144, -0.030251553282141685, -0.016238264739513397, 0.06696655601263046, -0.007316473871469498, -0.04948154091835022, 0.029889095574617386, 0.017640158534049988, 0.04180862009525299, 0.032668352127075195, 0.011058732867240906, -0.015586499124765396, 0.019895784556865692, -0.013889044523239136, -0.005023065954446793, -0.034505292773246765, -0.033868588507175446, -0.03254297748208046, -0.046183742582798004, -0.001514088362455368, 0.055110640823841095, -0.04760380834341049, -0.06206642463803291, -0.028126707300543785, -0.04463975131511688, 0.021359235048294067, -0.023474879562854767, -0.027386147528886795, 0.04614166170358658, -0.014650266617536545, 0.04132109880447388, -0.033383358269929886, 0.04123760759830475, -0.04305654391646385, -0.06864878535270691, 0.004655400291085243, 0.008958612568676472, -0.026860132813453674, -0.044910140335559845, 0.01051890105009079, -0.04046957939863205, 0.024156533181667328, 0.036474548280239105, -0.029689202085137367, -0.009331971406936646, -0.041033029556274414, -0.028085842728614807, 0.04123188555240631, -0.1838688999414444, -0.06938514858484268, -0.10312891006469727, -0.04726491495966911, 0.050477661192417145, 0.08586917072534561, 0.04837000370025635, -0.011227522976696491, -0.1535610556602478, -0.16438837349414825, -0.17872455716133118, 0.036715418100357056, 0.021637320518493652, 0.010380499064922333, 0.05307583510875702, 0.013222534209489822},
    {-0.0012150495313107967, 0.06739725917577744, 0.002005708869546652, -0.056712571531534195, 0.014197900891304016, -0.024163078516721725, 0.006739504635334015, 0.04565979540348053, -0.05056462809443474, -0.007789485156536102, -0.029729336500167847, 0.03679198771715164, 0.07716601341962814, -0.04876140505075455, 0.004282638430595398, -0.050112850964069366, -0.013981718569993973, -0.0030853834468871355, 0.051746271550655365, -0.044123902916908264, -0.01886790618300438, -0.028105350211262703, -0.00023145148588810116, -0.019199635833501816, 0.06188441067934036, -0.019269179552793503, 0.10213391482830048, -0.04396561533212662, -0.03317788988351822, -0.03148672729730606, -0.05415112152695656, -0.05090039223432541, -0.006931141018867493, 0.028622373938560486, 0.05477556586265564, -0.009106707759201527, 0.1589716523885727, 0.007540024816989899, 0.005801226943731308, 0.045363008975982666, 0.04984135925769806, 0.035621896386146545, 0.27582380175590515, -0.028214721009135246, -0.027269642800092697, -0.04200565442442894, -0.1269223690032959, 0.014182932674884796, -0.05326562747359276, -0.06626258045434952, -0.03612830489873886, 0.07052712142467499, -0.0058414749801158905, 0.04062847048044205, 0.05061079561710358, -0.09362432360649109, -0.006266999989748001, -0.045144833624362946, -0.0170443095266819, -0.04606005921959877, 0.01773117482662201, -0.03303487226366997, -0.015977676957845688, 0.06067216396331787, -0.05268391966819763, 0.0024332853499799967, 0.02076461911201477, 0.01329251378774643, 0.06223132461309433, 0.013345450162887573, 0.011518612504005432, -0.012159398756921291, 0.009096010588109493, 0.045037634670734406, 0.04733264446258545, 0.04098263010382652, 0.05416938662528992, 0.07884202897548676, 0.09237183630466461, -0.023842480033636093, 0.07261501997709274, 0.019381579011678696, -0.06576716154813766, 0.024244269356131554, 0.08705636858940125, 0.02441003918647766, -0.03365688771009445, 0.017783034592866898, -0.040717415511608124, -0.0647357702255249, -0.027710333466529846, -0.006139659322798252, 0.126787468791008, 0.008973821997642517, 0.047334134578704834, -0.045163750648498535, 0.09295359253883362, 0.14183993637561798, -0.0367305614054203, 0.011172980070114136, -0.02073272317647934, -0.00836424995213747, 0.01087930053472519, -0.021926529705524445, 0.01532820612192154, -0.001072139129973948, 0.022977439686655998, -0.01820128969848156, 0.007380701135843992, -0.0380835235118866, 0.03577447682619095, 0.06815622001886368, 0.13980337977409363, 0.06534525752067566, 0.0054955752566456795, 0.16261522471904755, -0.01401204988360405, -0.03674305975437164, 0.009083062410354614, -0.028038427233695984, 0.015643343329429626, 0.14272601902484894, -0.12186111509799957, 0.045049943029880524, 0.01874399185180664, 0.0025656744837760925, 0.03410256654024124, 0.0018517188727855682, 0.06656835228204727, 0.023360460996627808, 0.14759495854377747, 0.0802714079618454, -0.030082358047366142, -0.002202346920967102, -0.016823135316371918, -0.001925641088746488, -0.058261673897504807, 0.14203955233097076, -0.009776919148862362, 0.051980793476104736, -0.009649778716266155, 0.06087478622794151, -0.026217034086585045, 0.027583450078964233, 0.15099580585956573, 0.021952763199806213, -0.018861398100852966, -0.10082171857357025, 0.03134676814079285, -0.0027710162103176117, 0.10447275638580322, -0.005388915538787842, -0.02719530090689659, -0.00638970360159874, -0.053132377564907074, -0.02201813831925392, 0.1208559200167656, 0.061185091733932495, 0.0032456181943416595, -0.025859203189611435, 0.04376532882452011, -0.0545082651078701, -0.0498160794377327, -0.0010725036263465881, 0.027765348553657532, -0.05325501039624214, 0.030792102217674255, -0.0447235144674778, 0.03911012411117554, 0.04965534061193466, -0.015248477458953857, 0.016276832669973373, 0.007666848599910736, 0.0507245808839798, -0.011120394803583622, 0.0729077160358429, 0.007854137569665909, 0.02918504737317562, 0.07861293107271194, -0.02857590653002262, 0.03639122098684311, 0.012394778430461884, 0.16779661178588867, 0.14775076508522034, 0.02006584405899048, 0.09419877082109451, 0.11995989084243774, 0.16013100743293762, -0.07365136593580246, 0.10928459465503693, -0.02688315324485302, 0.007891647517681122, 0.12247981131076813, -0.052158817648887634, 0.039272457361221313, 0.014807097613811493, 0.0283634215593338, 0.028862088918685913, 0.03262615203857422, -0.07547704130411148, -0.027875740081071854, 0.03969593346118927, 0.03645138442516327, 0.008787460625171661, 0.041884925216436386, -0.08723881095647812, -0.016957120969891548, -0.04055742174386978, -0.006496724672615528, 0.03725310042500496, -0.08018133044242859, -0.017687853425741196, 0.03804716840386391, -0.07430385798215866, -0.0039971270598471165, 0.004227381199598312, 0.05819021165370941, 0.008315876126289368, 0.05569082498550415, -0.04835361987352371, 0.039692699909210205, -0.018772607669234276, 0.042959973216056824, -0.061030495911836624, 0.25224998593330383, -0.01565992459654808, 0.10708477348089218, 0.003792792558670044, 0.04031416028738022, 0.017285732552409172, -0.025633150711655617, 0.04369611293077469, -0.05511753261089325, -0.058640241622924805, -0.0029621608555316925, -0.034095339477062225, 0.024311624467372894, -0.0384269654750824, 0.05489888787269592, 0.05809943005442619, -0.0026195161044597626, -0.019859351217746735, 0.0062315091490745544, -0.04867696389555931, -0.02015165239572525, -0.07151658833026886, -0.027384912595152855, 0.020316915586590767, 0.043062180280685425, 0.02911391668021679, 0.011097565293312073, -0.021147992461919785, -0.1111760213971138, -0.01387174054980278, 0.015368841588497162, -0.0990782305598259, -0.0010211095213890076, -0.03999800980091095, -0.0014951787889003754, 0.001653384417295456, 0.04643388092517853, 0.02708708494901657, -0.05085345730185509, 0.05136480554938316, -0.009870655834674835, 0.006711110472679138, 0.031281232833862305, -0.03297581523656845, 0.18334835767745972, -0.006571128964424133, -0.037934429943561554, 0.036168694496154785, -0.04070371389389038, -0.007775753736495972, 0.08752788603305817, -0.011527623981237411, -0.05304037779569626, 0.017524823546409607, 0.03042229823768139, 0.06190355122089386, 0.04403726011514664, 0.1253553032875061, 0.04687065631151199, 0.049660928547382355, 0.04309810698032379, 0.008660934865474701, -0.05429495871067047, 0.007135137915611267, 0.10923831164836884, 0.0038252100348472595, -0.059505559504032135, -0.05464765056967735, -0.04346888139843941, 0.0672392025589943, 0.0031100064516067505, -0.048009004443883896, 0.014342397451400757, -0.04668162018060684, -0.02191370353102684, 0.06431271135807037, 0.005520645063370466, -0.03409665822982788, -0.017015963792800903, -0.02372797764837742, 0.02227061241865158, 0.1075315847992897, -0.06319832801818848, 0.12271715700626373, -0.034240420907735825, 0.00383000448346138, -0.009810693562030792, 0.007225453853607178, 0.1009296402335167, 0.009605228900909424, 0.16297948360443115, 0.1119488924741745, 0.019308552145957947, -0.03683885186910629, -0.014876540750265121, -0.04196924716234207, 0.08758576214313507},
    {0.03477302938699722, 0.013385511003434658, -0.06844276934862137, -0.016481587663292885, 0.01213745679706335, -0.006496887654066086, 0.04546692222356796, -0.03575447201728821, 0.01463557779788971, 0.03476198762655258, -0.008731991052627563, 0.04542607069015503, -0.013974891044199467, 0.006328556686639786, -0.02864350751042366, 0.08118631690740585, 0.05551932007074356, 0.0753963440656662, 0.02455849200487137, 0.028262756764888763, 0.04964796453714371, 0.0329219251871109, 0.025186343118548393, 0.007091045379638672, -0.03072803094983101, -0.09910121560096741, -0.07637428492307663, -0.01318833976984024, 0.03892824798822403, 0.008902326226234436, 0.01420227438211441, -0.02310478687286377, 0.06766185164451599, -0.02926885336637497, -0.0127556212246418, 0.025791777297854424, -0.09970937669277191, 0.010643303394317627, -0.01695294678211212, -0.03685906529426575, -0.006707843858748674, -0.02448362112045288, 0.14407770335674286, 0.04096370190382004, -0.03211898356676102, 0.026860632002353668, -0.09204117208719254, -0.049545422196388245, -0.01596114970743656, -0.016495173797011375, 0.030149340629577637, -0.04577472060918808, 0.02945587784051895, -0.028712958097457886, -0.06089963763952255, 0.06510255485773087, 0.0524461567401886, -0.05151815712451935, -0.04681995511054993, -0.041889652609825134, 0.01945040374994278, -0.027999045327305794, 0.014806009829044342, 0.045286573469638824, 0.07488878071308136, -0.1084502786397934, -0.049488481134176254, 0.028958484530448914, -0.020869506523013115, -0.015111654996871948, 0.008190765976905823, 0.05702115222811699, 0.039584994316101074, -0.059277068823575974, -0.04974324256181717, -0.03399151936173439, -0.019262809306383133, -0.0744074359536171, -0.10113070160150528, 0.03940161317586899, -0.03645584359765053, -0.008215379901230335, -0.13350439071655273, -0.14794142544269562, 0.014989818446338177, 0.08756913244724274, 0.00278813811019063, 0.04498087987303734, -0.022439224645495415, 0.05747642368078232, 0.053645502775907516, 0.10433171689510345, -0.05243689566850662, -0.03851442039012909, 0.0012316517531871796, -0.00407608225941658, 0.07160606980323792, 0.04063043370842934, 0.005869157612323761, 0.009181126952171326, 0.0327419713139534, 0.1349215805530548, -0.028383983299136162, 0.028092660009860992, -0.021200057119131088, 0.06813383102416992, -0.0022025040816515684, 0.13258826732635498, -0.045440200716257095, 0.022476322948932648, 0.004972399212419987, -0.07202379405498505, -0.0368599072098732, -0.03657341003417969, 0.006260198540985584, -0.0985683724284172, -0.03438930958509445, -0.011658120900392532, 0.041386090219020844, -0.01053241640329361, -0.00315915048122406, 0.06742183119058609, 0.0806410163640976, -0.016781702637672424, 0.038480326533317566, 0.04255790263414383, -0.039629094302654266, 0.04905866086483002, -0.030102025717496872, 0.01608671247959137, -0.11957903206348419, -0.004809082020074129, 0.001477707177400589, 0.007032893598079681, 0.07781828939914703, 0.07109615951776505, 0.0033603678457438946, -0.13692764937877655, -0.06569176912307739, -0.05321349948644638, 0.08451230078935623, 0.02623845264315605, -0.008639417588710785, 0.017222434282302856, -0.18600550293922424, -0.05511363968253136, 0.13053050637245178, 0.012239583767950535, -0.012991674244403839, -0.017814353108406067, -0.06227899342775345, -0.04223392531275749, -0.03582674264907837, -0.025700900703668594, 0.007876163348555565, -0.005694873631000519, -0.046884648501873016, -0.01977766677737236, -0.014779232442378998, 0.029344961047172546, -0.01903073862195015, -0.04027632623910904, -0.03851694613695145, -0.024973547086119652, 0.01264163851737976, -0.027757639065384865, -0.008548982441425323, 0.013726845383644104, -0.009481778368353844, 0.0007945150136947632, 0.0270393043756485, 0.14313280582427979, 0.04753332585096359, 0.006561502814292908, 0.13288310170173645, -0.019346170127391815, -0.0323331281542778, 0.025622501969337463, -0.0016135995974764228, -0.02146833762526512, 0.007311224937438965, -0.05022767186164856, 0.17154107987880707, 0.21177563071250916, -0.04271264001727104, 0.023146899417042732, -0.0049292054027318954, 0.15466850996017456, -0.004448354244232178, 0.016396764665842056, 0.029072843492031097, 0.03461369127035141, -0.034266844391822815, 0.05913249030709267, 0.034945569932460785, -0.010206609964370728, 0.0008697733283042908, -0.029089059680700302, -0.05638385936617851, 0.09081295877695084, -0.12349781394004822, -0.05545980483293533, -0.004218928515911102, 0.020388804376125336, -0.03652408346533775, 0.06495847553014755, 0.04713417962193489, 0.021977372467517853, 0.11610382795333862, 0.02411913499236107, -0.10033519566059113, -0.0158410482108593, -0.039481956511735916, 0.020516473799943924, 0.024729471653699875, -0.013965554535388947, -0.013842743821442127, 0.04632188379764557, 0.012648172676563263, 0.025140151381492615, -0.007224466651678085, 0.15573492646217346, 0.019565090537071228, -0.029181785881519318, 0.11554236710071564, 0.011657352559268475, 0.014644630253314972, 0.041433051228523254, -0.011231093667447567, 0.033904459327459335, 0.06291462481021881, 0.024174250662326813, -0.039232708513736725, 0.026708688586950302, 0.04817504435777664, -0.040086664259433746, 0.010669223964214325, -0.009447365999221802, 0.03542771935462952, -0.03405284509062767, 0.0107421875, 0.043484948575496674, -0.037234239280223846, 0.0008182377205230296, -0.013828616589307785, 0.026862800121307373, 0.03303399309515953, -0.014837754890322685, -0.0010198242962360382, -0.0356518030166626, 0.08051150292158127, 0.042959898710250854, 0.0922321081161499, -0.01295715942978859, 0.03047841787338257, -0.0017265736823901534, 0.04879798740148544, -0.010412853211164474, -0.05316285043954849, -0.03583288937807083, 0.00373313226737082, -0.05107193440198898, 0.04628767818212509, -0.019953282549977303, -0.0428757444024086, 0.03963952511548996, -0.02722240798175335, 0.04540067911148071, 0.09066517651081085, -0.016122963279485703, 0.04363422840833664, -0.052405185997486115, 0.009194441139698029, -0.034260302782058716, -0.06242421641945839, 0.010183647274971008, -0.03475787863135338, 0.01738569140434265, -0.09399018436670303, -0.09103036671876907, -0.016414344310760498, -0.06369168311357498, -0.02839505486190319, -0.06016790121793747, -0.05305520445108414, -0.050687581300735474, 0.025766685605049133, 0.011212900280952454, -0.059821173548698425, 0.03696948289871216, -0.06299836933612823, 0.004030775278806686, 0.05301419645547867, -0.025330644100904465, -0.007698770612478256, 0.01926960051059723, -0.013747237622737885, -0.012451227754354477, 0.0345020666718483, -0.01532835140824318, -0.007350054569542408, -0.022131022065877914, -0.006438050419092178, 0.02841757982969284, -0.00966588407754898, -0.036098189651966095, -0.018075719475746155, -0.03878128156065941, 0.025525495409965515, 0.041345298290252686, 0.07760050892829895, 0.05440666526556015, 0.016580821946263313, -0.14106638729572296, -0.10605385899543762, -0.15476788580417633, 0.017669185996055603, 0.042918987572193146, 4.429370164871216e-05, -0.03983469307422638, 0.028529560193419456},
